svm_type one_class
kernel_type rbf
gamma 0.15
nr_class 2
total_sv 237
rho 19.689848890012627
SV
1.0 1:1.2330766165241331 2:1.9424580236424829 3:-0.26376935381661626 4:-1.2873732599334593 5:-0.6924393247241311 6:-1.1025369566033936 7:0.6040037018505788 8:-0.10551538992871327 
1.0 1:-1.1411078811017756 2:0.5037269282016452 3:-1.5037073108550938 4:0.9066790623472525 5:0.7653371892139017 6:1.4088275001580755 7:5.481337032943514 8:-0.020483050510820357 
1.0 1:1.8266227409306104 2:-0.18436185657440762 3:-3.5702705725858896 4:-1.2873732599334593 5:-0.6924393247241311 6:0.41950210810052657 7:-1.019761973971203 8:-0.36061240818239204 
1.0 1:-0.5475617566952984 2:2.3803327048636076 3:0.04621513544300315 4:1.5335511544274558 5:4.019302622111296 6:-0.18931351778104133 7:-0.9473263304401198 8:1.680163737847038 
1.0 1:1.2330766165241331 2:0.12840577286925275 3:1.3894812555680205 4:-1.2873732599334593 5:-0.6924393247241311 6:-4.057829473903507 7:-0.7239830962192798 8:1.7651960772649309 
1.0 1:1.8266227409306104 2:0.5662804540903773 3:0.5628559508757022 4:-1.2873732599334593 5:-0.6924393247241311 6:-0.620557919447152 7:2.9249624466590363 8:2.0202930955186096 
1.0 1:-0.844334818898537 2:2.1301186013086792 3:-0.47042567998969587 4:0.15443255185100851 5:6.648506691892392 6:-0.24004815327117182 7:-0.2229698951292877 8:2.1903577743543954 
1.0 1:0.9363035543208947 2:-0.6535133007398982 3:-3.5702705725858896 4:-1.2873732599334593 5:-0.6924393247241311 6:-0.25273181214370466 7:0.03659116085709365 8:-0.10551538992871327 
1.0 1:-0.844334818898537 2:-0.5596830119068 3:-2.020348126287793 4:1.0947406899713135 5:0.027771691090492306 6:1.4341948179031403 7:-0.8718725350952414 8:-0.020483050510820357 
1.0 1:0.9363035543208947 2:2.3490559419192416 3:1.0794967663084012 4:-1.2873732599334593 5:-0.6924393247241311 6:0.9902667573644968 7:-0.06300784899814567 8:0.659775664832323 
1.0 1:2.716941927540326 2:0.7539410317565735 3:0.666184113962242 4:-0.09631628498107284 5:0.2620572022591047 6:-1.2420572042012532 7:-0.6847471226399432 8:2.0202930955186096 
1.0 1:0.6395304921176561 2:-0.9037274042948265 3:1.1828249293949409 4:-1.2873732599334593 5:-0.6924393247241311 6:-1.5337813582695048 7:-0.8567817760262657 8:-0.44564474760028494 
1.0 1:0.04598436771117886 2:-0.3094689083518718 3:0.14954329852954296 4:1.6589255728434966 5:1.103749594235231 6:0.6478079678061152 7:2.7710367041554838 8:1.9352607561007167 
1.0 1:1.5298496787273719 2:1.5671368683100906 3:2.1127783971737992 4:0.21711976105902883 5:1.3900985523302014 6:1.7005516542263266 7:0.7518931407265401 8:1.7651960772649309 
1.0 1:-1.1411078811017756 2:1.848627734809385 3:-0.16044119073007646 4:1.1574278991793339 5:-0.6924393247241311 6:1.269307252560216 7:4.289167066494437 8:-0.7007417658539636 
1.0 1:0.9363035543208947 2:-0.497129486018068 3:-3.5702705725858896 4:-1.2873732599334593 5:-0.6924393247241311 6:-4.057829473903507 7:-0.5036580138122352 8:-0.7857741052718566 
1.0 1:1.2330766165241331 2:1.7235206830319207 3:1.0794967663084012 4:0.8439918531392322 5:1.9107330215937846 6:0.21656356614000455 7:-0.014717419977423494 8:2.1053254349365025 
1.0 1:0.9363035543208947 2:2.0675650754199473 3:-0.057113027643536644 4:1.1574278991793339 5:1.9454419862113568 6:0.7239099210413115 7:-0.6575837563157869 8:0.659775664832323 
1.0 1:-1.1411078811017756 2:-0.6535133007398982 3:0.9761686032218614 4:2.473859292547761 5:0.2620572022591047 6:1.8781228784417838 7:1.4792677278511672 8:-0.1905477293466062 
1.0 1:-1.1411078811017756 2:0.7852177947009396 3:0.666184113962242 4:-1.2873732599334593 5:-0.6924393247241311 6:1.0790523694722258 7:3.951134063349381 8:0.9148726830860018 
1.0 1:-0.5475617566952984 2:-1.1539415078497548 3:-3.5702705725858896 4:-1.2873732599334593 5:-0.6924393247241311 6:-4.057829473903507 7:-0.5066761656260304 8:-1.0408711235255355 
1.0 1:0.3427574299144175 2:-2.405012025624396 3:-0.36709751690315606 4:-1.2873732599334593 5:-0.6924393247241311 6:-0.8869147557703383 7:0.3474607976779923 8:0.2346139677428584 
1.0 1:-0.5475617566952984 2:-0.3720224342406038 3:1.1828249293949409 4:-1.2873732599334593 5:-0.6924393247241311 6:1.358092864667945 7:1.1261439656371366 8:1.7651960772649309 
1.0 1:2.716941927540326 2:0.1596825358136188 3:1.0794967663084012 4:-1.2873732599334593 5:-0.6924393247241311 6:1.4468784767756733 7:0.33538819042281176 8:0.7448080042502159 
1.0 1:-0.844334818898537 2:-3.7811895951765018 3:-1.0903946585089346 4:-0.033629075773052505 5:-0.6924393247241311 6:-0.9249657323879363 7:-1.0016530630884322 8:-0.9558387841076424 
1.0 1:-1.1411078811017756 2:0.31606635053544896 3:-3.5702705725858896 4:-1.2873732599334593 5:-0.6924393247241311 6:1.4215111590306084 7:-0.6092933272950648 8:-0.6157094264360707 
1.0 1:-0.5475617566952984 2:-1.4667091372934151 3:-3.5702705725858896 4:-1.2873732599334593 5:-0.6924393247241311 6:-4.057829473903507 7:-1.1163428320126472 8:-0.9558387841076424 
1.0 1:0.3427574299144175 2:0.5037269282016452 3:2.0094502340872595 4:-1.2873732599334593 5:-0.6924393247241311 6:2.1317960558924374 7:-0.7390738552882555 8:0.3196463071607513 
1.0 1:2.716941927540326 2:-0.46585272307370196 3:0.14954329852954296 4:2.097736037299639 5:-0.6924393247241311 6:0.5843896734434518 7:-0.886963294164217 8:0.9999050225038947 
1.0 1:3.3104880519468036 2:0.4724501652572792 3:0.04621513544300315 4:0.7186174347231915 5:0.2620572022591047 6:0.6478079678061152 7:-0.9624170895090954 8:0.8298403436681088 
1.0 1:-0.844334818898537 2:-1.279048559627219 3:-0.7287460877060453 4:-1.2873732599334593 5:-0.6924393247241311 6:-1.6352506292497657 7:-0.6455111490606064 8:-1.0408711235255355 
1.0 1:0.9363035543208947 2:-1.247771796682853 3:0.45952778778916237 4:1.2201151083873543 5:-0.27593174931326453 6:1.865439219569252 7:-0.636456693619221 8:0.7448080042502159 
1.0 1:-0.844334818898537 2:-1.5605394261265133 3:-1.0903946585089346 4:-0.15900349418909318 5:-0.03296899699025906 6:-1.4703630639068415 7:-0.44933128116392274 8:-0.9558387841076424 
1.0 1:-0.844334818898537 2:0.034575484036154645 3:1.0794967663084012 4:1.909674409675578 5:1.2165537292423403 6:2.245948985745232 7:-0.44329497753633246 8:-0.1905477293466062 
1.0 1:-0.844334818898537 2:1.3169227647551622 3:0.14954329852954296 4:-1.2873732599334593 5:-0.6924393247241311 6:0.8887974863842358 7:2.263987199437902 8:-0.020483050510820357 
0.28755185170557185 1:-0.844334818898537 2:0.9416016094227697 3:-0.47042567998969587 4:-1.2873732599334593 5:-0.6924393247241311 6:-0.7473945081724787 7:-0.883945142350422 8:-0.9558387841076424 
1.0 1:-1.1411078811017756 2:0.12840577286925275 3:1.3894812555680205 4:-1.2873732599334593 5:-0.6924393247241311 6:-1.2040062275836552 7:-0.6334385418054258 8:-1.0408711235255355 
1.0 1:-0.5475617566952984 2:-1.1226647449053888 3:-0.21210527227334636 4:-1.2873732599334593 5:-0.6924393247241311 6:0.964899439619432 7:1.3826868698097232 8:-0.5306770870181778 
1.0 1:-0.844334818898537 2:-0.7786203525173623 3:2.732747375693038 4:-1.2873732599334593 5:-0.6924393247241311 6:-1.216689886456188 7:-0.7994368915641581 8:-0.5306770870181778 
1.0 1:1.2330766165241331 2:1.0667086612002339 3:-0.36709751690315606 4:0.3424941794750695 5:3.6027950467004297 6:0.2546145427576022 7:0.21466211787100667 8:1.0849373619217875 
1.0 1:-1.1411078811017756 2:1.2856460018107962 3:0.35619962470262256 4:2.22311045571568 5:0.1752847907151742 6:2.6898770462838755 7:0.8665829096507554 8:-0.7007417658539636 
1.0 1:0.3427574299144175 2:0.347343113479815 3:0.5628559508757022 4:-1.2873732599334593 5:-0.6924393247241311 6:-0.65860889606475 7:-0.862818079653856 8:3.040681168533325 
1.0 1:-0.844334818898537 2:-1.0288344560722906 3:-2.020348126287793 4:1.3454895268033948 5:0.16660754956078114 6:2.9181829059894633 7:0.07280898262263528 8:-0.6157094264360707 
1.0 1:-1.1411078811017756 2:-0.497129486018068 3:0.7695122770487818 4:-1.2873732599334593 5:-0.6924393247241311 6:-0.519088648466891 7:0.8122561770024429 8:2.445454792608074 
1.0 1:1.5298496787273719 2:0.034575484036154645 3:-0.6770820061627755 4:-1.2873732599334593 5:-0.6924393247241311 6:0.16582893064987314 7:1.9380268035480277 8:-0.020483050510820357 
0.3984072088296123 1:0.3427574299144175 2:-0.497129486018068 3:0.14954329852954296 4:0.5305558070991305 5:2.127664050453611 6:0.6224406500610495 7:-0.9443081786263247 8:-0.44564474760028494 
1.0 1:-1.1411078811017756 2:-0.5909597748511661 3:0.30453554315935266 4:0.15443255185100851 5:-0.6924393247241311 6:-4.057829473903507 7:0.30218852047106526 8:-1.0408711235255355 
1.0 1:1.5298496787273719 2:-1.9984141073476378 3:0.5628559508757022 4:1.0320534807632933 5:-0.6924393247241311 6:0.10241063628720977 7:-1.134451742895418 8:0.659775664832323 
0.911931391130606 1:-0.5475617566952984 2:-0.46585272307370196 3:-0.26376935381661626 4:0.9066790623472525 5:0.3401523726486422 6:-0.18931351778104133 7:2.801218222293435 8:0.06454928890707255 
1.0 1:-0.844334818898537 2:1.004155135311502 3:0.666184113962242 4:1.3454895268033948 5:3.5160226351564994 6:1.0917360283447588 7:0.6492759790575059 8:-0.8708064446897495 
1.0 1:1.2330766165241331 2:2.0988418383643133 3:0.45952778778916237 4:-1.2873732599334593 5:-0.6924393247241311 6:2.0176431260396432 7:-1.0107075185298176 8:0.8298403436681088 
1.0 1:0.9363035543208947 2:0.9728783723671358 3:0.9761686032218614 4:1.4708639452194356 5:-0.6924393247241311 6:2.2839999623628295 7:-0.40707715577079084 8:0.2346139677428584 
1.0 1:3.9040341763532806 2:1.3169227647551622 3:0.14954329852954296 4:1.2828023175953747 5:0.29676616687667695 6:1.1297870049623564 7:1.0416357148508728 8:1.1699697013396804 
1.0 1:-1.1411078811017756 2:-0.21563861951877367 3:0.5628559508757022 4:0.8439918531392322 5:1.7805744042778888 6:1.548347747755935 7:-0.9201629641159635 8:-0.5306770870181778 
1.0 1:-0.5475617566952984 2:-1.0601112190166566 3:-3.5702705725858896 4:0.15443255185100851 5:-0.6924393247241311 6:-0.39225205974156424 7:0.9088370350438872 8:-0.7007417658539636 
1.0 1:-0.844334818898537 2:-1.310325322571585 3:-0.47042567998969587 4:1.3454895268033948 5:-0.27593174931326453 6:1.459562135648206 7:0.6221126127333496 8:-0.8708064446897495 
1.0 1:-1.1411078811017756 2:0.2535128246467169 3:2.1127783971737992 4:1.5962383636354762 5:0.43560202534696574 6:4.452905629565915 7:-0.4614038884191033 8:-0.6157094264360707 
1.0 1:-0.844334818898537 2:-3.7811895951765018 3:0.25287146161608276 4:-0.033629075773052505 5:-0.4928627781730908 6:-0.5444559662119562 7:-0.521766924695006 8:-1.0408711235255355 
1.0 1:1.2330766165241331 2:1.879904497753751 3:-0.057113027643536644 4:0.9693662715552729 5:3.6027950467004297 6:-0.24004815327117182 7:0.4319690484642561 8:2.2753901137722883 
1.0 1:-0.844334818898537 2:0.22223606170235086 3:1.4928094186545604 4:1.2828023175953747 5:-0.189159337769334 6:9.413653069487583E-4 7:2.56278422900362 8:-0.020483050510820357 
1.0 1:2.123395803133849 2:0.44117340231291313 3:-3.5702705725858896 4:-1.2873732599334593 5:-0.6924393247241311 6:2.575724116431081 7:0.3202974313538361 8:0.5747433254144301 
1.0 1:1.2330766165241331 2:2.3490559419192416 3:0.35619962470262256 4:0.5305558070991305 5:1.7371881985059234 6:0.6985426032962457 7:0.40178753032630476 8:2.0202930955186096 
1.0 1:0.3427574299144175 2:1.2856460018107962 3:1.8027939079141797 4:-1.2873732599334593 5:-0.6924393247241311 6:0.7239099210413115 7:-0.9684533931366858 8:1.595131398429145 
1.0 1:-1.1411078811017756 2:0.8164945576453055 3:0.8211763585920516 4:2.097736037299639 5:-0.6924393247241311 6:1.370776523540477 7:-0.29238738684657584 8:-0.7857741052718566 
1.0 1:0.9363035543208947 2:1.8173509718650187 3:1.3378171740247506 4:0.6559302255151712 5:-0.6924393247241311 6:0.2799818605026679 7:-0.9292174195573489 8:2.2753901137722883 
1.0 1:2.4201688653370876 2:0.9416016094227697 3:0.04621513544300315 4:1.2201151083873543 5:1.659093028116386 6:1.2439399348151503 7:0.8152743288162381 8:0.4046786465786442 
1.0 1:-1.1411078811017756 2:1.7547974459762867 3:-0.47042567998969587 4:0.5305558070991305 5:3.455281947075748 6:0.3307164959927984 7:1.811264427368632 8:-1.0408711235255355 
1.0 1:-0.5475617566952984 2:1.160538950033332 3:1.0794967663084012 4:-1.2873732599334593 5:-0.6924393247241311 6:-0.04979327018318175 7:1.0054178930853317 8:2.785584150279646 
1.0 1:0.9363035543208947 2:-0.05925480479694347 3:-3.5702705725858896 4:-1.2873732599334593 5:-0.6924393247241311 6:-0.861547438025273 7:-0.7934005879365679 8:0.3196463071607513 
0.4452962730817801 1:0.9363035543208947 2:0.6601107429234754 3:-0.47042567998969587 4:0.7813046439312119 5:0.9562364946105489 6:-0.40493571861409666 7:0.6492759790575059 8:2.360422453190181 
1.0 1:0.04598436771117886 2:2.3803327048636076 3:0.04621513544300315 4:1.1574278991793339 5:5.763428094144301 6:0.5970733323159847 7:5.605081257309115 8:-0.1905477293466062 
0.2290232860921765 1:-1.1411078811017756 2:-0.12180833068567555 3:0.5628559508757022 4:0.6559302255151712 5:-0.23254554354129928 6:1.6751843364812617 7:-1.1555788055919838 8:-0.7857741052718566 
1.0 1:0.6395304921176561 2:0.4098966393685471 3:0.5628559508757022 4:1.0320534807632933 5:2.5181399024012983 6:1.8020209252065886 7:-0.7058741853365091 8:1.0849373619217875 
1.0 1:-1.1411078811017756 2:1.8173509718650187 3:1.0794967663084012 4:0.40518138868308984 5:-0.6924393247241311 6:1.5356640888834023 7:0.6462578272437107 8:-0.8708064446897495 
1.0 1:-1.1411078811017756 2:-0.528406248962434 3:0.35619962470262256 4:-1.2873732599334593 5:-0.6924393247241311 6:-1.7240362413574948 7:0.33237003860901665 8:-0.5306770870181778 
1.0 1:0.6395304921176561 2:-0.05925480479694347 3:-0.9870664954223949 4:0.09174534264298817 5:0.8347551184490462 6:-0.620557919447152 7:2.553729773562235 8:-0.020483050510820357 
1.0 1:1.5298496787273719 2:1.9737347865868489 3:0.8211763585920516 4:-0.3470651218131542 5:-0.6924393247241311 6:-0.25273181214370466 7:2.2368238331137458 8:1.3400343801754664 
1.0 1:-1.1411078811017756 2:1.3794762906438942 3:1.0794967663084012 4:0.7813046439312119 5:5.208084660263145 6:2.575724116431081 7:-0.13544349252922894 8:-0.8708064446897495 
1.0 1:1.5298496787273719 2:0.09712900992488673 3:0.04621513544300315 4:0.7813046439312119 5:2.795811619341876 6:0.43218576697305944 7:-0.5730755055295232 8:0.06454928890707255 
1.0 1:2.4201688653370876 2:-0.9037274042948265 3:-0.36709751690315606 4:-0.8485627954773168 5:1.5462888931092764 6:-0.5571396250844887 7:1.3706142625545428 8:0.9148726830860018 
1.0 1:-0.844334818898537 2:2.255225653086143 3:-0.9870664954223949 4:-0.28437791260513384 5:2.5615261081732634 6:-0.7727618259175444 7:0.5526951210160616 8:-0.7857741052718566 
1.0 1:2.123395803133849 2:1.0667086612002339 3:0.35619962470262256 4:0.4678685978911102 5:0.6091468484348268 6:0.16582893064987314 7:2.6593650870450642 8:1.5100990590112522 
1.0 1:-0.25078869449205976 2:0.6288339799791094 3:-3.5702705725858896 4:-1.2873732599334593 5:-0.6924393247241311 6:-0.25273181214370466 7:0.8726192132783456 8:-0.5306770870181778 
1.0 1:-1.1411078811017756 2:0.5350036911460112 3:-3.5702705725858896 4:-1.2873732599334593 5:-0.6924393247241311 6:0.5463386968258533 7:1.3917413252511086 8:-0.7007417658539636 
1.0 1:-1.1411078811017756 2:-0.5909597748511661 3:-0.8837383323358551 4:-1.2873732599334593 5:-0.6924393247241311 6:-0.8742310968978054 7:-1.1887784755437303 8:-1.0408711235255355 
1.0 1:-0.5475617566952984 2:0.7852177947009396 3:-3.5702705725858896 4:-1.2873732599334593 5:-0.6924393247241311 6:-0.5698232839570215 7:-0.6998378817089188 8:-0.44564474760028494 
1.0 1:1.8266227409306104 2:-0.6222365377955321 3:0.8728404401353216 4:1.0320534807632933 5:-0.6924393247241311 6:1.7259189719713923 7:2.00442614345152 8:0.4046786465786442 
1.0 1:-0.844334818898537 2:-1.5605394261265133 3:0.45952778778916237 4:1.8469872004675576 5:-0.3019634727764437 6:0.1531452717773412 7:-0.1505342515982046 8:-1.0408711235255355 
1.0 1:2.716941927540326 2:-0.46585272307370196 3:0.04621513544300315 4:-1.2873732599334593 5:-0.6924393247241311 6:0.2799818605026679 7:-0.6666382117571723 8:1.595131398429145 
1.0 1:-0.5475617566952984 2:-0.40329919718496987 3:-0.36709751690315606 4:-0.6605011678532559 5:1.7198337161971373 6:-0.8488637791527401 7:1.2347974309337615 8:-0.9558387841076424 
1.0 1:0.3427574299144175 2:1.0667086612002339 3:0.7695122770487818 4:1.4708639452194356 5:4.036657104420082 6:0.8507465097666381 7:0.44404165571943666 8:0.06454928890707255 
1.0 1:-1.1411078811017756 2:1.25436923886643 3:-0.9870664954223949 4:-1.2873732599334593 5:-0.6924393247241311 6:-1.2801081808188512 7:-0.6575837563157869 8:2.7005518108617528 
1.0 1:3.013714989743565 2:-0.6535133007398982 3:0.45952778778916237 4:0.2798069702670492 5:0.9041730476841906 6:0.5843896734434518 7:-0.18071576973615597 8:1.0849373619217875 
0.2560392754716357 1:1.2330766165241331 2:-0.27819214540750575 3:0.14954329852954296 4:-1.2873732599334593 5:-0.6924393247241311 6:-1.0644859799857955 7:1.111053206568161 8:2.1053254349365025 
1.0 1:-1.1411078811017756 2:1.4420298165326264 3:-3.5702705725858896 4:-1.2873732599334593 5:-0.6924393247241311 6:0.03899234192454641 7:1.1080350547543658 8:-0.2755800687644991 
1.0 1:0.3427574299144175 2:-0.18436185657440762 3:1.4928094186545604 4:-1.2873732599334593 5:-0.6924393247241311 6:2.651826069666277 7:-0.7934005879365679 8:-0.44564474760028494 
1.0 1:-1.1411078811017756 2:0.22223606170235086 3:-0.057113027643536644 4:-0.09631628498107284 5:0.8694640830666184 6:-0.18931351778104133 7:2.7740548559692795 8:-0.7007417658539636 
1.0 1:0.6395304921176561 2:2.286502416030509 3:0.45952778778916237 4:-1.2873732599334593 5:-0.6924393247241311 6:-1.0771696388583283 7:-1.0348527330401787 8:2.1903577743543954 
1.0 1:2.716941927540326 2:0.9728783723671358 3:1.0794967663084012 4:0.7813046439312119 5:-0.44079933124673254 6:-0.65860889606475 7:0.7820746588644916 8:0.8298403436681088 
1.0 1:1.8266227409306104 2:1.8173509718650187 3:0.04621513544300315 4:-1.2873732599334593 5:-0.6924393247241311 6:0.3941347903554618 7:-0.8205639542607241 8:0.3196463071607513 
1.0 1:-0.5475617566952984 2:-0.5909597748511661 3:0.8728404401353216 4:0.9693662715552729 5:0.34882961380303523 6:1.7132353130988596 7:-1.0408890366677688 8:-0.8708064446897495 
1.0 1:1.2330766165241331 2:-0.09053156774130951 3:0.14954329852954296 4:-0.09631628498107284 5:-0.6924393247241311 6:-1.1279042743484589 7:3.0305977601418657 8:1.0849373619217875 
1.0 1:-0.844334818898537 2:1.848627734809385 3:-3.5702705725858896 4:-1.2873732599334593 5:-0.6924393247241311 6:1.4341948179031403 7:-0.5730755055295232 8:0.659775664832323 
1.0 1:2.4201688653370876 2:-0.46585272307370196 3:0.5628559508757022 4:-1.2873732599334593 5:-0.6924393247241311 6:-1.0644859799857955 7:-1.0107075185298176 8:0.9148726830860018 
1.0 1:-1.1411078811017756 2:1.3794762906438942 3:0.35619962470262256 4:1.4081767360114152 5:1.5202571696460971 6:2.0176431260396432 7:-0.6424929972468112 8:-0.6157094264360707 
1.0 1:-1.1411078811017756 2:-0.12180833068567555 3:-3.5702705725858896 4:-1.2873732599334593 5:-0.6924393247241311 6:0.2292472250125365 7:1.3887231734373136 8:0.9148726830860018 
1.0 1:-0.844334818898537 2:-3.7811895951765018 3:-0.057113027643536644 4:0.9066790623472525 5:-0.6924393247241311 6:9.413653069487583E-4 7:-0.25013326145344394 8:-0.9558387841076424 
1.0 1:-0.25078869449205976 2:-0.15308509363004158 3:-3.5702705725858896 4:-1.2873732599334593 5:-0.6924393247241311 6:-1.0771696388583283 7:-0.8597999278400609 8:-0.8708064446897495 
1.0 1:0.3427574299144175 2:-3.7811895951765018 3:0.5628559508757022 4:0.7186174347231915 5:-0.6924393247241311 6:1.1424706638348892 7:-0.3799137894466348 8:0.3196463071607513 
1.0 1:-0.25078869449205976 2:-1.8733070555701736 3:0.666184113962242 4:0.4678685978911102 5:-0.6924393247241311 6:0.3053491782477327 7:-0.6907834262675334 8:1.0849373619217875 
1.0 1:-0.25078869449205976 2:-0.9662809301835585 3:0.45952778778916237 4:-1.2873732599334593 5:-0.6924393247241311 6:1.358092864667945 7:0.2629525468917288 8:-1.0408711235255355 
1.0 1:2.716941927540326 2:0.2535128246467169 3:-3.5702705725858896 4:0.5932430163071508 5:-0.6924393247241311 6:1.0029504162370297 7:0.29313406502967987 8:0.9148726830860018 
0.9143899425341102 1:2.4201688653370876 2:-1.0288344560722906 3:0.25287146161608276 4:1.2201151083873543 5:-0.22386830238690622 6:0.41950210810052657 7:-0.2833329314051904 8:1.2550020407575735 
0.826259013064709 1:-0.844334818898537 2:2.3490559419192416 3:0.35619962470262256 4:0.9693662715552729 5:1.4681937227197388 6:0.571706014570919 7:1.2166885200509907 8:-0.36061240818239204 
1.0 1:0.3427574299144175 2:-0.5596830119068 3:2.0094502340872595 4:1.0320534807632933 5:-0.6924393247241311 6:0.9141648041293015 7:-0.5036580138122352 8:2.7005518108617528 
1.0 1:0.04598436771117886 2:0.7852177947009396 3:0.45952778778916237 4:-1.2873732599334593 5:-0.6924393247241311 6:0.8253791920215724 7:0.14524462615371853 8:2.870616489697539 
1.0 1:-0.25078869449205976 2:1.6296903941988226 3:0.666184113962242 4:1.7216127820515168 5:3.3424778120686383 6:0.8126955331490395 7:5.025596109060449 8:-0.7007417658539636 
1.0 1:-1.1411078811017756 2:-0.09053156774130951 3:-0.26376935381661626 4:0.15443255185100851 5:0.07983513801685062 6:-4.057829473903507 7:3.8002264726596247 8:-1.0408711235255355 
1.0 1:2.4201688653370876 2:0.5975572170347433 3:0.666184113962242 4:1.4081767360114152 5:2.127664050453611 6:0.9141648041293015 7:0.16938984066407964 8:2.1053254349365025 
1.0 1:0.04598436771117886 2:1.0979854241445999 3:0.30453554315935266 4:-1.2873732599334593 5:-0.6924393247241311 6:2.068377761529774 7:-0.7058741853365091 8:-0.10551538992871327 
1.0 1:-1.1411078811017756 2:-0.8724506413504605 3:1.5961375817411 4:1.1574278991793339 5:-0.06767796160783127 6:1.4468784767756733 7:1.6573386848650797 8:0.14958162832496547 
0.25500169028688746 1:-1.1411078811017756 2:-0.497129486018068 3:-0.057113027643536644 4:0.09174534264298817 5:-0.6924393247241311 6:-1.5210976993969718 7:-0.7119104889640994 8:-0.9558387841076424 
1.0 1:-0.844334818898537 2:-0.9662809301835585 3:-0.36709751690315606 4:-0.15900349418909318 5:-0.18048209661494094 6:-0.8742310968978054 7:2.402822182872478 8:-0.7007417658539636 
1.0 1:0.3427574299144175 2:1.4107530535882602 3:0.35619962470262256 4:-1.2873732599334593 5:-0.6924393247241311 6:1.738602630843925 7:-0.3980227003294054 8:-0.5306770870181778 
1.0 1:-0.844334818898537 2:0.31606635053544896 3:-0.26376935381661626 4:-0.40975233102117453 5:2.9086157543489857 6:-1.051802321113263 7:-0.25013326145344394 8:-1.0408711235255355 
1.0 1:-0.5475617566952984 2:0.19095929875798484 3:-0.5737538430762357 4:0.21711976105902883 5:1.6938019927339583 6:-0.5444559662119562 7:3.4048485850524624 8:-0.7007417658539636 
1.0 1:-0.25078869449205976 2:2.255225653086143 3:0.04621513544300315 4:0.6559302255151712 5:-0.6924393247241311 6:0.36876747261039605 7:-0.6968197298951236 8:-0.7007417658539636 
1.0 1:1.2330766165241331 2:2.3803327048636076 3:0.25287146161608276 4:-1.2873732599334593 5:-0.6924393247241311 6:-0.7727618259175444 7:2.1704244932102528 8:0.4897109859965371 
1.0 1:-0.844334818898537 2:1.5984136312544566 3:-0.057113027643536644 4:1.7842999912595372 5:4.331683303669446 6:1.3200418880503464 7:0.6945482562644326 8:-0.44564474760028494 
1.0 1:-0.844334818898537 2:0.6913875058678415 3:0.7695122770487818 4:0.15443255185100851 5:1.9975054331377151 6:1.3200418880503464 7:1.8233370346238125 8:-0.9558387841076424 
1.0 1:-0.25078869449205976 2:1.6296903941988226 3:0.7695122770487818 4:0.7813046439312119 5:3.4205729824581756 6:0.470236743590658 7:-0.6455111490606064 8:-0.9558387841076424 
1.0 1:-0.844334818898537 2:-1.1852182707941208 3:-0.057113027643536644 4:-1.2873732599334593 5:-0.6924393247241311 6:-1.74940355910256 7:0.4591324147884123 8:-0.5306770870181778 
1.0 1:-1.1411078811017756 2:-0.8411738784060944 3:-3.5702705725858896 4:-1.2873732599334593 5:-0.6924393247241311 6:-4.057829473903507 7:-0.6515474526881967 8:-0.7007417658539636 
1.0 1:-0.5475617566952984 2:-0.6847900636842642 3:-3.5702705725858896 4:-1.2873732599334593 5:-0.6924393247241311 6:-1.2420572042012532 7:-1.0982339211298764 8:-0.8708064446897495 
0.922981390219003 1:-0.844334818898537 2:-0.9662809301835585 3:-0.057113027643536644 4:-0.7858755862692965 5:-0.6924393247241311 6:-0.9503330501330016 7:2.01046244707911 8:0.2346139677428584 
1.0 1:-1.1411078811017756 2:0.6288339799791094 3:-3.5702705725858896 4:-1.2873732599334593 5:-0.6924393247241311 6:1.3200418880503464 7:-0.8054731951917484 8:-0.36061240818239204 
1.0 1:-0.844334818898537 2:-0.7473435895729963 3:0.04621513544300315 4:-0.3470651218131542 5:-0.6924393247241311 6:-1.74940355910256 7:-0.9805260003918663 8:-1.0408711235255355 
1.0 1:-1.1411078811017756 2:2.1301186013086792 3:1.8027939079141797 4:0.2798069702670492 5:-0.6924393247241311 6:0.29266551937519986 7:-0.11129827801886784 8:0.659775664832323 
1.0 1:-1.1411078811017756 2:1.848627734809385 3:0.45952778778916237 4:2.661920920171822 5:-0.5709579485626283 6:3.4762638963809005 7:5.879733072364471 8:-0.7007417658539636 
1.0 1:-0.5475617566952984 2:-0.05925480479694347 3:-3.5702705725858896 4:-1.2873732599334593 5:-0.6924393247241311 6:-1.5718323348871024 7:1.0869079920578 8:3.2957781867870035 
1.0 1:3.013714989743565 2:1.6922439200875545 3:-0.36709751690315606 4:0.5932430163071508 5:-0.6924393247241311 6:0.20387990726747168 7:-0.7843461324951825 8:0.4046786465786442 
1.0 1:-0.844334818898537 2:0.44117340231291313 3:-0.7804101692493153 4:-1.2873732599334593 5:-0.6924393247241311 6:-0.6712925549372829 7:0.6492759790575059 8:2.445454792608074 
1.0 1:1.8266227409306104 2:0.8477713205896716 3:0.7695122770487818 4:1.7216127820515168 5:1.3640668288670221 6:0.7112262621687786 7:1.596975648589177 8:1.5100990590112522 
1.0 1:1.5298496787273719 2:0.4098966393685471 3:0.25287146161608276 4:0.7813046439312119 5:-0.17180485546054788 6:-0.7727618259175444 7:-0.035844482673989445 8:4.06106924154804 
1.0 1:1.8266227409306104 2:-0.18436185657440762 3:1.4928094186545604 4:-1.2873732599334593 5:-0.6924393247241311 6:-1.013751344495665 7:1.6603568366788752 8:0.06454928890707255 
1.0 1:1.2330766165241331 2:-0.02797804185257743 3:-3.5702705725858896 4:-1.2873732599334593 5:-0.6924393247241311 6:-0.25273181214370466 7:-0.8718725350952414 8:0.4046786465786442 
1.0 1:-1.1411078811017756 2:0.5037269282016452 3:0.7695122770487818 4:0.40518138868308984 5:-0.6924393247241311 6:-0.5951906017020867 7:-0.727001248033075 8:2.1903577743543954 
1.0 1:-1.1411078811017756 2:0.7539410317565735 3:-3.5702705725858896 4:-1.2873732599334593 5:-0.6924393247241311 6:1.548347747755935 7:0.47724132567118316 8:-0.1905477293466062 
1.0 1:-0.844334818898537 2:0.5662804540903773 3:-0.36709751690315606 4:1.2828023175953747 5:3.4726364293845338 6:1.1044196872172916 7:0.19353505517444072 8:-1.0408711235255355 
1.0 1:-1.1411078811017756 2:1.6296903941988226 3:0.45952778778916237 4:0.7186174347231915 5:1.6070295811900277 6:1.8400719018241862 7:2.0738436351688083 8:2.1053254349365025 
1.0 1:1.2330766165241331 2:2.286502416030509 3:0.5628559508757022 4:-1.2873732599334593 5:-0.6924393247241311 6:-0.7473945081724787 7:0.23880733238136775 8:2.870616489697539 
1.0 1:-0.25078869449205976 2:-1.279048559627219 3:-3.5702705725858896 4:-1.2873732599334593 5:-0.6924393247241311 6:-4.057829473903507 7:-0.8990359014193976 8:-0.9558387841076424 
1.0 1:0.6395304921176561 2:1.4107530535882602 3:0.25287146161608276 4:-1.2873732599334593 5:-0.6924393247241311 6:-0.6839762138098153 7:-0.5066761656260304 8:2.785584150279646 
1.0 1:0.9363035543208947 2:2.317779178974875 3:0.04621513544300315 4:0.7813046439312119 5:0.5657606426628615 6:-0.8742310968978054 7:-0.9322355713711441 8:1.8502284166828238 
1.0 1:0.6395304921176561 2:-3.7811895951765018 3:-0.057113027643536644 4:1.2828023175953747 5:-0.6924393247241311 6:0.8887974863842358 7:0.770002051609311 8:0.659775664832323 
0.06301184433736408 1:1.8266227409306104 2:-1.4354323743490491 3:0.666184113962242 4:-1.2873732599334593 5:-0.6924393247241311 6:0.16582893064987314 7:-0.6304203899916307 8:0.4046786465786442 
1.0 1:2.4201688653370876 2:-1.1539415078497548 3:0.14954329852954296 4:0.6559302255151712 5:-0.6924393247241311 6:-0.2907827887613028 7:-0.5278032283225963 8:1.0849373619217875 
1.0 1:-1.1411078811017756 2:0.5662804540903773 3:-0.36709751690315606 4:-0.2216907033971135 5:1.1297813176984097 6:-1.2547408630737855 7:-0.7994368915641581 8:-1.0408711235255355 
1.0 1:1.5298496787273719 2:-0.9350041672391926 3:-0.057113027643536644 4:-1.2873732599334593 5:-0.6924393247241311 6:-0.9883840267505998 7:-0.8205639542607241 8:2.1053254349365025 
1.0 1:2.716941927540326 2:-1.4041556114046831 3:-0.47042567998969587 4:-1.2873732599334593 5:-0.6924393247241311 6:0.10241063628720977 7:-0.8809269905366268 8:0.659775664832323 
1.0 1:0.6395304921176561 2:0.2535128246467169 3:1.0794967663084012 4:-0.8485627954773168 5:2.136341291608004 6:-1.5718323348871024 7:0.33237003860901665 8:2.2753901137722883 
0.9279602032588979 1:-0.5475617566952984 2:-1.6543697149596115 3:0.04621513544300315 4:0.7186174347231915 5:-0.11974140853418959 6:-0.8869147557703383 7:-0.8597999278400609 8:-0.7007417658539636 
1.0 1:0.6395304921176561 2:-0.21563861951877367 3:-3.5702705725858896 4:-1.2873732599334593 5:-0.6924393247241311 6:-4.057829473903507 7:-0.8537636242124705 8:-0.6157094264360707 
1.0 1:-1.1411078811017756 2:-0.4345759601293359 3:0.35619962470262256 4:-1.2873732599334593 5:-0.6924393247241311 6:1.6878679953537938 7:0.6462578272437107 8:-0.7857741052718566 
1.0 1:-0.844334818898537 2:-1.0913879819610226 3:-0.16044119073007646 4:1.9723616188835982 5:-0.12841864968858263 6:1.180521640452487 7:1.3434508962303864 8:-0.36061240818239204 
1.0 1:0.6395304921176561 2:-0.9350041672391926 3:-3.5702705725858896 4:-1.2873732599334593 5:-0.6924393247241311 6:-0.27809912988876995 7:0.08789974169161095 8:-0.1905477293466062 
1.0 1:-0.844334818898537 2:-1.3728788484603172 3:-0.6770820061627755 4:0.5932430163071508 5:-0.2065138200781201 6:0.16582893064987314 7:2.35151360203796 8:-0.7857741052718566 
1.0 1:0.04598436771117886 2:0.347343113479815 3:-3.5702705725858896 4:-1.2873732599334593 5:-0.6924393247241311 6:0.11509429515974262 7:-0.5127124692536206 8:-0.8708064446897495 
1.0 1:-1.1411078811017756 2:-0.497129486018068 3:1.0794967663084012 4:-1.2873732599334593 5:-0.6924393247241311 6:-0.3034664476338352 7:-0.8296184097021095 8:1.0849373619217875 
1.0 1:-1.1411078811017756 2:-1.9984141073476378 3:-0.47042567998969587 4:-1.2873732599334593 5:-0.6924393247241311 6:-1.3054754985639165 7:0.7941472661196721 8:2.870616489697539 
1.0 1:1.8266227409306104 2:-0.9662809301835585 3:0.8211763585920516 4:0.7186174347231915 5:-0.6924393247241311 6:0.36876747261039605 7:1.065780929361234 8:1.9352607561007167 
1.0 1:0.3427574299144175 2:2.0675650754199473 3:0.35619962470262256 4:0.40518138868308984 5:1.103749594235231 6:1.4722457945207388 7:1.6965746584444168 8:1.680163737847038 
0.5229806307445396 1:-0.844334818898537 2:1.3481995276995282 3:0.666184113962242 4:1.4081767360114152 5:-0.11106416737979653 6:0.10241063628720977 7:-0.3950045485156103 8:1.4250667195933593 
1.0 1:0.04598436771117886 2:2.1301186013086792 3:2.1127783971737992 4:0.6559302255151712 5:-0.6924393247241311 6:-0.44298669523169476 7:0.62814891636094 8:0.3196463071607513 
1.0 1:0.6395304921176561 2:-0.21563861951877367 3:0.9761686032218614 4:-1.2873732599334593 5:-0.6924393247241311 6:-0.5317723073394234 7:-0.6787108190123529 8:2.785584150279646 
1.0 1:2.123395803133849 2:-0.5596830119068 3:-0.057113027643536644 4:1.2201151083873543 5:-0.6924393247241311 6:1.8020209252065886 7:-1.043907188481564 8:0.7448080042502159 
1.0 1:-1.1411078811017756 2:2.4116094678079736 3:-0.16044119073007646 4:0.7186174347231915 5:1.685124751579565 6:1.180521640452487 7:0.09091789350540609 8:-0.44564474760028494 
1.0 1:-0.5475617566952984 2:0.28478958759108297 3:1.3894812555680205 4:-1.2873732599334593 5:-0.6924393247241311 6:-1.1913225687111222 7:-0.615329630922655 8:-1.0408711235255355 
1.0 1:-0.844334818898537 2:0.6913875058678415 3:0.8728404401353216 4:0.5932430163071508 5:2.171050256225576 6:-0.24004815327117182 7:1.267997100885508 8:-0.8708064446897495 
1.0 1:-0.844334818898537 2:-0.05925480479694347 3:-1.2970509846820142 4:1.6589255728434966 5:-0.14577313199736874 6:0.4448694258455923 7:-0.5791118091571134 8:-0.7007417658539636 
1.0 1:-0.5475617566952984 2:2.3803327048636076 3:0.04621513544300315 4:4.918660451660554 5:-0.6924393247241311 6:0.34340015486533126 7:0.31124297591245065 8:2.445454792608074 
1.0 1:-1.1411078811017756 2:0.9416016094227697 3:1.0794967663084012 4:1.5962383636354762 5:-0.6924393247241311 6:1.2819909114327488 7:-0.3044599941017564 8:-1.0408711235255355 
1.0 1:2.4201688653370876 2:0.0032987210917886055 3:0.45952778778916237 4:-0.2216907033971135 5:-0.6924393247241311 6:-0.6966598726823482 7:-0.6424929972468112 8:2.445454792608074 
1.0 1:1.2330766165241331 2:0.09712900992488673 3:0.35619962470262256 4:0.21711976105902883 5:4.5139053679117005 6:-0.41761937748662953 7:0.6492759790575059 8:1.595131398429145 
1.0 1:-0.25078869449205976 2:1.7235206830319207 3:0.8728404401353216 4:0.40518138868308984 5:0.6612102953611851 6:0.16582893064987314 7:2.0587528760998324 8:1.595131398429145 
1.0 1:-1.1411078811017756 2:-1.497985900237781 3:-3.5702705725858896 4:-1.2873732599334593 5:-0.6924393247241311 6:-1.3815774517991124 7:-0.3919863967018151 8:-0.7007417658539636 
1.0 1:2.123395803133849 2:-0.3094689083518718 3:0.7695122770487818 4:1.2201151083873543 5:-0.6924393247241311 6:1.8781228784417838 7:1.3675961107407475 8:0.9999050225038947 
1.0 1:-0.5475617566952984 2:-1.2164950337384868 3:-0.8837383323358551 4:0.09174534264298817 5:0.30544340803106995 6:-0.44298669523169476 7:3.7036456146181806 8:-0.7007417658539636 
1.0 1:-1.1411078811017756 2:2.0988418383643133 3:0.666184113962242 4:-0.40975233102117453 5:0.9128502888385837 6:9.413653069487583E-4 7:0.6341852199885302 8:-0.9558387841076424 
1.0 1:-1.1411078811017756 2:-1.6856464779039775 3:0.35619962470262256 4:-1.2873732599334593 5:-0.6924393247241311 6:1.6878679953537938 7:-0.8386728651434949 8:1.0849373619217875 
1.0 1:-0.844334818898537 2:1.6296903941988226 3:0.25287146161608276 4:-1.2873732599334593 5:-0.6924393247241311 6:0.6097569911885167 7:-1.158596957405779 8:0.4046786465786442 
1.0 1:0.6395304921176561 2:-0.7786203525173623 3:-3.5702705725858896 4:-1.2873732599334593 5:-0.6924393247241311 6:-1.051802321113263 7:-0.8507454723986755 8:-0.44564474760028494 
1.0 1:0.04598436771117886 2:1.9424580236424829 3:-3.5702705725858896 4:-1.2873732599334593 5:-0.6924393247241311 6:-0.4556703541042276 7:-0.7843461324951825 8:0.2346139677428584 
1.0 1:-0.844334818898537 2:1.879904497753751 3:0.45952778778916237 4:1.3454895268033948 5:1.8499923335130333 6:1.0156340751095625 7:2.3726406647345266 8:-0.9558387841076424 
1.0 1:1.5298496787273719 2:-0.27819214540750575 3:0.666184113962242 4:0.21711976105902883 5:-0.6924393247241311 6:-0.48103767184929286 7:2.4450763082656097 8:1.4250667195933593 
1.0 1:-1.1411078811017756 2:-0.05925480479694347 3:-3.5702705725858896 4:-1.2873732599334593 5:-0.6924393247241311 6:0.05167600079707926 7:-0.9986349112746371 8:-0.7857741052718566 
1.0 1:-0.5475617566952984 2:-0.9037274042948265 3:0.35619962470262256 4:-0.033629075773052505 5:-0.6924393247241311 6:-0.9883840267505998 7:3.700627462804385 8:-0.44564474760028494 
1.0 1:0.6395304921176561 2:1.9424580236424829 3:1.2861530924814808 4:-1.2873732599334593 5:-0.6924393247241311 6:1.1171033460898234 7:2.9853254829349387 8:0.9999050225038947 
1.0 1:1.8266227409306104 2:-0.9037274042948265 3:-0.36709751690315606 4:-1.2873732599334593 5:-0.6924393247241311 6:-0.7727618259175444 7:-0.9201629641159635 8:-0.1905477293466062 
1.0 1:2.716941927540326 2:-0.528406248962434 3:0.14954329852954296 4:-1.2873732599334593 5:-0.6924393247241311 6:-0.10052790567331271 7:-0.020753723605013766 8:0.4046786465786442 
1.0 1:0.04598436771117886 2:-0.9662809301835585 3:-3.5702705725858896 4:-1.2873732599334593 5:-0.6924393247241311 6:-0.5064049895943581 7:0.41687828939528043 8:-0.1905477293466062 
1.0 1:-0.5475617566952984 2:1.1292621870889659 3:0.25287146161608276 4:0.9066790623472525 5:3.125546783208812 6:0.9395321218743663 7:-1.019761973971203 8:-0.2755800687644991 
1.0 1:-1.1411078811017756 2:1.8173509718650187 3:-0.9870664954223949 4:0.9693662715552729 5:0.6872420188243643 6:0.7365935799138433 7:-0.050935241742965126 8:-0.9558387841076424 
1.0 1:-0.5475617566952984 2:1.0667086612002339 3:-0.8837383323358551 4:0.40518138868308984 5:3.993270898648117 6:0.8507465097666381 7:-0.6998378817089188 8:-0.7007417658539636 
1.0 1:-0.5475617566952984 2:-0.6222365377955321 3:-0.5737538430762357 4:0.9066790623472525 5:0.08851237917124367 6:-1.2927918396913838 7:-0.9563807858815052 8:-0.9558387841076424 
1.0 1:-0.844334818898537 2:-0.02797804185257743 3:0.5628559508757022 4:1.7216127820515168 5:1.0430089061544794 6:0.876113827511703 7:2.0828980906101937 8:0.659775664832323 
1.0 1:2.123395803133849 2:0.19095929875798484 3:1.9061220710007196 4:-1.2873732599334593 5:-0.6924393247241311 6:0.8887974863842358 7:-0.8507454723986755 8:1.5100990590112522 
1.0 1:-0.25078869449205976 2:-1.279048559627219 3:0.666184113962242 4:0.6559302255151712 5:-0.08503244391661738 6:0.2799818605026679 7:2.475257826403561 8:-0.5306770870181778 
1.0 1:-0.844334818898537 2:2.4428862307523396 3:0.35619962470262256 4:1.4081767360114152 5:-0.6924393247241311 6:1.3834601824130097 7:2.7831093114106644 8:-0.9558387841076424 
1.0 1:1.2330766165241331 2:1.4420298165326264 3:1.9061220710007196 4:1.5962383636354762 5:1.312003381940664 6:0.7112262621687786 7:-0.9261992677435539 8:0.8298403436681088 
1.0 1:0.04598436771117886 2:0.7539410317565735 3:0.666184113962242 4:-0.15900349418909318 5:-0.6924393247241311 6:0.06435965966961212 7:-0.7149286407778945 8:3.1257135079512177 
1.0 1:1.8266227409306104 2:-1.6543697149596115 3:1.9061220710007196 4:0.15443255185100851 5:-0.2672545081588715 6:0.4448694258455923 7:-0.5640210500881379 8:1.1699697013396804 
1.0 1:-0.25078869449205976 2:0.06585224698052068 3:1.5961375817411 4:0.9066790623472525 5:1.3900985523302014 6:3.209907060057714 7:1.2317792791199664 8:-0.9558387841076424 
1.0 1:1.2330766165241331 2:-0.9350041672391926 3:0.666184113962242 4:-1.2873732599334593 5:-0.6924393247241311 6:0.4575530847181251 7:0.3474607976779923 8:2.955648829115432 
1.0 1:0.6395304921176561 2:2.317779178974875 3:0.04621513544300315 4:-1.2873732599334593 5:-0.6924393247241311 6:-0.1385788822909108 7:-0.43424052209494707 8:-0.1905477293466062 
1.0 1:-0.5475617566952984 2:-2.029690870292004 3:-0.6770820061627755 4:0.4678685978911102 5:-0.3019634727764437 6:-0.9883840267505998 7:-0.4221679148397665 8:-0.9558387841076424 
1.0 1:-1.1411078811017756 2:1.2856460018107962 3:0.35619962470262256 4:0.9693662715552729 5:-0.6924393247241311 6:2.2332653268726994 7:-0.32558705679832234 8:-0.6157094264360707 
1.0 1:0.3427574299144175 2:0.4724501652572792 3:0.666184113962242 4:-1.2873732599334593 5:-0.6924393247241311 6:-4.057829473903507 7:0.5074228438091345 8:3.040681168533325 
0.4391659992430837 1:-0.844334818898537 2:0.7226642688122075 3:0.666184113962242 4:1.5962383636354762 5:0.8694640830666184 6:1.7893372663340557 7:-0.41311345939838107 8:1.0849373619217875 
1.0 1:2.716941927540326 2:1.160538950033332 3:2.3194347233468786 4:-1.2873732599334593 5:-0.6924393247241311 6:1.3073582291778136 7:-0.6485293008744015 8:0.9148726830860018 
1.0 1:0.9363035543208947 2:0.6601107429234754 3:1.0794967663084012 4:0.21711976105902883 5:3.4726364293845338 6:-0.20199717665357417 7:-1.0378708848539737 8:0.8298403436681088 
1.0 1:-1.1411078811017756 2:-0.6847900636842642 3:-3.5702705725858896 4:-1.2873732599334593 5:-0.6924393247241311 6:-0.8869147557703383 7:-0.6606019081295821 8:-0.9558387841076424 
1.0 1:-0.5475617566952984 2:0.2535128246467169 3:-3.5702705725858896 4:-1.2873732599334593 5:-0.6924393247241311 6:0.8253791920215724 7:-0.5066761656260304 8:0.659775664832323 
1.0 1:1.8266227409306104 2:-0.18436185657440762 3:-3.5702705725858896 4:-1.2873732599334593 5:-0.6924393247241311 6:-4.057829473903507 7:-0.636456693619221 8:-0.2755800687644991 
1.0 1:-0.5475617566952984 2:0.19095929875798484 3:-1.1937228215954745 4:0.029058133434967832 5:2.214436461997541 6:0.3053491782477327 7:-0.8929995977918074 8:-0.9558387841076424 
1.0 1:-0.25078869449205976 2:1.160538950033332 3:-0.26376935381661626 4:-0.4724395402291949 5:2.66565300202598 6:-0.10052790567331271 7:-0.5338395319501865 8:-0.7857741052718566 
1.0 1:-1.1411078811017756 2:0.4098966393685471 3:-0.5737538430762357 4:-0.033629075773052505 5:1.8326378512042472 6:-0.7093435315548811 7:-0.36180487856386395 8:-1.0408711235255355 
1.0 1:0.9363035543208947 2:2.0675650754199473 3:-0.9870664954223949 4:0.7813046439312119 5:2.7090392077979453 6:0.24193088388506934 7:1.0687990811750292 8:0.06454928890707255 
1.0 1:-0.5475617566952984 2:1.6922439200875545 3:0.9761686032218614 4:-1.2873732599334593 5:-0.6924393247241311 6:-1.1532715920935246 7:-0.4402768257225373 8:-0.9558387841076424 
1.0 1:2.716941927540326 2:1.004155135311502 3:0.9761686032218614 4:1.0320534807632933 5:0.5223744368908962 6:1.0917360283447588 7:2.1191159123757353 8:0.4897109859965371 
1.0 1:-0.844334818898537 2:0.8164945576453055 3:1.2861530924814808 4:1.2828023175953747 5:-0.6924393247241311 6:2.1952143502551005 7:-0.3436959676810931 8:-0.5306770870181778 
1.0 1:-0.844334818898537 2:-1.247771796682853 3:0.25287146161608276 4:1.2828023175953747 5:-0.19783657892372705 6:1.8147045840791205 7:1.8837000708997154 8:-0.10551538992871327 
1.0 1:0.04598436771117886 2:0.4724501652572792 3:0.04621513544300315 4:-1.2873732599334593 5:-0.6924393247241311 6:-0.10052790567331271 7:2.143261126886096 8:-0.9558387841076424 
1.0 1:-1.1411078811017756 2:1.879904497753751 3:0.9761686032218614 4:1.4708639452194356 5:3.7329536640163257 6:1.4341948179031403 7:-0.7541646143572311 8:-0.6157094264360707 
1.0 1:0.6395304921176561 2:2.1613953642530452 3:1.1828249293949409 4:-1.2873732599334593 5:-0.6924393247241311 6:0.4448694258455923 7:-0.5851481127847037 8:2.785584150279646 
1.0 1:1.5298496787273719 2:-0.9975576931279246 3:-0.36709751690315606 4:-1.2873732599334593 5:-0.6924393247241311 6:-1.2040062275836552 7:-0.9956167594608419 8:-0.020483050510820357 
1.0 1:1.8266227409306104 2:-0.6222365377955321 3:0.35619962470262256 4:1.7216127820515168 5:0.8694640830666184 6:0.11509429515974262 7:-0.908090356860783 8:2.530487132025967 
