svm_type c_svc
kernel_type polynomial
degree 3
gamma 0.125
coef0 0.0
nr_class 2
total_sv 322
rho 16808.87265090905
label 1 0
nr_sv 113 209
SV
0.005096925040153228 1:6.0 2:148.0 3:72.0 4:35.0 5:0.0 6:33.6 7:0.627 8:50.0 
0.01233098963184133 1:3.0 2:78.0 3:50.0 4:32.0 5:88.0 6:31.0 7:0.248 8:26.0 
0.012676480081161784 1:8.0 2:125.0 3:96.0 4:0.0 5:0.0 6:0.0 7:0.232 8:54.0 
7.599401092980501E-6 1:1.0 2:189.0 3:60.0 4:23.0 5:846.0 6:30.1 7:0.398 8:59.0 
0.048608143799946255 1:7.0 2:100.0 3:0.0 4:0.0 5:0.0 6:30.0 7:0.484 8:32.0 
5.380376668540126E-7 1:0.0 2:118.0 3:84.0 4:47.0 5:230.0 6:45.8 7:0.551 8:31.0 
2.6859180077737055E-6 1:7.0 2:107.0 3:74.0 4:0.0 5:0.0 6:29.6 7:0.254 8:31.0 
1.0711328428424534E-6 1:1.0 2:115.0 3:70.0 4:30.0 5:96.0 6:34.6 7:0.529 8:32.0 
0.2444300395460052 1:7.0 2:196.0 3:90.0 4:0.0 5:0.0 6:39.8 7:0.451 8:41.0 
0.0024074686551500833 1:9.0 2:119.0 3:80.0 4:35.0 5:0.0 6:29.0 7:0.263 8:29.0 
0.019423726576760485 1:2.0 2:90.0 3:68.0 4:42.0 5:0.0 6:38.2 7:0.503 8:27.0 
5.492022799511764E-6 1:2.0 2:100.0 3:66.0 4:20.0 5:90.0 6:32.9 7:0.867 8:28.0 
0.016656512469834992 1:0.0 2:131.0 3:0.0 4:0.0 5:0.0 6:43.2 7:0.27 8:26.0 
4.867080324724373E-4 1:5.0 2:137.0 3:108.0 4:0.0 5:0.0 6:48.8 7:0.227 8:37.0 
0.09562537409908281 1:4.0 2:134.0 3:72.0 4:0.0 5:0.0 6:23.8 7:0.277 8:60.0 
3.811934217214904E-4 1:1.0 2:122.0 3:90.0 4:51.0 5:220.0 6:49.7 7:0.325 8:31.0 
0.001043806079489756 1:1.0 2:163.0 3:72.0 4:0.0 5:0.0 6:39.0 7:1.222 8:33.0 
0.007804547626098101 1:0.0 2:95.0 3:85.0 4:25.0 5:36.0 6:37.4 7:0.247 8:24.0 
1.1778292101654925E-4 1:4.0 2:146.0 3:92.0 4:0.0 5:0.0 6:31.2 7:0.539 8:61.0 
0.04942467365248832 1:0.0 2:113.0 3:76.0 4:0.0 5:0.0 6:33.3 7:0.278 8:23.0 
0.0018272897092001374 1:1.0 2:88.0 3:30.0 4:42.0 5:99.0 6:55.0 7:0.496 8:26.0 
0.10417869162174113 1:9.0 2:122.0 3:56.0 4:0.0 5:0.0 6:33.3 7:1.114 8:33.0 
4.878571668201841E-5 1:10.0 2:108.0 3:66.0 4:0.0 5:0.0 6:32.4 7:0.272 8:42.0 
0.21872766304336366 1:0.0 2:131.0 3:88.0 4:0.0 5:0.0 6:31.6 7:0.743 8:32.0 
7.68210019346743E-4 1:6.0 2:104.0 3:74.0 4:18.0 5:156.0 6:29.9 7:0.722 8:41.0 
1.6814970283860354E-4 1:6.0 2:102.0 3:82.0 4:0.0 5:0.0 6:30.8 7:0.18 8:36.0 
7.133909605072224E-4 1:8.0 2:179.0 3:72.0 4:42.0 5:130.0 6:32.7 7:0.719 8:36.0 
2.99704744061335E-4 1:1.0 2:128.0 3:98.0 4:41.0 5:58.0 6:32.0 7:1.321 8:33.0 
8.231526073061078E-6 1:8.0 2:109.0 3:76.0 4:39.0 5:114.0 6:27.9 7:0.64 8:31.0 
2.388020807797784E-4 1:5.0 2:139.0 3:80.0 4:35.0 5:160.0 6:31.6 7:0.361 8:25.0 
2.203130806262157E-6 1:5.0 2:158.0 3:84.0 4:41.0 5:210.0 6:39.4 7:0.395 8:29.0 
2.609162870284321E-4 1:3.0 2:107.0 3:62.0 4:13.0 5:48.0 6:22.9 7:0.678 8:23.0 
3.2286500842889E-5 1:4.0 2:109.0 3:64.0 4:44.0 5:99.0 6:34.8 7:0.905 8:26.0 
2.7815473919620554E-8 1:0.0 2:140.0 3:65.0 4:26.0 5:130.0 6:42.6 7:0.431 8:24.0 
4.2830182596978104E-7 1:9.0 2:112.0 3:82.0 4:32.0 5:175.0 6:34.2 7:0.26 8:36.0 
4.012276498665256E-8 1:5.0 2:109.0 3:62.0 4:41.0 5:129.0 6:35.8 7:0.514 8:25.0 
2.456631744771984E-4 1:5.0 2:85.0 3:74.0 4:22.0 5:0.0 6:29.0 7:1.224 8:32.0 
7.620854139400874E-5 1:0.0 2:177.0 3:60.0 4:29.0 5:478.0 6:34.6 7:1.072 8:21.0 
0.004319356874706843 1:0.0 2:179.0 3:90.0 4:27.0 5:0.0 6:44.1 7:0.686 8:23.0 
2.926971122206019E-5 1:6.0 2:119.0 3:50.0 4:22.0 5:176.0 6:27.1 7:1.318 8:33.0 
2.525648852991006E-4 1:12.0 2:92.0 3:62.0 4:7.0 5:258.0 6:27.6 7:0.926 8:44.0 
9.359108740277643E-4 1:11.0 2:155.0 3:76.0 4:28.0 5:150.0 6:33.3 7:1.353 8:51.0 
0.010852557298388877 1:7.0 2:106.0 3:60.0 4:24.0 5:0.0 6:26.5 7:0.296 8:29.0 
0.04978443902703818 1:2.0 2:108.0 3:80.0 4:0.0 5:0.0 6:27.0 7:0.259 8:52.0 
2.156858864021599E-5 1:1.0 2:119.0 3:86.0 4:39.0 5:220.0 6:45.6 7:0.808 8:29.0 
1.1532756799825974E-4 1:0.0 2:107.0 3:62.0 4:30.0 5:74.0 6:36.6 7:0.757 8:25.0 
1.1839933851338284E-4 1:2.0 2:128.0 3:78.0 4:37.0 5:182.0 6:43.3 7:1.224 8:31.0 
2.1784487763755586E-4 1:14.0 2:100.0 3:78.0 4:25.0 5:184.0 6:36.6 7:0.412 8:46.0 
9.959646086981369E-11 1:2.0 2:144.0 3:58.0 4:33.0 5:135.0 6:31.6 7:0.422 8:25.0 
8.827849637508844E-6 1:10.0 2:161.0 3:68.0 4:23.0 5:132.0 6:25.5 7:0.326 8:47.0 
1.5889656937560087E-4 1:0.0 2:128.0 3:68.0 4:19.0 5:180.0 6:30.5 7:1.391 8:25.0 
4.6401783933839517E-4 1:0.0 2:124.0 3:70.0 4:20.0 5:0.0 6:27.4 7:0.254 8:36.0 
1.939874263010707E-5 1:13.0 2:152.0 3:90.0 4:33.0 5:29.0 6:26.8 7:0.731 8:43.0 
4.5206371419725195E-6 1:1.0 2:122.0 3:64.0 4:32.0 5:156.0 6:35.1 7:0.692 8:30.0 
1.9276661380305427E-6 1:2.0 2:102.0 3:86.0 4:36.0 5:120.0 6:45.5 7:0.127 8:23.0 
0.00798545768720898 1:5.0 2:0.0 3:80.0 4:32.0 5:0.0 6:41.0 7:0.346 8:37.0 
0.09893986337304095 1:9.0 2:165.0 3:88.0 4:0.0 5:0.0 6:30.4 7:0.302 8:49.0 
3.3105034399403453E-5 1:5.0 2:189.0 3:64.0 4:33.0 5:325.0 6:31.2 7:0.583 8:29.0 
0.0018592087503655353 1:4.0 2:146.0 3:78.0 4:0.0 5:0.0 6:38.5 7:0.52 8:67.0 
0.032311319658197606 1:5.0 2:116.0 3:74.0 4:29.0 5:0.0 6:32.3 7:0.66 8:35.0 
0.0023162902285189476 1:8.0 2:105.0 3:100.0 4:36.0 5:0.0 6:43.3 7:0.239 8:45.0 
0.001975455416445208 1:0.0 2:131.0 3:66.0 4:40.0 5:0.0 6:34.3 7:0.196 8:22.0 
0.960169461426611 1:4.0 2:95.0 3:64.0 4:0.0 5:0.0 6:32.0 7:0.161 8:31.0 
0.00269466001209289 1:5.0 2:136.0 3:84.0 4:41.0 5:88.0 6:35.0 7:0.286 8:35.0 
1.3803998341028918E-7 1:4.0 2:115.0 3:72.0 4:0.0 5:0.0 6:28.9 7:0.376 8:46.0 
0.027113769359385993 1:8.0 2:197.0 3:74.0 4:0.0 5:0.0 6:25.9 7:1.191 8:39.0 
8.806565899340105E-6 1:3.0 2:173.0 3:84.0 4:33.0 5:474.0 6:35.7 7:0.258 8:22.0 
1.885955444298225E-4 1:1.0 2:181.0 3:64.0 4:30.0 5:180.0 6:34.1 7:0.328 8:38.0 
3.9397077681944026E-4 1:1.0 2:95.0 3:82.0 4:25.0 5:180.0 6:35.0 7:0.233 8:43.0 
6.428200645281324E-7 1:8.0 2:108.0 3:70.0 4:0.0 5:0.0 6:30.5 7:0.955 8:33.0 
0.009368146645654931 1:4.0 2:117.0 3:62.0 4:12.0 5:0.0 6:29.7 7:0.38 8:30.0 
6.229211801230927E-5 1:0.0 2:104.0 3:64.0 4:37.0 5:64.0 6:33.6 7:0.51 8:22.0 
0.005377774868129667 1:8.0 2:120.0 3:0.0 4:0.0 5:0.0 6:30.0 7:0.183 8:38.0 
1.185609707022281E-4 1:2.0 2:105.0 3:80.0 4:45.0 5:191.0 6:33.7 7:0.711 8:29.0 
6.517921707343305E-6 1:4.0 2:125.0 3:70.0 4:18.0 5:122.0 6:28.9 7:1.144 8:45.0 
2.5903907127188864E-4 1:0.0 2:180.0 3:90.0 4:26.0 5:90.0 6:36.5 7:0.314 8:35.0 
0.007449568473033719 1:12.0 2:84.0 3:72.0 4:31.0 5:0.0 6:29.7 7:0.297 8:46.0 
5.053082104310842E-5 1:3.0 2:163.0 3:70.0 4:18.0 5:105.0 6:31.6 7:0.268 8:28.0 
0.0014472794255082663 1:9.0 2:130.0 3:70.0 4:0.0 5:0.0 6:34.2 7:0.652 8:45.0 
9.447556259499229E-4 1:3.0 2:129.0 3:92.0 4:49.0 5:155.0 6:36.4 7:0.968 8:32.0 
1.019569952134378E-4 1:8.0 2:100.0 3:74.0 4:40.0 5:215.0 6:39.4 7:0.661 8:43.0 
0.0022334361968910223 1:10.0 2:90.0 3:85.0 4:32.0 5:0.0 6:34.9 7:0.825 8:56.0 
6.703911053827766E-5 1:0.0 2:198.0 3:66.0 4:32.0 5:274.0 6:41.3 7:0.502 8:28.0 
4.415574855663363E-5 1:2.0 2:118.0 3:80.0 4:0.0 5:0.0 6:42.9 7:0.693 8:21.0 
4.796096968388937E-4 1:0.0 2:151.0 3:90.0 4:46.0 5:0.0 6:42.1 7:0.371 8:21.0 
2.593206558152766E-4 1:3.0 2:176.0 3:86.0 4:27.0 5:156.0 6:33.3 7:1.154 8:52.0 
6.914823501366429E-4 1:0.0 2:188.0 3:82.0 4:14.0 5:185.0 6:32.0 7:0.682 8:22.0 
1.0976286075949077E-4 1:7.0 2:150.0 3:78.0 4:29.0 5:126.0 6:35.2 7:0.692 8:54.0 
3.069557106662953E-5 1:1.0 2:181.0 3:78.0 4:42.0 5:293.0 6:40.0 7:1.258 8:22.0 
0.03409317266058743 1:9.0 2:112.0 3:82.0 4:24.0 5:0.0 6:28.2 7:1.282 8:50.0 
1.2708463623396541E-5 1:7.0 2:114.0 3:64.0 4:0.0 5:0.0 6:27.4 7:0.732 8:34.0 
7.920672089708968E-5 1:13.0 2:104.0 3:72.0 4:0.0 5:0.0 6:31.2 7:0.465 8:38.0 
1.2965447707905685E-7 1:11.0 2:136.0 3:84.0 4:35.0 5:130.0 6:28.3 7:0.26 8:42.0 
3.9939084970427726E-5 1:3.0 2:80.0 3:82.0 4:31.0 5:70.0 6:34.2 7:1.292 8:27.0 
4.868355044528162E-4 1:8.0 2:167.0 3:106.0 4:46.0 5:231.0 6:37.6 7:0.165 8:43.0 
1.542547365625356E-4 1:9.0 2:145.0 3:80.0 4:46.0 5:130.0 6:37.9 7:0.637 8:40.0 
0.0018995738964408342 1:6.0 2:115.0 3:60.0 4:39.0 5:0.0 6:33.7 7:0.245 8:40.0 
2.4175339843857926E-7 1:4.0 2:145.0 3:82.0 4:18.0 5:0.0 6:32.5 7:0.235 8:70.0 
1.7578652459943383E-6 1:4.0 2:125.0 3:80.0 4:0.0 5:0.0 6:32.3 7:0.536 8:27.0 
0.041589974994276004 1:13.0 2:158.0 3:114.0 4:0.0 5:0.0 6:42.3 7:0.257 8:44.0 
2.4951699595168424E-6 1:7.0 2:129.0 3:68.0 4:49.0 5:125.0 6:38.5 7:0.439 8:43.0 
3.348963027474029E-4 1:6.0 2:125.0 3:78.0 4:31.0 5:0.0 6:27.6 7:0.565 8:49.0 
0.00410907462161834 1:10.0 2:115.0 3:0.0 4:0.0 5:0.0 6:0.0 7:0.261 8:30.0 
3.442949606445834E-4 1:10.0 2:129.0 3:62.0 4:36.0 5:0.0 6:41.2 7:0.441 8:38.0 
0.014189398407003324 1:5.0 2:97.0 3:76.0 4:27.0 5:0.0 6:35.6 7:0.378 8:52.0 
1.796588020964119E-4 1:2.0 2:174.0 3:88.0 4:37.0 5:120.0 6:44.5 7:0.646 8:24.0 
0.0011327733259865816 1:9.0 2:140.0 3:94.0 4:0.0 5:0.0 6:32.7 7:0.734 8:45.0 
0.002913258026007237 1:1.0 2:147.0 3:94.0 4:41.0 5:0.0 6:49.3 7:0.358 8:27.0 
0.01057232724725455 1:6.0 2:162.0 3:62.0 4:0.0 5:0.0 6:24.3 7:0.178 8:50.0 
0.024707861859087295 1:4.0 2:136.0 3:70.0 4:0.0 5:0.0 6:31.2 7:1.182 8:22.0 
1.4899693581714492E-4 1:0.0 2:181.0 3:88.0 4:44.0 5:510.0 6:43.3 7:0.222 8:26.0 
2.4841384742571717E-4 1:1.0 2:128.0 3:88.0 4:39.0 5:110.0 6:36.5 7:1.057 8:37.0 
0.009584604352143497 1:9.0 2:170.0 3:74.0 4:31.0 5:0.0 6:44.0 7:0.403 8:43.0 
-0.04124840311239558 1:5.0 2:116.0 3:74.0 4:0.0 5:0.0 6:25.6 7:0.201 8:30.0 
-0.022685151741336604 1:10.0 2:115.0 3:0.0 4:0.0 5:0.0 6:35.3 7:0.134 8:29.0 
-0.0014898730688687437 1:1.0 2:103.0 3:30.0 4:38.0 5:83.0 6:43.3 7:0.183 8:33.0 
-1.052807631777986E-8 1:1.0 2:97.0 3:66.0 4:15.0 5:140.0 6:23.2 7:0.487 8:22.0 
-2.319452427733614E-6 1:5.0 2:117.0 3:92.0 4:0.0 5:0.0 6:34.1 7:0.337 8:38.0 
-0.01277046623136969 1:5.0 2:109.0 3:75.0 4:26.0 5:0.0 6:36.0 7:0.546 8:60.0 
-0.010915741474775602 1:10.0 2:122.0 3:78.0 4:31.0 5:0.0 6:27.6 7:0.512 8:45.0 
-5.867248594464256E-9 1:4.0 2:103.0 3:60.0 4:33.0 5:192.0 6:24.0 7:0.966 8:33.0 
-0.0015535780845056 1:11.0 2:138.0 3:76.0 4:0.0 5:0.0 6:33.2 7:0.42 8:35.0 
-3.0952514020880453E-4 1:3.0 2:180.0 3:64.0 4:25.0 5:70.0 6:34.0 7:0.271 8:26.0 
-2.0283951089780414E-6 1:7.0 2:133.0 3:84.0 4:0.0 5:0.0 6:40.2 7:0.696 8:37.0 
-0.006016772122197016 1:7.0 2:159.0 3:64.0 4:0.0 5:0.0 6:27.4 7:0.294 8:40.0 
-2.3873266977609355E-5 1:1.0 2:103.0 3:80.0 4:11.0 5:82.0 6:19.4 7:0.491 8:22.0 
-8.54561347599603E-5 1:7.0 2:150.0 3:66.0 4:42.0 5:342.0 6:34.7 7:0.718 8:42.0 
-1.3371228333780493E-4 1:0.0 2:100.0 3:88.0 4:60.0 5:110.0 6:46.8 7:0.962 8:31.0 
-4.624055053376657E-6 1:0.0 2:105.0 3:64.0 4:41.0 5:142.0 6:41.5 7:0.173 8:22.0 
-1.4532010072897129E-5 1:4.0 2:146.0 3:85.0 4:27.0 5:100.0 6:28.9 7:0.189 8:27.0 
-0.002493764621637124 1:5.0 2:95.0 3:72.0 4:33.0 5:0.0 6:37.7 7:0.37 8:27.0 
-0.04881820001466981 1:3.0 2:113.0 3:44.0 4:13.0 5:0.0 6:22.4 7:0.14 8:22.0 
-5.189712653700363E-8 1:2.0 2:110.0 3:74.0 4:29.0 5:125.0 6:32.4 7:0.698 8:27.0 
-1.3152260719301964E-5 1:13.0 2:106.0 3:72.0 4:54.0 5:0.0 6:36.6 7:0.178 8:45.0 
-1.2027910921268628E-4 1:2.0 2:100.0 3:68.0 4:25.0 5:71.0 6:38.5 7:0.324 8:26.0 
-4.1073082229489927E-4 1:4.0 2:123.0 3:80.0 4:15.0 5:176.0 6:32.0 7:0.443 8:34.0 
-7.907650846809319E-4 1:7.0 2:81.0 3:78.0 4:40.0 5:48.0 6:46.7 7:0.261 8:42.0 
-7.202606842121785E-4 1:6.0 2:144.0 3:72.0 4:27.0 5:228.0 6:33.9 7:0.255 8:40.0 
-0.03173175471068245 1:1.0 2:151.0 3:60.0 4:0.0 5:0.0 6:26.1 7:0.179 8:22.0 
-5.6520558199028915E-9 1:1.0 2:126.0 3:56.0 4:29.0 5:152.0 6:28.7 7:0.801 8:21.0 
-1.4183005783049417E-7 1:4.0 2:144.0 3:58.0 4:28.0 5:140.0 6:29.5 7:0.287 8:37.0 
-1.5344892820595327E-4 1:4.0 2:99.0 3:76.0 4:15.0 5:51.0 6:23.2 7:0.223 8:21.0 
-5.072768876185471E-6 1:6.0 2:111.0 3:64.0 4:39.0 5:0.0 6:34.2 7:0.26 8:24.0 
-2.1674315819650173E-6 1:2.0 2:107.0 3:74.0 4:30.0 5:100.0 6:33.6 7:0.404 8:23.0 
-7.965987896154855E-6 1:5.0 2:132.0 3:80.0 4:0.0 5:0.0 6:26.8 7:0.186 8:69.0 
-3.0627171482838675E-4 1:3.0 2:120.0 3:70.0 4:30.0 5:135.0 6:42.9 7:0.452 8:30.0 
-2.125738492200471E-5 1:1.0 2:118.0 3:58.0 4:36.0 5:94.0 6:33.3 7:0.261 8:23.0 
-0.032680256008320974 1:8.0 2:84.0 3:74.0 4:31.0 5:0.0 6:38.3 7:0.457 8:39.0 
-7.239955205621995E-7 1:2.0 2:125.0 3:60.0 4:20.0 5:140.0 6:33.8 7:0.088 8:31.0 
-1.5605367502898942E-5 1:0.0 2:100.0 3:70.0 4:26.0 5:50.0 6:30.8 7:0.597 8:21.0 
-3.053009943262945E-7 1:0.0 2:93.0 3:60.0 4:25.0 5:92.0 6:28.7 7:0.532 8:22.0 
-0.09249292550615704 1:3.0 2:128.0 3:78.0 4:0.0 5:0.0 6:21.1 7:0.268 8:55.0 
-0.01163352865701708 1:5.0 2:106.0 3:82.0 4:30.0 5:0.0 6:39.5 7:0.286 8:38.0 
-3.4958538424942567E-10 1:4.0 2:154.0 3:62.0 4:31.0 5:284.0 6:32.8 7:0.237 8:23.0 
-0.002966817016182788 1:5.0 2:147.0 3:78.0 4:0.0 5:0.0 6:33.7 7:0.218 8:65.0 
-3.069663992897259E-5 1:1.0 2:136.0 3:74.0 4:50.0 5:204.0 6:37.4 7:0.399 8:24.0 
-0.002556339433122381 1:4.0 2:151.0 3:90.0 4:38.0 5:0.0 6:29.7 7:0.294 8:36.0 
-1.7646396743223702E-7 1:4.0 2:120.0 3:68.0 4:0.0 5:0.0 6:29.6 7:0.709 8:34.0 
-1.7362115304140374E-4 1:4.0 2:110.0 3:66.0 4:0.0 5:0.0 6:31.9 7:0.471 8:29.0 
-0.04923550359217716 1:5.0 2:143.0 3:78.0 4:0.0 5:0.0 6:45.0 7:0.19 8:47.0 
-1.2673280726076242E-4 1:4.0 2:141.0 3:74.0 4:0.0 5:0.0 6:27.6 7:0.244 8:40.0 
-0.020553484568952625 1:1.0 2:105.0 3:58.0 4:0.0 5:0.0 6:24.3 7:0.187 8:21.0 
-1.221377607614595E-6 1:1.0 2:138.0 3:82.0 4:0.0 5:0.0 6:40.1 7:0.236 8:28.0 
-6.0681491928354575E-6 1:2.0 2:99.0 3:70.0 4:16.0 5:44.0 6:20.4 7:0.235 8:27.0 
-1.0041686409942857E-7 1:6.0 2:103.0 3:72.0 4:32.0 5:190.0 6:37.7 7:0.324 8:55.0 
-2.742482967977477E-7 1:1.0 2:96.0 3:64.0 4:27.0 5:87.0 6:33.2 7:0.289 8:21.0 
-0.005938054925136017 1:7.0 2:179.0 3:95.0 4:31.0 5:0.0 6:34.2 7:0.164 8:60.0 
-3.741924247189095E-6 1:6.0 2:125.0 3:68.0 4:30.0 5:120.0 6:30.0 7:0.464 8:32.0 
-1.6562881069214242E-5 1:7.0 2:142.0 3:60.0 4:33.0 5:190.0 6:28.8 7:0.687 8:61.0 
-3.912161532602454E-5 1:1.0 2:100.0 3:66.0 4:15.0 5:56.0 6:23.6 7:0.666 8:26.0 
-6.602089303941837E-9 1:0.0 2:101.0 3:76.0 4:0.0 5:0.0 6:35.7 7:0.198 8:26.0 
-0.04440642122936031 1:4.0 2:122.0 3:68.0 4:0.0 5:0.0 6:35.0 7:0.394 8:29.0 
-9.307018769892142E-6 1:4.0 2:91.0 3:70.0 4:32.0 5:88.0 6:33.1 7:0.446 8:22.0 
-6.677025341535813E-4 1:2.0 2:146.0 3:76.0 4:35.0 5:194.0 6:38.2 7:0.329 8:29.0 
-0.08086762215743452 1:10.0 2:122.0 3:68.0 4:0.0 5:0.0 6:31.2 7:0.258 8:41.0 
-2.389011913811328E-7 1:2.0 2:129.0 3:84.0 4:0.0 5:0.0 6:28.0 7:0.284 8:27.0 
-1.8457920697049037E-4 1:4.0 2:95.0 3:70.0 4:32.0 5:0.0 6:32.1 7:0.612 8:24.0 
-3.883886179696936E-5 1:3.0 2:142.0 3:80.0 4:15.0 5:0.0 6:32.4 7:0.2 8:63.0 
-0.014274716987790292 1:2.0 2:128.0 3:64.0 4:42.0 5:0.0 6:40.0 7:1.101 8:24.0 
-9.859630229449044E-9 1:3.0 2:122.0 3:78.0 4:0.0 5:0.0 6:23.0 7:0.254 8:40.0 
-5.312042664101705E-6 1:10.0 2:129.0 3:76.0 4:28.0 5:122.0 6:35.9 7:0.28 8:39.0 
-6.176495516614015E-5 1:5.0 2:155.0 3:84.0 4:44.0 5:545.0 6:38.7 7:0.619 8:34.0 
-2.7082939515811296E-6 1:6.0 2:151.0 3:62.0 4:31.0 5:120.0 6:35.5 7:0.692 8:28.0 
-1.1009901848044978E-5 1:0.0 2:126.0 3:84.0 4:29.0 5:215.0 6:30.7 7:0.52 8:24.0 
-0.010157599411806438 1:3.0 2:150.0 3:76.0 4:0.0 5:0.0 6:21.0 7:0.207 8:37.0 
-8.737942981753899E-4 1:2.0 2:120.0 3:76.0 4:37.0 5:105.0 6:39.7 7:0.215 8:29.0 
-4.620943248646955E-6 1:0.0 2:137.0 3:68.0 4:14.0 5:148.0 6:24.8 7:0.143 8:21.0 
-2.804920028822994E-4 1:0.0 2:106.0 3:70.0 4:37.0 5:148.0 6:39.4 7:0.605 8:22.0 
-7.049390329238001E-8 1:2.0 2:112.0 3:68.0 4:22.0 5:94.0 6:34.1 7:0.315 8:26.0 
-1.067859144175322E-5 1:4.0 2:129.0 3:60.0 4:12.0 5:231.0 6:27.5 7:0.527 8:31.0 
-7.681531037863148E-5 1:2.0 2:112.0 3:75.0 4:32.0 5:0.0 6:35.7 7:0.148 8:21.0 
-1.5426718156577658E-4 1:1.0 2:157.0 3:72.0 4:21.0 5:168.0 6:25.6 7:0.123 8:24.0 
-0.1322626061710998 1:10.0 2:179.0 3:70.0 4:0.0 5:0.0 6:35.1 7:0.2 8:37.0 
-6.263716665058109E-7 1:6.0 2:105.0 3:70.0 4:32.0 5:68.0 6:30.8 7:0.122 8:37.0 
-3.0961619214965483E-4 1:0.0 2:165.0 3:76.0 4:43.0 5:255.0 6:47.9 7:0.259 8:26.0 
-4.008673907536329E-8 1:1.0 2:130.0 3:70.0 4:13.0 5:105.0 6:25.9 7:0.472 8:22.0 
-0.00478696604732736 1:1.0 2:0.0 3:68.0 4:35.0 5:0.0 6:32.0 7:0.389 8:22.0 
-6.3536590309610754E-6 1:5.0 2:122.0 3:86.0 4:0.0 5:0.0 6:34.7 7:0.29 8:33.0 
-5.983572748560309E-4 1:8.0 2:126.0 3:88.0 4:36.0 5:108.0 6:38.5 7:0.349 8:49.0 
-1.7902292721968053E-5 1:1.0 2:139.0 3:46.0 4:19.0 5:83.0 6:28.7 7:0.654 8:22.0 
-0.017051335379155437 1:4.0 2:92.0 3:80.0 4:0.0 5:0.0 6:42.2 7:0.237 8:29.0 
-0.21872526649984236 1:4.0 2:137.0 3:84.0 4:0.0 5:0.0 6:31.2 7:0.252 8:30.0 
-0.0022330050389869458 1:12.0 2:88.0 3:74.0 4:40.0 5:54.0 6:35.3 7:0.378 8:48.0 
-4.719993182377274E-6 1:5.0 2:158.0 3:70.0 4:0.0 5:0.0 6:29.8 7:0.207 8:63.0 
-0.005600537937969552 1:5.0 2:103.0 3:108.0 4:37.0 5:0.0 6:39.2 7:0.305 8:65.0 
-4.397954815173167E-6 1:4.0 2:147.0 3:74.0 4:25.0 5:293.0 6:34.9 7:0.385 8:30.0 
-7.456744729881879E-4 1:5.0 2:99.0 3:54.0 4:28.0 5:83.0 6:34.0 7:0.499 8:30.0 
-0.001884276312444726 1:0.0 2:118.0 3:64.0 4:23.0 5:89.0 6:0.0 7:1.731 8:21.0 
-1.4877600006675321E-9 1:2.0 2:105.0 3:58.0 4:40.0 5:94.0 6:34.9 7:0.225 8:25.0 
-1.6287365838286375E-4 1:2.0 2:122.0 3:52.0 4:43.0 5:158.0 6:36.2 7:0.816 8:28.0 
-0.002355336074341517 1:0.0 2:93.0 3:100.0 4:39.0 5:72.0 6:43.4 7:1.021 8:35.0 
-3.067979129400257E-8 1:1.0 2:125.0 3:70.0 4:24.0 5:110.0 6:24.3 7:0.221 8:25.0 
-0.002872276947670291 1:1.0 2:119.0 3:54.0 4:13.0 5:50.0 6:22.3 7:0.205 8:24.0 
-5.515453786766175E-6 1:3.0 2:100.0 3:68.0 4:23.0 5:81.0 6:31.6 7:0.949 8:28.0 
-1.3707010709398787E-7 1:1.0 2:100.0 3:66.0 4:29.0 5:196.0 6:32.0 7:0.444 8:42.0 
-6.067292678626736E-9 1:4.0 2:116.0 3:72.0 4:12.0 5:87.0 6:22.1 7:0.463 8:37.0 
-2.149105707865937E-6 1:2.0 2:127.0 3:58.0 4:24.0 5:275.0 6:27.7 7:1.6 8:25.0 
-2.594338614912122E-4 1:2.0 2:123.0 3:48.0 4:32.0 5:165.0 6:42.1 7:0.52 8:26.0 
-1.6708259123638603E-4 1:6.0 2:102.0 3:90.0 4:39.0 5:0.0 6:35.7 7:0.674 8:28.0 
-2.0742247780995042E-9 1:1.0 2:112.0 3:72.0 4:30.0 5:176.0 6:34.4 7:0.528 8:25.0 
-3.63376268324267E-4 1:1.0 2:119.0 3:88.0 4:41.0 5:170.0 6:45.3 7:0.507 8:26.0 
-6.095274962377086E-4 1:0.0 2:102.0 3:64.0 4:46.0 5:78.0 6:40.6 7:0.496 8:21.0 
-3.7834273498568136E-4 1:0.0 2:135.0 3:94.0 4:46.0 5:145.0 6:40.6 7:0.284 8:26.0 
-6.447026578397814E-6 1:3.0 2:89.0 3:74.0 4:16.0 5:85.0 6:30.4 7:0.551 8:38.0 
-0.020244734906360754 1:2.0 2:139.0 3:75.0 4:0.0 5:0.0 6:25.6 7:0.167 8:29.0 
-0.009448844176964337 1:12.0 2:140.0 3:85.0 4:33.0 5:0.0 6:37.4 7:0.244 8:41.0 
-1.6696734145250942E-8 1:5.0 2:147.0 3:75.0 4:0.0 5:0.0 6:29.9 7:0.434 8:28.0 
-7.531262112471456E-7 1:4.0 2:117.0 3:64.0 4:27.0 5:120.0 6:33.2 7:0.23 8:24.0 
-3.0325828155267126E-5 1:0.0 2:120.0 3:74.0 4:18.0 5:63.0 6:30.5 7:0.285 8:26.0 
-7.763915188799245E-5 1:1.0 2:82.0 3:64.0 4:13.0 5:95.0 6:21.2 7:0.415 8:23.0 
-6.525025287174462E-7 1:2.0 2:100.0 3:54.0 4:28.0 5:105.0 6:37.8 7:0.498 8:24.0 
-8.113886212857183E-7 1:8.0 2:74.0 3:70.0 4:40.0 5:49.0 6:35.3 7:0.705 8:39.0 
-2.015294268541029E-8 1:0.0 2:97.0 3:64.0 4:36.0 5:100.0 6:36.8 7:0.6 8:25.0 
-9.187052827079224E-4 1:6.0 2:154.0 3:78.0 4:41.0 5:140.0 6:46.1 7:0.571 8:27.0 
-7.876404710498015E-7 1:1.0 2:144.0 3:82.0 4:40.0 5:0.0 6:41.3 7:0.607 8:28.0 
-2.1661798343004595E-6 1:0.0 2:137.0 3:70.0 4:38.0 5:0.0 6:33.2 7:0.17 8:22.0 
-0.008755180673335368 1:4.0 2:114.0 3:64.0 4:0.0 5:0.0 6:28.9 7:0.126 8:24.0 
-0.0027073347767877618 1:0.0 2:137.0 3:84.0 4:27.0 5:0.0 6:27.3 7:0.231 8:59.0 
-4.8501060915428454E-8 1:7.0 2:114.0 3:76.0 4:17.0 5:110.0 6:23.8 7:0.466 8:31.0 
-9.993163601943951E-5 1:1.0 2:139.0 3:62.0 4:41.0 5:480.0 6:40.7 7:0.536 8:21.0 
-5.542274370655197E-5 1:0.0 2:173.0 3:78.0 4:32.0 5:265.0 6:46.5 7:1.159 8:58.0 
-0.017489489944722495 1:8.0 2:194.0 3:80.0 4:0.0 5:0.0 6:26.1 7:0.551 8:67.0 
-8.985133907318171E-6 1:2.0 2:83.0 3:65.0 4:28.0 5:66.0 6:36.8 7:0.629 8:24.0 
-2.1307129043880673E-6 1:5.0 2:110.0 3:68.0 4:0.0 5:0.0 6:26.0 7:0.292 8:30.0 
-5.2701419595575843E-5 1:6.0 2:154.0 3:74.0 4:32.0 5:193.0 6:29.3 7:0.839 8:39.0 
-2.949170463723116E-8 1:1.0 2:130.0 3:60.0 4:23.0 5:170.0 6:28.6 7:0.692 8:21.0 
-9.249053467809781E-5 1:0.0 2:139.0 3:62.0 4:17.0 5:210.0 6:22.1 7:0.207 8:21.0 
-5.583678626759127E-4 1:3.0 2:99.0 3:54.0 4:19.0 5:86.0 6:25.6 7:0.154 8:24.0 
-8.239687803560114E-5 1:6.0 2:129.0 3:90.0 4:7.0 5:326.0 6:19.6 7:0.582 8:60.0 
-8.827842826736555E-9 1:3.0 2:124.0 3:80.0 4:33.0 5:130.0 6:33.2 7:0.305 8:26.0 
-0.058101011340147564 1:3.0 2:125.0 3:58.0 4:0.0 5:0.0 6:31.6 7:0.151 8:24.0 
-0.0019899333315722685 1:3.0 2:116.0 3:74.0 4:15.0 5:105.0 6:26.3 7:0.107 8:24.0 
-8.286544056609306E-7 1:0.0 2:117.0 3:66.0 4:31.0 5:188.0 6:30.8 7:0.493 8:22.0 
-5.024523374399243E-7 1:0.0 2:111.0 3:65.0 4:0.0 5:0.0 6:24.6 7:0.66 8:31.0 
-0.002996045579874031 1:1.0 2:86.0 3:66.0 4:52.0 5:65.0 6:41.3 7:0.917 8:29.0 
-0.005951835907889263 1:0.0 2:57.0 3:60.0 4:0.0 5:0.0 6:21.7 7:0.735 8:67.0 
-1.5792695619221109E-6 1:4.0 2:131.0 3:68.0 4:21.0 5:166.0 6:33.1 7:0.16 8:28.0 
-1.2483131309292631E-5 1:7.0 2:124.0 3:70.0 4:33.0 5:215.0 6:25.5 7:0.161 8:37.0 
-1.853316013175119E-6 1:1.0 2:87.0 3:68.0 4:34.0 5:77.0 6:37.6 7:0.401 8:24.0 
-2.17116364295793E-5 1:6.0 2:99.0 3:60.0 4:19.0 5:54.0 6:26.9 7:0.497 8:32.0 
-5.061437983817555E-4 1:4.0 2:154.0 3:72.0 4:29.0 5:126.0 6:31.3 7:0.338 8:37.0 
-2.707799112934602E-5 1:3.0 2:111.0 3:58.0 4:31.0 5:44.0 6:29.5 7:0.43 8:22.0 
-3.5975038313699124E-8 1:2.0 2:98.0 3:60.0 4:17.0 5:120.0 6:34.7 7:0.198 8:22.0 
-7.264454652932796E-4 1:1.0 2:119.0 3:44.0 4:47.0 5:63.0 6:35.5 7:0.28 8:25.0 
-1.5028875769267583E-7 1:6.0 2:108.0 3:44.0 4:20.0 5:130.0 6:24.0 7:0.813 8:35.0 
-9.238187350967535E-5 1:10.0 2:133.0 3:68.0 4:0.0 5:0.0 6:27.0 7:0.245 8:36.0 
-1.923024934879849E-4 1:6.0 2:109.0 3:60.0 4:27.0 5:0.0 6:25.0 7:0.206 8:27.0 
-0.11226342445877213 1:8.0 2:100.0 3:76.0 4:0.0 5:0.0 6:38.7 7:0.19 8:42.0 
-1.4569690028413835E-5 1:6.0 2:103.0 3:66.0 4:0.0 5:0.0 6:24.3 7:0.249 8:29.0 
-1.9458783745278534E-4 1:6.0 2:123.0 3:72.0 4:45.0 5:230.0 6:33.6 7:0.733 8:34.0 
-6.48440888330135E-6 1:1.0 2:124.0 3:60.0 4:32.0 5:0.0 6:35.8 7:0.514 8:21.0 
-9.027868462017778E-6 1:0.0 2:152.0 3:82.0 4:39.0 5:272.0 6:41.5 7:0.27 8:27.0 
-1.531862434153699E-5 1:1.0 2:111.0 3:62.0 4:13.0 5:182.0 6:24.0 7:0.138 8:23.0 
-9.000655147280223E-9 1:3.0 2:106.0 3:54.0 4:21.0 5:158.0 6:30.9 7:0.292 8:24.0 
-0.010411648426051018 1:6.0 2:105.0 3:80.0 4:28.0 5:0.0 6:32.5 7:0.878 8:26.0 
-0.008651753644191518 1:2.0 2:92.0 3:76.0 4:20.0 5:0.0 6:24.2 7:1.698 8:28.0 
-0.1771651358656278 1:6.0 2:183.0 3:94.0 4:0.0 5:0.0 6:40.8 7:1.461 8:45.0 
-8.156249093492829E-10 1:0.0 2:94.0 3:70.0 4:27.0 5:115.0 6:43.5 7:0.347 8:21.0 
-1.2844778181489429E-5 1:2.0 2:108.0 3:64.0 4:0.0 5:0.0 6:30.8 7:0.158 8:21.0 
-5.5310298989802726E-8 1:0.0 2:125.0 3:68.0 4:0.0 5:0.0 6:24.7 7:0.206 8:21.0 
-1.0730626112312646E-4 1:5.0 2:128.0 3:80.0 4:0.0 5:0.0 6:34.6 7:0.144 8:45.0 
-1.032449992753799E-4 1:1.0 2:128.0 3:82.0 4:17.0 5:183.0 6:27.5 7:0.115 8:22.0 
-0.04510055333760599 1:10.0 2:92.0 3:62.0 4:0.0 5:0.0 6:25.9 7:0.167 8:31.0 
-4.619718928940113E-5 1:1.0 2:100.0 3:74.0 4:12.0 5:46.0 6:19.5 7:0.149 8:28.0 
-7.347744116674293E-7 1:0.0 2:102.0 3:86.0 4:17.0 5:105.0 6:29.3 7:0.695 8:27.0 
-0.0029470377602597766 1:4.0 2:128.0 3:70.0 4:0.0 5:0.0 6:34.3 7:0.303 8:24.0 
-5.158147005361105E-5 1:2.0 2:157.0 3:74.0 4:35.0 5:440.0 6:39.4 7:0.134 8:30.0 
-7.830557463893454E-9 1:1.0 2:117.0 3:60.0 4:23.0 5:106.0 6:33.8 7:0.466 8:27.0 
-8.101737860887462E-7 1:5.0 2:123.0 3:74.0 4:40.0 5:77.0 6:34.1 7:0.269 8:28.0 
-0.0013623808333300055 1:2.0 2:120.0 3:54.0 4:0.0 5:0.0 6:26.8 7:0.455 8:27.0 
-0.042274822400428874 1:10.0 2:162.0 3:84.0 4:0.0 5:0.0 6:27.7 7:0.182 8:54.0 
-8.394190207826888E-4 1:6.0 2:98.0 3:58.0 4:33.0 5:190.0 6:34.0 7:0.43 8:43.0 
-4.900199883403361E-7 1:9.0 2:154.0 3:78.0 4:30.0 5:100.0 6:30.9 7:0.164 8:45.0 
-2.5445260608428796E-5 1:6.0 2:165.0 3:68.0 4:26.0 5:168.0 6:33.6 7:0.631 8:49.0 
-0.1989403124209 1:0.0 2:93.0 3:60.0 4:0.0 5:0.0 6:35.3 7:0.263 8:25.0 
-1.1272930674698988E-4 1:2.0 2:101.0 3:58.0 4:17.0 5:265.0 6:24.2 7:0.614 8:23.0 
-1.0732861838557677E-6 1:0.0 2:95.0 3:64.0 4:39.0 5:105.0 6:44.6 7:0.366 8:22.0 
-0.00620308111587654 1:5.0 2:136.0 3:82.0 4:0.0 5:0.0 6:0.0 7:0.64 8:69.0 
-2.046334557639645E-8 1:2.0 2:129.0 3:74.0 4:26.0 5:205.0 6:33.2 7:0.591 8:25.0 
-5.210449602496934E-4 1:3.0 2:130.0 3:64.0 4:0.0 5:0.0 6:23.1 7:0.314 8:22.0 
-1.7522126949423951E-6 1:2.0 2:121.0 3:70.0 4:32.0 5:95.0 6:39.1 7:0.886 8:23.0 
-9.252114071178236E-6 1:4.0 2:118.0 3:70.0 4:0.0 5:0.0 6:44.5 7:0.904 8:26.0 
-5.316264317284635E-6 1:2.0 2:122.0 3:76.0 4:27.0 5:200.0 6:35.9 7:0.483 8:26.0 
-0.024944924548862338 1:2.0 2:129.0 3:0.0 4:0.0 5:0.0 6:38.5 7:0.304 8:41.0 
-5.2488886701413066E-8 1:4.0 2:110.0 3:76.0 4:20.0 5:100.0 6:28.4 7:0.118 8:27.0 
-5.965348797198662E-7 1:2.0 2:127.0 3:46.0 4:21.0 5:335.0 6:34.4 7:0.176 8:22.0 
-2.3195976889993217E-6 1:0.0 2:134.0 3:58.0 4:20.0 5:291.0 6:26.4 7:0.352 8:21.0 
-0.4888398971313406 1:3.0 2:102.0 3:74.0 4:0.0 5:0.0 6:29.5 7:0.121 8:32.0 
-1.2954675368866109E-6 1:1.0 2:108.0 3:60.0 4:46.0 5:178.0 6:35.5 7:0.415 8:24.0 
-1.6378749162546487E-6 1:1.0 2:114.0 3:66.0 4:36.0 5:200.0 6:38.1 7:0.289 8:21.0 
-3.563469700773278E-4 1:5.0 2:117.0 3:86.0 4:30.0 5:105.0 6:39.1 7:0.251 8:42.0 
-4.727435846117215E-7 1:1.0 2:116.0 3:78.0 4:29.0 5:180.0 6:36.1 7:0.496 8:25.0 
-0.015239740394098257 1:2.0 2:175.0 3:88.0 4:0.0 5:0.0 6:22.9 7:0.326 8:22.0 
-3.0900491435026375E-7 1:2.0 2:106.0 3:56.0 4:27.0 5:165.0 6:29.0 7:0.426 8:22.0 
-6.3135191371832124E-6 1:3.0 2:102.0 3:44.0 4:20.0 5:94.0 6:30.8 7:0.4 8:26.0 
-0.0010063697080787343 1:13.0 2:153.0 3:88.0 4:37.0 5:140.0 6:40.6 7:1.174 8:39.0 
-2.921883458806533E-4 1:1.0 2:81.0 3:74.0 4:41.0 5:57.0 6:46.3 7:1.096 8:32.0 
-0.007722396364975895 1:3.0 2:108.0 3:62.0 4:24.0 5:0.0 6:26.0 7:0.223 8:25.0 
-1.781354571717759E-6 1:7.0 2:137.0 3:90.0 4:41.0 5:0.0 6:32.0 7:0.391 8:39.0 
-2.1195813714423577E-5 1:1.0 2:106.0 3:76.0 4:0.0 5:0.0 6:37.5 7:0.197 8:26.0 
-0.001435724545701251 1:2.0 2:122.0 3:70.0 4:27.0 5:0.0 6:36.8 7:0.34 8:27.0 
-4.399773921922694E-7 1:5.0 2:121.0 3:72.0 4:23.0 5:112.0 6:26.2 7:0.245 8:30.0 
