svm_type c_svc
kernel_type rbf
gamma 0.125
nr_class 2
total_sv 408
rho -0.05037226411727631
label 1 0
nr_sv 196 212
SV
0.8586126253281782 1:1.2330766165241331 2:1.9424580236424829 3:-0.26376935381661626 4:-1.2873732599334593 5:-0.6924393247241311 6:-1.1025369566033936 7:0.6040037018505788 8:-0.10551538992871327 
1.8202209954070652 1:-1.1411078811017756 2:0.5037269282016452 3:-1.5037073108550938 4:0.9066790623472525 5:0.7653371892139017 6:1.4088275001580755 7:5.481337032943514 8:-0.020483050510820357 
22.5 1:-0.25078869449205976 2:-1.341602085515951 3:-0.9870664954223949 4:0.7186174347231915 5:0.07115789686245756 6:-0.12589522341837797 7:-0.6756926671985577 8:-0.6157094264360707 
4.410771864970872 1:1.2330766165241331 2:0.12840577286925275 3:1.3894812555680205 4:-1.2873732599334593 5:-0.6924393247241311 6:-4.057829473903507 7:-0.7239830962192798 8:1.7651960772649309 
9.058295711816376 1:1.8266227409306104 2:1.4733065794769924 3:0.25287146161608276 4:-1.2873732599334593 5:-0.6924393247241311 6:0.7619608976589091 7:0.19655320698823583 8:0.06454928890707255 
12.914020322745461 1:0.3427574299144175 2:1.4107530535882602 3:0.14954329852954296 4:-0.09631628498107284 5:0.8260778772946531 6:-0.7854454847900768 7:0.3474607976779923 8:1.5100990590112522 
22.5 1:0.9363035543208947 2:-0.6535133007398982 3:-3.5702705725858896 4:-1.2873732599334593 5:-0.6924393247241311 6:-0.25273181214370466 7:0.03659116085709365 8:-0.10551538992871327 
22.5 1:-1.1411078811017756 2:-0.09053156774130951 3:0.7695122770487818 4:1.6589255728434966 5:1.3033261407862708 6:1.7512862897164572 7:0.23880733238136775 8:-0.1905477293466062 
22.5 1:0.9363035543208947 2:-0.4345759601293359 3:0.25287146161608276 4:-1.2873732599334593 5:-0.6924393247241311 6:-0.3034664476338352 7:-0.6575837563157869 8:-0.1905477293466062 
22.5 1:-0.844334818898537 2:-0.18436185657440762 3:0.04621513544300315 4:0.5932430163071508 5:0.140575826097602 6:0.3307164959927984 7:0.17240799247787475 8:-0.10551538992871327 
22.5 1:1.5298496787273719 2:-0.05925480479694347 3:0.5628559508757022 4:0.9066790623472525 5:-0.6924393247241311 6:-0.3795684008690314 7:-0.6304203899916307 8:-0.36061240818239204 
16.0679193460387 1:2.123395803133849 2:0.6913875058678415 3:1.2861530924814808 4:0.7813046439312119 5:0.5744378838172546 6:0.5843896734434518 7:-0.6575837563157869 8:1.5100990590112522 
22.5 1:1.8266227409306104 2:0.12840577286925275 3:0.04621513544300315 4:0.3424941794750695 5:0.30544340803106995 6:-0.1132115645458451 7:-0.8054731951917484 8:0.659775664832323 
18.356508192476298 1:0.9363035543208947 2:0.8164945576453055 3:0.35619962470262256 4:-1.2873732599334593 5:-0.6924393247241311 6:0.9395321218743663 7:-0.6485293008744015 8:0.8298403436681088 
20.17069339629645 1:-0.25078869449205976 2:1.160538950033332 3:0.35619962470262256 4:0.9693662715552729 5:1.4334847581021666 6:-0.04979327018318175 7:1.1442528765199076 8:-0.44564474760028494 
22.5 1:1.5298496787273719 2:-0.5909597748511661 3:0.35619962470262256 4:1.0320534807632933 5:-0.6924393247241311 6:0.11509429515974262 7:0.5828766391540129 8:1.0849373619217875 
22.5 1:-0.5475617566952984 2:-0.9662809301835585 3:-0.057113027643536644 4:1.3454895268033948 5:-0.6924393247241311 6:0.7873282154039748 7:0.09393604531920123 8:-0.5306770870181778 
9.930645139810386 1:0.04598436771117886 2:-0.3094689083518718 3:0.14954329852954296 4:1.6589255728434966 5:1.103749594235231 6:0.6478079678061152 7:2.7710367041554838 8:1.9352607561007167 
1.4178567149202803 1:-1.1411078811017756 2:1.848627734809385 3:-0.16044119073007646 4:1.1574278991793339 5:-0.6924393247241311 6:1.269307252560216 7:4.289167066494437 8:-0.7007417658539636 
22.5 1:0.9363035543208947 2:-0.5596830119068 3:-0.16044119073007646 4:0.7186174347231915 5:-0.6924393247241311 6:0.9014811452567687 7:-0.385950093074225 8:-0.1905477293466062 
22.5 1:1.2330766165241331 2:0.37861987642418105 3:0.14954329852954296 4:-1.2873732599334593 5:-0.6924393247241311 6:0.11509429515974262 7:-0.6092933272950648 8:0.4897109859965371 
22.5 1:0.9363035543208947 2:-0.21563861951877367 3:-0.16044119073007646 4:-1.2873732599334593 5:-0.6924393247241311 6:0.10241063628720977 7:-0.6455111490606064 8:0.7448080042502159 
19.174802574786092 1:-1.1411078811017756 2:-0.3720224342406038 3:0.9761686032218614 4:0.5932430163071508 5:-0.6924393247241311 6:0.06435965966961212 7:1.156325483775088 8:0.4046786465786442 
22.5 1:-0.5475617566952984 2:-0.6535133007398982 3:-0.16044119073007646 4:-0.033629075773052505 5:0.08851237917124367 6:0.11509429515974262 7:1.1925433055406296 8:-0.44564474760028494 
7.5693741431773915 1:2.716941927540326 2:0.1596825358136188 3:1.0794967663084012 4:-1.2873732599334593 5:-0.6924393247241311 6:1.4468784767756733 7:0.33538819042281176 8:0.7448080042502159 
4.86460829228609 1:0.3427574299144175 2:0.5037269282016452 3:2.0094502340872595 4:-1.2873732599334593 5:-0.6924393247241311 6:2.1317960558924374 7:-0.7390738552882555 8:0.3196463071607513 
22.5 1:0.04598436771117886 2:0.4098966393685471 3:0.14954329852954296 4:-1.2873732599334593 5:-0.6924393247241311 6:-1.0391186622407302 7:-0.5881662645984989 8:2.2753901137722883 
4.466199077723115 1:-0.844334818898537 2:0.034575484036154645 3:1.0794967663084012 4:1.909674409675578 5:1.2165537292423403 6:2.245948985745232 7:-0.44329497753633246 8:-0.1905477293466062 
22.5 1:-1.1411078811017756 2:-0.8098971154617284 3:0.8211763585920516 4:0.2798069702670492 5:-0.38005864316598115 6:0.6858589444237129 7:-0.6787108190123529 8:-0.7857741052718566 
22.5 1:-0.25078869449205976 2:1.5671368683100906 3:0.14954329852954296 4:0.7813046439312119 5:0.478988231118931 6:0.16582893064987314 7:-0.8235821060745192 8:-0.7857741052718566 
3.146336082329725 1:1.2330766165241331 2:1.0667086612002339 3:-0.36709751690315606 4:0.3424941794750695 5:3.6027950467004297 6:0.2546145427576022 7:0.21466211787100667 8:1.0849373619217875 
22.5 1:0.9363035543208947 2:1.223092475922064 3:-0.7804101692493153 4:0.7186174347231915 5:0.8260778772946531 6:-0.18931351778104133 7:0.35047894949178743 8:0.4897109859965371 
22.5 1:0.3427574299144175 2:0.09712900992488673 3:0.25287146161608276 4:-1.2873732599334593 5:-0.6924393247241311 6:0.2546145427576022 7:-0.7602009179848214 8:0.4046786465786442 
4.200346886221254 1:-1.1411078811017756 2:1.2856460018107962 3:0.35619962470262256 4:2.22311045571568 5:0.1752847907151742 6:2.6898770462838755 7:0.8665829096507554 8:-0.7007417658539636 
22.5 1:-1.1411078811017756 2:-0.24691538246313968 3:0.35619962470262256 4:-1.2873732599334593 5:-0.6924393247241311 6:0.16582893064987314 7:-0.5851481127847037 8:-0.8708064446897495 
4.290406548035537 1:-0.844334818898537 2:-1.0288344560722906 3:-2.020348126287793 4:1.3454895268033948 5:0.16660754956078114 6:2.9181829059894633 7:0.07280898262263528 8:-0.6157094264360707 
6.147409600411932 1:-1.1411078811017756 2:-0.497129486018068 3:0.7695122770487818 4:-1.2873732599334593 5:-0.6924393247241311 6:-0.519088648466891 7:0.8122561770024429 8:2.445454792608074 
15.469467514627773 1:0.04598436771117886 2:1.6296903941988226 3:0.04621513544300315 4:-0.40975233102117453 5:0.7653371892139017 6:-0.2907827887613028 7:-0.33464151223970773 8:-0.020483050510820357 
4.867881423360493 1:-0.25078869449205976 2:1.5358601053657244 3:-0.26376935381661626 4:1.0320534807632933 5:1.2599399350143057 6:0.31803283712026553 7:-0.3497322713086834 8:-0.2755800687644991 
22.5 1:1.8266227409306104 2:-0.40329919718496987 3:-0.16044119073007646 4:-1.2873732599334593 5:-0.6924393247241311 6:0.05167600079707926 7:-0.6032570236674745 8:0.7448080042502159 
0.812690907030478 1:1.2330766165241331 2:2.0988418383643133 3:0.45952778778916237 4:-1.2873732599334593 5:-0.6924393247241311 6:2.0176431260396432 7:-1.0107075185298176 8:0.8298403436681088 
2.9881150834727723 1:3.9040341763532806 2:1.3169227647551622 3:0.14954329852954296 4:1.2828023175953747 5:0.29676616687667695 6:1.1297870049623564 7:1.0416357148508728 8:1.1699697013396804 
19.81598797417789 1:-1.1411078811017756 2:0.31606635053544896 3:0.9761686032218614 4:-1.2873732599334593 5:-0.6924393247241311 6:-0.04979327018318175 7:0.8182924806300331 8:-0.10551538992871327 
22.5 1:0.6395304921176561 2:-0.528406248962434 3:0.25287146161608276 4:-0.15900349418909318 5:0.6612102953611851 6:-0.2654154710162375 7:0.7549112925403353 8:0.659775664832323 
22.5 1:0.6395304921176561 2:-0.5909597748511661 3:0.666184113962242 4:-1.2873732599334593 5:-0.6924393247241311 6:-0.1512625411634432 7:-0.8809269905366268 8:0.2346139677428584 
22.5 1:0.6395304921176561 2:0.4098966393685471 3:0.04621513544300315 4:0.15443255185100851 5:0.43560202534696574 6:0.43218576697305944 7:0.21164396605721153 8:-0.36061240818239204 
21.26778539386452 1:0.3427574299144175 2:0.28478958759108297 3:0.666184113962242 4:-1.2873732599334593 5:-0.6924393247241311 6:0.9014811452567687 7:1.4611588169683964 8:0.3196463071607513 
4.572190920013731 1:-0.844334818898537 2:0.22223606170235086 3:1.4928094186545604 4:1.2828023175953747 5:-0.189159337769334 6:9.413653069487583E-4 7:2.56278422900362 8:-0.020483050510820357 
22.5 1:1.2330766165241331 2:-0.3720224342406038 3:0.35619962470262256 4:1.1574278991793339 5:0.29676616687667695 6:-0.519088648466891 7:0.5074228438091345 8:-0.1905477293466062 
22.5 1:0.3427574299144175 2:0.5662804540903773 3:0.5628559508757022 4:0.9066790623472525 5:0.6959192599787574 6:-0.04979327018318175 7:-0.33464151223970773 8:-0.7007417658539636 
1.6892406498307697 1:2.123395803133849 2:0.44117340231291313 3:-3.5702705725858896 4:-1.2873732599334593 5:-0.6924393247241311 6:2.575724116431081 7:0.3202974313538361 8:0.5747433254144301 
22.5 1:0.3427574299144175 2:1.160538950033332 3:0.7695122770487818 4:1.2828023175953747 5:1.1297813176984097 6:0.9395321218743663 7:-0.2320243505706731 8:-0.36061240818239204 
22.5 1:-0.25078869449205976 2:-0.4345759601293359 3:-0.36709751690315606 4:-0.4724395402291949 5:-0.27593174931326453 6:-1.1532715920935246 7:0.6221126127333496 8:-0.8708064446897495 
22.5 1:0.04598436771117886 2:-0.3720224342406038 3:-0.26376935381661626 4:1.4708639452194356 5:0.16660754956078114 6:0.3560838137378632 7:1.3072330744648448 8:-0.6157094264360707 
22.5 1:0.04598436771117886 2:0.8477713205896716 3:-0.47042567998969587 4:0.40518138868308984 5:2.0669233623728593 6:-0.1385788822909108 7:-0.9714715449504809 8:-0.36061240818239204 
11.749643480451757 1:0.3427574299144175 2:1.2856460018107962 3:1.8027939079141797 4:-1.2873732599334593 5:-0.6924393247241311 6:0.7239099210413115 7:-0.9684533931366858 8:1.595131398429145 
4.834244905450045 1:0.9363035543208947 2:1.9737347865868489 3:0.7695122770487818 4:0.7813046439312119 5:-0.6924393247241311 6:0.4448694258455923 7:-0.35275042312247856 8:0.659775664832323 
22.5 1:-1.1411078811017756 2:0.5975572170347433 3:-0.21210527227334636 4:0.3424941794750695 5:0.43560202534696574 6:1.3454092057954121 7:-0.12337088527404838 8:-0.7857741052718566 
22.5 1:1.5298496787273719 2:-0.27819214540750575 3:0.666184113962242 4:0.7186174347231915 5:0.8260778772946531 6:0.2799818605026679 7:-0.6394748454330161 8:0.2346139677428584 
22.5 1:0.3427574299144175 2:-0.3720224342406038 3:-0.36709751690315606 4:1.2828023175953747 5:0.42692478419257274 6:0.48292040246318996 7:0.12713571527094772 8:-0.7007417658539636 
22.5 1:0.3427574299144175 2:-1.1226647449053888 3:0.25287146161608276 4:0.09174534264298817 5:-0.6924393247241311 6:-0.3795684008690314 7:2.270023503065492 8:-0.10551538992871327 
11.584169968563721 1:0.3427574299144175 2:-0.27819214540750575 3:-0.16044119073007646 4:-1.2873732599334593 5:-0.6924393247241311 6:0.7365935799138433 7:-0.636456693619221 8:0.659775664832323 
3.1832016818875064 1:-1.1411078811017756 2:1.7547974459762867 3:-0.47042567998969587 4:0.5305558070991305 5:3.455281947075748 6:0.3307164959927984 7:1.811264427368632 8:-1.0408711235255355 
13.837455899449957 1:-0.25078869449205976 2:1.2856460018107962 3:-0.8837383323358551 4:1.0947406899713135 5:-0.6924393247241311 6:0.660491626678648 7:0.5436406655746762 8:-0.7857741052718566 
9.806675570196784 1:0.04598436771117886 2:0.6601107429234754 3:0.8728404401353216 4:-1.2873732599334593 5:-0.6924393247241311 6:1.5229804300108694 7:0.5225136028781102 8:-0.9558387841076424 
4.0216888505726915 1:0.6395304921176561 2:0.4098966393685471 3:0.5628559508757022 4:1.0320534807632933 5:2.5181399024012983 6:1.8020209252065886 7:-0.7058741853365091 8:1.0849373619217875 
22.5 1:-0.25078869449205976 2:0.5662804540903773 3:-0.7804101692493153 4:-1.2873732599334593 5:-0.6924393247241311 6:-0.8108128025351421 7:-0.21089728787410716 8:-0.9558387841076424 
10.116518152517726 1:0.6395304921176561 2:-0.05925480479694347 3:-0.9870664954223949 4:0.09174534264298817 5:0.8347551184490462 6:-0.620557919447152 7:2.553729773562235 8:-0.020483050510820357 
3.0424565117161584 1:1.5298496787273719 2:1.9737347865868489 3:0.8211763585920516 4:-0.3470651218131542 5:-0.6924393247241311 6:-0.25273181214370466 7:2.2368238331137458 8:1.3400343801754664 
1.4570613749923726 1:2.4201688653370876 2:-0.9037274042948265 3:-0.36709751690315606 4:-0.8485627954773168 5:1.5462888931092764 6:-0.5571396250844887 7:1.3706142625545428 8:0.9148726830860018 
22.5 1:-0.844334818898537 2:-0.24691538246313968 3:-0.26376935381661626 4:0.9066790623472525 5:-0.6924393247241311 6:0.20387990726747168 7:0.21466211787100667 8:-1.0408711235255355 
2.257762773405462 1:2.123395803133849 2:1.0667086612002339 3:0.35619962470262256 4:0.4678685978911102 5:0.6091468484348268 6:0.16582893064987314 7:2.6593650870450642 8:1.5100990590112522 
17.58952842455916 1:0.04598436771117886 2:0.06585224698052068 3:-0.36709751690315606 4:-1.2873732599334593 5:-0.6924393247241311 6:9.413653069487583E-4 7:-0.7420920071020507 8:0.14958162832496547 
1.4292990950121744 1:-1.1411078811017756 2:0.5350036911460112 3:-3.5702705725858896 4:-1.2873732599334593 5:-0.6924393247241311 6:0.5463386968258533 7:1.3917413252511086 8:-0.7007417658539636 
7.030625377137784 1:-0.5475617566952984 2:0.7852177947009396 3:-3.5702705725858896 4:-1.2873732599334593 5:-0.6924393247241311 6:-0.5698232839570215 7:-0.6998378817089188 8:-0.44564474760028494 
0.46652144345769053 1:1.8266227409306104 2:-0.6222365377955321 3:0.8728404401353216 4:1.0320534807632933 5:-0.6924393247241311 6:1.7259189719713923 7:2.00442614345152 8:0.4046786465786442 
22.5 1:0.9363035543208947 2:-0.46585272307370196 3:-0.47042567998969587 4:0.21711976105902883 5:-0.6924393247241311 6:-0.6966598726823482 7:-0.5308213801363914 8:-0.36061240818239204 
22.5 1:-1.1411078811017756 2:0.7852177947009396 3:0.04621513544300315 4:-1.2873732599334593 5:-0.6924393247241311 6:0.7492772387863762 7:-0.41613161121217623 8:-0.44564474760028494 
3.779456534128223 1:0.9363035543208947 2:1.25436923886643 3:0.8728404401353216 4:-1.2873732599334593 5:-0.6924393247241311 6:-0.20199717665357417 7:-0.9261992677435539 8:1.1699697013396804 
22.5 1:-0.5475617566952984 2:-0.40329919718496987 3:0.5628559508757022 4:-1.2873732599334593 5:-0.6924393247241311 6:-0.6332415783196849 7:-0.6424929972468112 8:1.595131398429145 
22.5 1:-0.844334818898537 2:-0.05925480479694347 3:0.8728404401353216 4:1.1574278991793339 5:1.2165537292423403 6:1.7259189719713923 7:1.014472348526717 8:-0.36061240818239204 
22.5 1:-1.1411078811017756 2:-0.4345759601293359 3:-0.36709751690315606 4:0.5932430163071508 5:-0.05032347929904517 6:0.5843896734434518 7:0.860546606023165 8:-0.7007417658539636 
7.9348614588684 1:-0.5475617566952984 2:0.22223606170235086 3:0.45952778778916237 4:1.0320534807632933 5:0.8868185653754045 6:1.4341948179031403 7:2.270023503065492 8:-0.1905477293466062 
14.40759168383892 1:-0.844334818898537 2:0.22223606170235086 3:-1.0903946585089346 4:1.5335511544274558 5:0.9909454592281212 6:1.0790523694722258 7:0.4259327448366658 8:-0.7857741052718566 
13.434224276485406 1:-0.5475617566952984 2:0.7852177947009396 3:0.04621513544300315 4:1.0947406899713135 5:2.4313674908573675 6:-0.5064049895943581 7:-0.40707715577079084 8:-0.36061240818239204 
3.7779321351564557 1:3.013714989743565 2:-0.6535133007398982 3:0.45952778778916237 4:0.2798069702670492 5:0.9041730476841906 6:0.5843896734434518 7:-0.18071576973615597 8:1.0849373619217875 
22.5 1:-0.5475617566952984 2:0.7226642688122075 3:-0.5737538430762357 4:0.7813046439312119 5:0.478988231118931 6:-0.04979327018318175 7:-0.1505342515982046 8:-0.7007417658539636 
4.541856930926352 1:0.3427574299144175 2:-0.18436185657440762 3:1.4928094186545604 4:-1.2873732599334593 5:-0.6924393247241311 6:2.651826069666277 7:-0.7934005879365679 8:-0.44564474760028494 
16.97447795166344 1:1.8266227409306104 2:1.25436923886643 3:-0.057113027643536644 4:0.15443255185100851 5:0.45295650765575185 6:-0.823496461407675 7:-0.4402768257225373 8:1.1699697013396804 
22.5 1:-1.1411078811017756 2:0.22223606170235086 3:-0.057113027643536644 4:-0.09631628498107284 5:0.8694640830666184 6:-0.18931351778104133 7:2.7740548559692795 8:-0.7007417658539636 
22.5 1:-0.5475617566952984 2:0.09712900992488673 3:-0.057113027643536644 4:0.4678685978911102 5:1.0863951119264448 6:0.11509429515974262 7:1.2166885200509907 8:-0.2755800687644991 
22.5 1:-0.5475617566952984 2:1.0667086612002339 3:0.25287146161608276 4:-0.2216907033971135 5:0.140575826097602 6:-0.6839762138098153 7:-0.11733458164645812 8:-0.5306770870181778 
8.586390885393596 1:-0.25078869449205976 2:1.911181260698117 3:0.25287146161608276 4:-1.2873732599334593 5:-0.6924393247241311 6:-0.18931351778104133 7:-0.3829319412604299 8:-0.36061240818239204 
7.831095970678984 1:0.6395304921176561 2:2.286502416030509 3:0.45952778778916237 4:-1.2873732599334593 5:-0.6924393247241311 6:-1.0771696388583283 7:-1.0348527330401787 8:2.1903577743543954 
22.5 1:-0.25078869449205976 2:-0.27819214540750575 3:0.25287146161608276 4:0.5932430163071508 5:-0.6924393247241311 6:-0.04979327018318175 7:-0.8296184097021095 8:-0.7007417658539636 
22.5 1:-1.1411078811017756 2:0.09712900992488673 3:0.04621513544300315 4:-0.033629075773052505 5:-0.6924393247241311 6:-0.5825069428295543 7:-0.6575837563157869 8:0.2346139677428584 
4.758240680398657 1:2.716941927540326 2:0.9728783723671358 3:1.0794967663084012 4:0.7813046439312119 5:-0.44079933124673254 6:-0.65860889606475 7:0.7820746588644916 8:0.8298403436681088 
22.5 1:-0.844334818898537 2:0.034575484036154645 3:-0.26376935381661626 4:0.7186174347231915 5:0.6612102953611851 6:0.3941347903554618 7:0.6643667381264813 8:-0.2755800687644991 
22.5 1:-0.5475617566952984 2:-0.5909597748511661 3:0.8728404401353216 4:0.9693662715552729 5:0.34882961380303523 6:1.7132353130988596 7:-1.0408890366677688 8:-0.8708064446897495 
2.6787309244680424 1:-0.844334818898537 2:1.848627734809385 3:-3.5702705725858896 4:-1.2873732599334593 5:-0.6924393247241311 6:1.4341948179031403 7:-0.5730755055295232 8:0.659775664832323 
22.5 1:0.3427574299144175 2:-0.18436185657440762 3:0.35619962470262256 4:-1.2873732599334593 5:-0.6924393247241311 6:-0.10052790567331271 7:-0.38896824488802 8:0.9148726830860018 
4.440498725288978 1:1.5298496787273719 2:0.9728783723671358 3:0.45952778778916237 4:0.8439918531392322 5:0.7913689126770809 6:0.2799818605026679 7:1.2710152526993033 8:-0.020483050510820357 
6.943695211339719 1:0.3427574299144175 2:-3.7811895951765018 3:0.5628559508757022 4:0.7186174347231915 5:-0.6924393247241311 6:1.1424706638348892 7:-0.3799137894466348 8:0.3196463071607513 
6.834874066720956 1:1.5298496787273719 2:1.3794762906438942 3:0.9761686032218614 4:-1.2873732599334593 5:-0.6924393247241311 6:-0.20199717665357417 7:-0.5127124692536206 8:1.3400343801754664 
22.5 1:-0.844334818898537 2:0.12840577286925275 3:-0.9870664954223949 4:1.2201151083873543 5:0.7566599480595086 6:0.16582893064987314 7:1.4792677278511672 8:-0.44564474760028494 
22.333525726675013 1:0.04598436771117886 2:0.7852177947009396 3:0.45952778778916237 4:-1.2873732599334593 5:-0.6924393247241311 6:0.8253791920215724 7:0.14524462615371853 8:2.870616489697539 
22.5 1:0.6395304921176561 2:0.09712900992488673 3:0.14954329852954296 4:-1.2873732599334593 5:-0.6924393247241311 6:-0.5571396250844887 7:-0.3135144495431418 8:-0.36061240818239204 
9.941767519212773 1:-0.844334818898537 2:0.37861987642418105 3:1.69946574482764 4:0.4678685978911102 5:0.5223744368908962 6:0.10241063628720977 7:-0.7179467925916896 8:0.9999050225038947 
2.694714022542922 1:-0.25078869449205976 2:1.6296903941988226 3:0.666184113962242 4:1.7216127820515168 5:3.3424778120686383 6:0.8126955331490395 7:5.025596109060449 8:-0.7007417658539636 
3.501674147562202 1:0.04598436771117886 2:1.0979854241445999 3:0.30453554315935266 4:-1.2873732599334593 5:-0.6924393247241311 6:2.068377761529774 7:-0.7058741853365091 8:-0.10551538992871327 
22.5 1:0.3427574299144175 2:-0.15308509363004158 3:0.25287146161608276 4:0.5305558070991305 5:-0.6924393247241311 6:0.03899234192454641 7:0.5677858800850373 8:0.14958162832496547 
22.5 1:1.2330766165241331 2:-0.497129486018068 3:1.5961375817411 4:0.9693662715552729 5:-0.6924393247241311 6:1.4341948179031403 7:-0.702856033522714 8:0.9999050225038947 
10.372874070606551 1:0.3427574299144175 2:0.7226642688122075 3:0.666184113962242 4:0.3424941794750695 5:1.7805744042778888 6:9.413653069487583E-4 7:-0.05998969718435053 8:2.1053254349365025 
22.5 1:-1.1411078811017756 2:0.31606635053544896 3:-0.16044119073007646 4:1.2201151083873543 5:-0.6924393247241311 6:0.29266551937519986 7:-0.8326365615159046 8:-0.9558387841076424 
4.282392477987307 1:-0.25078869449205976 2:2.255225653086143 3:0.04621513544300315 4:0.6559302255151712 5:-0.6924393247241311 6:0.36876747261039605 7:-0.6968197298951236 8:-0.7007417658539636 
22.5 1:0.04598436771117886 2:-0.8098971154617284 3:-0.26376935381661626 4:-1.2873732599334593 5:-0.6924393247241311 6:9.413653069487583E-4 7:-0.9382718749987344 8:-0.1905477293466062 
22.5 1:0.3427574299144175 2:0.4724501652572792 3:0.7695122770487818 4:1.2828023175953747 5:0.07115789686245756 6:0.3814511314829289 7:-0.5610028982743428 8:0.14958162832496547 
22.5 1:0.04598436771117886 2:-0.18436185657440762 3:0.14954329852954296 4:-1.2873732599334593 5:-0.6924393247241311 6:-0.39225205974156424 7:-0.28936923503278067 8:1.0849373619217875 
1.1205925710331346 1:1.2330766165241331 2:2.3803327048636076 3:0.25287146161608276 4:-1.2873732599334593 5:-0.6924393247241311 6:-0.7727618259175444 7:2.1704244932102528 8:0.4897109859965371 
0.5976783453802146 1:-0.844334818898537 2:1.5984136312544566 3:-0.057113027643536644 4:1.7842999912595372 5:4.331683303669446 6:1.3200418880503464 7:0.6945482562644326 8:-0.44564474760028494 
22.5 1:-1.1411078811017756 2:0.5350036911460112 3:-0.47042567998969587 4:0.9066790623472525 5:0.7566599480595086 6:0.3307164959927984 7:0.18749875154685045 8:-1.0408711235255355 
8.680434673664932 1:-0.25078869449205976 2:1.6296903941988226 3:0.7695122770487818 4:0.7813046439312119 5:3.4205729824581756 6:0.470236743590658 7:-0.6455111490606064 8:-0.9558387841076424 
22.5 1:0.04598436771117886 2:0.7226642688122075 3:0.666184113962242 4:0.7186174347231915 5:-0.6924393247241311 6:0.8253791920215724 7:0.24786178782275314 8:0.3196463071607513 
22.5 1:-0.25078869449205976 2:0.2535128246467169 3:-0.26376935381661626 4:0.5305558070991305 5:0.30544340803106995 6:-0.7093435315548811 7:-0.7632190697986165 8:-0.44564474760028494 
22.5 1:1.2330766165241331 2:0.9416016094227697 3:0.45952778778916237 4:0.7186174347231915 5:1.1297813176984097 6:1.3834601824130097 7:0.133172018898538 8:0.2346139677428584 
21.58135083728251 1:-0.844334818898537 2:-0.8098971154617284 3:0.666184113962242 4:0.2798069702670492 5:0.8694640830666184 6:0.3814511314829289 7:-0.7209649444054846 8:0.8298403436681088 
1.2879105941834135 1:-1.1411078811017756 2:2.1301186013086792 3:1.8027939079141797 4:0.2798069702670492 5:-0.6924393247241311 6:0.29266551937519986 7:-0.11129827801886784 8:0.659775664832323 
11.499891716061175 1:1.2330766165241331 2:-0.40329919718496987 3:0.04621513544300315 4:-1.2873732599334593 5:-0.6924393247241311 6:-0.18931351778104133 7:1.4581406651546014 8:-0.020483050510820357 
22.5 1:0.04598436771117886 2:-0.12180833068567555 3:-0.36709751690315606 4:-0.5351267494372152 5:-0.6924393247241311 6:-0.2907827887613028 7:-0.27729662777760017 8:-0.2755800687644991 
0.46093050948412 1:-1.1411078811017756 2:1.848627734809385 3:0.45952778778916237 4:2.661920920171822 5:-0.5709579485626283 6:3.4762638963809005 7:5.879733072364471 8:-0.7007417658539636 
22.5 1:-1.1411078811017756 2:-0.528406248962434 3:-0.26376935381661626 4:1.0320534807632933 5:-0.1370958908429757 6:0.20387990726747168 7:0.11506310801576718 8:-0.9558387841076424 
22.5 1:-0.5475617566952984 2:0.4098966393685471 3:0.04621513544300315 4:-1.2873732599334593 5:-0.6924393247241311 6:-0.39225205974156424 7:0.21164396605721153 8:-0.8708064446897495 
3.0657856848130773 1:3.013714989743565 2:1.6922439200875545 3:-0.36709751690315606 4:0.5932430163071508 5:-0.6924393247241311 6:0.20387990726747168 7:-0.7843461324951825 8:0.4046786465786442 
22.5 1:1.2330766165241331 2:-0.02797804185257743 3:-3.5702705725858896 4:-1.2873732599334593 5:-0.6924393247241311 6:-0.25273181214370466 7:-0.8718725350952414 8:0.4046786465786442 
22.5 1:-0.5475617566952984 2:-0.497129486018068 3:0.5628559508757022 4:1.5335511544274558 5:0.964913735764942 6:0.21656356614000455 7:0.7217116225885888 8:-0.36061240818239204 
22.5 1:-0.25078869449205976 2:1.160538950033332 3:0.04621513544300315 4:0.5932430163071508 5:2.15369577391679 6:0.4448694258455923 7:-0.385950093074225 8:0.14958162832496547 
2.657130388422911 1:-1.1411078811017756 2:0.7539410317565735 3:-3.5702705725858896 4:-1.2873732599334593 5:-0.6924393247241311 6:1.548347747755935 7:0.47724132567118316 8:-0.1905477293466062 
22.5 1:-1.1411078811017756 2:0.44117340231291313 3:-0.057113027643536644 4:1.3454895268033948 5:1.476870963874132 6:1.3073582291778136 7:-0.32256890498452717 8:-0.7857741052718566 
10.300916291668415 1:0.04598436771117886 2:0.12840577286925275 3:0.04621513544300315 4:-0.15900349418909318 5:0.36618409611182134 6:-0.39225205974156424 7:2.028571357961881 8:0.9999050225038947 
3.284199671411982 1:0.9363035543208947 2:2.317779178974875 3:0.04621513544300315 4:0.7813046439312119 5:0.5657606426628615 6:-0.8742310968978054 7:-0.9322355713711441 8:1.8502284166828238 
3.6944966542317226 1:0.6395304921176561 2:-3.7811895951765018 3:-0.057113027643536644 4:1.2828023175953747 5:-0.6924393247241311 6:0.8887974863842358 7:0.770002051609311 8:0.659775664832323 
22.5 1:2.4201688653370876 2:-1.1539415078497548 3:0.14954329852954296 4:0.6559302255151712 5:-0.6924393247241311 6:-0.2907827887613028 7:-0.5278032283225963 8:1.0849373619217875 
22.5 1:-0.25078869449205976 2:1.3169227647551622 3:0.04621513544300315 4:-0.15900349418909318 5:0.21867099648713945 6:-0.04979327018318175 7:-0.615329630922655 8:-0.44564474760028494 
7.774710463613507 1:1.5298496787273719 2:0.7539410317565735 3:0.9761686032218614 4:0.8439918531392322 5:0.7393054657507226 6:-0.21468083552610656 7:0.902800731416297 8:1.680163737847038 
0.25915350957362393 1:0.04598436771117886 2:0.347343113479815 3:-3.5702705725858896 4:-1.2873732599334593 5:-0.6924393247241311 6:0.11509429515974262 7:-0.5127124692536206 8:-0.8708064446897495 
18.95176157052155 1:-0.25078869449205976 2:0.2535128246467169 3:1.1828249293949409 4:1.7842999912595372 5:0.6525330542067921 6:0.5590223556983861 7:1.497376638733938 8:-0.10551538992871327 
15.549968452681009 1:1.2330766165241331 2:-0.6535133007398982 3:0.25287146161608276 4:1.2201151083873543 5:1.1731675234703751 6:0.9395321218743663 7:0.5708040318988323 8:0.8298403436681088 
22.5 1:-0.25078869449205976 2:0.22223606170235086 3:0.14954329852954296 4:0.2798069702670492 5:0.9562364946105489 6:0.05167600079707926 7:0.23277102875377748 8:-0.5306770870181778 
10.834976714827043 1:1.8266227409306104 2:-0.9662809301835585 3:0.8211763585920516 4:0.7186174347231915 5:-0.6924393247241311 6:0.36876747261039605 7:1.065780929361234 8:1.9352607561007167 
3.9504750731554243 1:0.3427574299144175 2:2.0675650754199473 3:0.35619962470262256 4:0.40518138868308984 5:1.103749594235231 6:1.4722457945207388 7:1.6965746584444168 8:1.680163737847038 
22.5 1:0.6395304921176561 2:0.12840577286925275 3:0.35619962470262256 4:-1.2873732599334593 5:-0.6924393247241311 6:0.2292472250125365 7:-1.0589979475505396 8:1.7651960772649309 
22.5 1:-1.1411078811017756 2:0.0032987210917886055 3:-0.16044119073007646 4:0.5932430163071508 5:0.7393054657507226 6:0.29266551937519986 7:-0.8115094988193386 8:-0.020483050510820357 
22.5 1:-0.5475617566952984 2:-0.09053156774130951 3:0.5628559508757022 4:-1.2873732599334593 5:-0.6924393247241311 6:1.3834601824130097 7:0.6673848899402763 8:-1.0408711235255355 
1.6358960809673244 1:-0.5475617566952984 2:2.3803327048636076 3:0.04621513544300315 4:4.918660451660554 5:-0.6924393247241311 6:0.34340015486533126 7:0.31124297591245065 8:2.445454792608074 
22.5 1:-1.1411078811017756 2:0.9416016094227697 3:1.0794967663084012 4:1.5962383636354762 5:-0.6924393247241311 6:1.2819909114327488 7:-0.3044599941017564 8:-1.0408711235255355 
2.055762847422477 1:1.2330766165241331 2:0.09712900992488673 3:0.35619962470262256 4:0.21711976105902883 5:4.5139053679117005 6:-0.41761937748662953 7:0.6492759790575059 8:1.595131398429145 
16.476950992178363 1:1.2330766165241331 2:0.6913875058678415 3:-0.16044119073007646 4:-1.2873732599334593 5:-0.6924393247241311 6:0.36876747261039605 7:-1.0348527330401787 8:0.659775664832323 
1.628981695441347 1:2.123395803133849 2:0.5350036911460112 3:0.25287146161608276 4:0.3424941794750695 5:0.5570834015084685 6:0.5209713790807885 7:0.2569162432641386 8:1.4250667195933593 
0.9877627942629648 1:1.5298496787273719 2:-0.27819214540750575 3:0.666184113962242 4:0.21711976105902883 5:-0.6924393247241311 6:-0.48103767184929286 7:2.4450763082656097 8:1.4250667195933593 
7.5326283014295985 1:-1.1411078811017756 2:-0.05925480479694347 3:-3.5702705725858896 4:-1.2873732599334593 5:-0.6924393247241311 6:0.05167600079707926 7:-0.9986349112746371 8:-0.7857741052718566 
22.5 1:0.9363035543208947 2:-0.21563861951877367 3:-0.26376935381661626 4:-1.2873732599334593 5:-0.6924393247241311 6:-0.5825069428295543 7:0.7850928106782866 8:0.06454928890707255 
22.5 1:2.716941927540326 2:-0.528406248962434 3:0.14954329852954296 4:-1.2873732599334593 5:-0.6924393247241311 6:-0.10052790567331271 7:-0.020753723605013766 8:0.4046786465786442 
22.5 1:0.9363035543208947 2:-0.7473435895729963 3:0.35619962470262256 4:0.7186174347231915 5:0.09718962032563673 6:1.1297870049623564 7:1.2046159127958103 8:-0.10551538992871327 
22.5 1:0.6395304921176561 2:0.8164945576453055 3:0.5628559508757022 4:-1.2873732599334593 5:-0.6924393247241311 6:-0.31615010650636804 7:-0.886963294164217 8:1.4250667195933593 
0.9294121616016149 1:-0.844334818898537 2:1.4420298165326264 3:0.25287146161608276 4:-0.2216907033971135 5:0.5570834015084685 6:-1.0898532977308613 7:-0.07508045625332621 8:-0.020483050510820357 
22.5 1:2.123395803133849 2:0.4724501652572792 3:0.7695122770487818 4:0.9066790623472525 5:0.43560202534696574 6:-0.46835401297676 7:-0.6394748454330161 8:0.7448080042502159 
7.583695090894124 1:-0.5475617566952984 2:1.0667086612002339 3:-0.8837383323358551 4:0.40518138868308984 5:3.993270898648117 6:0.8507465097666381 7:-0.6998378817089188 8:-0.7007417658539636 
9.487120172089778 1:-0.25078869449205976 2:-1.279048559627219 3:0.666184113962242 4:0.6559302255151712 5:-0.08503244391661738 6:0.2799818605026679 7:2.475257826403561 8:-0.5306770870181778 
0.08767040500930642 1:-0.844334818898537 2:2.4428862307523396 3:0.35619962470262256 4:1.4081767360114152 5:-0.6924393247241311 6:1.3834601824130097 7:2.7831093114106644 8:-0.9558387841076424 
22.5 1:0.6395304921176561 2:-0.18436185657440762 3:-0.47042567998969587 4:1.1574278991793339 5:-0.6924393247241311 6:0.21656356614000455 7:-0.6847471226399432 8:0.5747433254144301 
22.5 1:0.04598436771117886 2:0.7539410317565735 3:0.666184113962242 4:-0.15900349418909318 5:-0.6924393247241311 6:0.06435965966961212 7:-0.7149286407778945 8:3.1257135079512177 
18.17460114195185 1:1.8266227409306104 2:-0.3094689083518718 3:0.04621513544300315 4:0.40518138868308984 5:-0.6924393247241311 6:-0.5698232839570215 7:-0.9986349112746371 8:0.5747433254144301 
2.7673634857533203 1:0.6395304921176561 2:2.317779178974875 3:0.04621513544300315 4:-1.2873732599334593 5:-0.6924393247241311 6:-0.1385788822909108 7:-0.43424052209494707 8:-0.1905477293466062 
22.5 1:1.5298496787273719 2:1.0979854241445999 3:0.8728404401353216 4:-1.2873732599334593 5:-0.6924393247241311 6:-0.9122820735154036 7:-0.7300193998468701 8:1.680163737847038 
22.5 1:-0.25078869449205976 2:0.0032987210917886055 3:-0.8837383323358551 4:-1.2873732599334593 5:-0.6924393247241311 6:0.5082877202082556 7:-1.0408890366677688 8:-0.7007417658539636 
22.5 1:0.04598436771117886 2:0.12840577286925275 3:0.5628559508757022 4:-1.2873732599334593 5:-0.6924393247241311 6:0.03899234192454641 7:0.19353505517444072 8:-0.5306770870181778 
22.5 1:0.9363035543208947 2:0.2535128246467169 3:-0.057113027643536644 4:1.7842999912595372 5:0.3922158195750005 6:0.8253791920215724 7:-0.0992256707636873 8:0.8298403436681088 
22.5 1:-0.25078869449205976 2:1.5045833424213584 3:0.25287146161608276 4:-0.09631628498107284 5:0.3922158195750005 6:-0.2654154710162375 7:-0.615329630922655 8:-0.1905477293466062 
22.5 1:0.6395304921176561 2:0.12840577286925275 3:0.45952778778916237 4:0.6559302255151712 5:-0.6924393247241311 6:-0.5571396250844887 7:0.2810614577744993 8:1.3400343801754664 
8.309889103036019 1:1.8266227409306104 2:-0.18436185657440762 3:-3.5702705725858896 4:-1.2873732599334593 5:-0.6924393247241311 6:-4.057829473903507 7:-0.636456693619221 8:-0.2755800687644991 
22.5 1:1.5298496787273719 2:1.3481995276995282 3:0.45952778778916237 4:-1.2873732599334593 5:-0.6924393247241311 6:0.10241063628720977 7:-0.9775078485780712 8:0.9999050225038947 
22.5 1:-0.5475617566952984 2:-0.8724506413504605 3:-0.26376935381661626 4:0.7186174347231915 5:0.6959192599787574 6:0.7619608976589091 7:0.6100400054781692 8:-0.8708064446897495 
0.7865456545981343 1:1.8266227409306104 2:0.2535128246467169 3:-0.36709751690315606 4:0.9693662715552729 5:-0.6924393247241311 6:1.1678379815799549 7:-0.09318936713609703 8:0.4046786465786442 
4.2262953247283725 1:0.9363035543208947 2:2.0675650754199473 3:-0.9870664954223949 4:0.7813046439312119 5:2.7090392077979453 6:0.24193088388506934 7:1.0687990811750292 8:0.06454928890707255 
22.5 1:0.3427574299144175 2:-0.7473435895729963 3:0.35619962470262256 4:0.40518138868308984 5:-0.6924393247241311 6:0.4575530847181251 7:-0.2833329314051904 8:1.595131398429145 
2.161541302354031 1:-0.844334818898537 2:0.8790480835340376 3:-0.057113027643536644 4:0.5305558070991305 5:0.4095703018837866 6:-0.3415174242514333 7:-0.37085933400524934 8:0.7448080042502159 
22.5 1:-0.25078869449205976 2:0.28478958759108297 3:0.45952778778916237 4:0.15443255185100851 5:-0.006937273527079903 6:-0.4556703541042276 7:-0.44933128116392274 8:0.06454928890707255 
22.5 1:1.2330766165241331 2:-0.02797804185257743 3:0.8728404401353216 4:-1.2873732599334593 5:-0.6924393247241311 6:-0.4556703541042276 7:-0.6424929972468112 8:-0.9558387841076424 
2.4802108523307207 1:-0.5475617566952984 2:1.6609671571431885 3:0.9761686032218614 4:1.0320534807632933 5:0.34882961380303523 6:1.5863987243735327 7:0.5255317546919053 8:-0.7857741052718566 
22.5 1:-0.844334818898537 2:-0.5909597748511661 3:0.25287146161608276 4:-1.2873732599334593 5:-0.6924393247241311 6:0.9522157807468992 7:-0.5398758355777767 8:0.7448080042502159 
9.528049220463371 1:1.5298496787273719 2:0.5975572170347433 3:1.2861530924814808 4:-1.2873732599334593 5:-0.6924393247241311 6:0.08972697741467782 7:0.791129114305877 8:0.9999050225038947 
10.707027797949562 1:-0.844334818898537 2:0.8164945576453055 3:1.2861530924814808 4:1.2828023175953747 5:-0.6924393247241311 6:2.1952143502551005 7:-0.3436959676810931 8:-0.5306770870181778 
22.5 1:0.6395304921176561 2:1.2856460018107962 3:-0.36709751690315606 4:-1.2873732599334593 5:-0.6924393247241311 6:-0.9757003678780669 7:-0.886963294164217 8:1.4250667195933593 
8.861576985015088 1:-1.1411078811017756 2:1.879904497753751 3:0.9761686032218614 4:1.4708639452194356 5:3.7329536640163257 6:1.4341948179031403 7:-0.7541646143572311 8:-0.6157094264360707 
15.215903602365794 1:1.2330766165241331 2:1.035431898255868 3:0.45952778778916237 4:0.7186174347231915 5:-0.6924393247241311 6:0.05167600079707926 7:-0.08715306350850675 8:0.9999050225038947 
2.0324868041427537 1:0.6395304921176561 2:2.1613953642530452 3:1.1828249293949409 4:-1.2873732599334593 5:-0.6924393247241311 6:0.4448694258455923 7:-0.5851481127847037 8:2.785584150279646 
-12.910315092622 1:1.8266227409306104 2:-0.18436185657440762 3:-3.5702705725858896 4:-1.2873732599334593 5:-0.6924393247241311 6:0.41950210810052657 7:-1.019761973971203 8:-0.36061240818239204 
-1.8845089232555163 1:1.8266227409306104 2:0.5662804540903773 3:0.5628559508757022 4:-1.2873732599334593 5:-0.6924393247241311 6:-0.620557919447152 7:2.9249624466590363 8:2.0202930955186096 
-0.13901148759186144 1:-0.844334818898537 2:-0.5596830119068 3:-2.020348126287793 4:1.0947406899713135 5:0.027771691090492306 6:1.4341948179031403 7:-0.8718725350952414 8:-0.020483050510820357 
-22.5 1:-0.25078869449205976 2:0.1596825358136188 3:0.9761686032218614 4:1.2828023175953747 5:1.3467123465582362 6:0.9268484630018334 7:0.7005845598920228 8:-0.5306770870181778 
-8.51839794157327 1:2.716941927540326 2:0.7539410317565735 3:0.666184113962242 4:-0.09631628498107284 5:0.2620572022591047 6:-1.2420572042012532 7:-0.6847471226399432 8:2.0202930955186096 
-22.5 1:0.3427574299144175 2:-0.3720224342406038 3:0.30453554315935266 4:0.3424941794750695 5:-0.6924393247241311 6:0.5082877202082556 7:0.22371657331239206 8:2.2753901137722883 
-22.5 1:1.8266227409306104 2:0.034575484036154645 3:0.45952778778916237 4:0.6559302255151712 5:-0.6924393247241311 6:-0.5571396250844887 7:0.12109941164335745 8:0.9999050225038947 
-22.5 1:2.123395803133849 2:0.5350036911460112 3:0.35619962470262256 4:-1.2873732599334593 5:-0.6924393247241311 6:0.1531452717773412 7:-0.15657055522579488 8:0.14958162832496547 
-22.5 1:-0.25078869449205976 2:1.848627734809385 3:-0.26376935381661626 4:0.2798069702670492 5:-0.08503244391661738 6:0.2546145427576022 7:-0.6062751754812696 8:-0.6157094264360707 
-22.5 1:0.9363035543208947 2:0.37861987642418105 3:0.7695122770487818 4:-1.2873732599334593 5:-0.6924393247241311 6:1.0410013928546282 7:0.6764393453816617 8:0.3196463071607513 
-22.5 1:0.9363035543208947 2:1.191815712977698 3:-0.26376935381661626 4:-1.2873732599334593 5:-0.6924393247241311 6:-0.5825069428295543 7:-0.5368576837639817 8:0.5747433254144301 
-22.5 1:-0.844334818898537 2:0.7852177947009396 3:-0.6770820061627755 4:-1.2873732599334593 5:-0.6924393247241311 6:-0.2907827887613028 7:0.2780433059607042 8:-0.36061240818239204 
-6.574821412369355 1:0.9363035543208947 2:-0.497129486018068 3:-3.5702705725858896 4:-1.2873732599334593 5:-0.6924393247241311 6:-4.057829473903507 7:-0.5036580138122352 8:-0.7857741052718566 
-18.53792005714774 1:0.9363035543208947 2:0.9103248464784037 3:-0.16044119073007646 4:1.3454895268033948 5:2.2751771500782927 6:0.34340015486533126 7:0.7428386852851547 8:0.7448080042502159 
-1.5540206186305536 1:-1.1411078811017756 2:0.7852177947009396 3:0.666184113962242 4:-1.2873732599334593 5:-0.6924393247241311 6:1.0790523694722258 7:3.951134063349381 8:0.9148726830860018 
-14.855223896603311 1:-0.5475617566952984 2:0.6288339799791094 3:-0.5737538430762357 4:0.8439918531392322 5:0.4182475430381797 6:-0.8361801202802077 7:0.6854938008230472 8:-0.7857741052718566 
-21.77159170459778 1:0.3427574299144175 2:-0.6847900636842642 3:0.25287146161608276 4:0.40518138868308984 5:-0.6924393247241311 6:-0.3795684008690314 7:-0.8115094988193386 8:-0.10551538992871327 
-9.990069551919559 1:-0.5475617566952984 2:-0.3720224342406038 3:1.1828249293949409 4:-1.2873732599334593 5:-0.6924393247241311 6:1.358092864667945 7:1.1261439656371366 8:1.7651960772649309 
-10.212262429883383 1:0.04598436771117886 2:0.7852177947009396 3:0.8211763585920516 4:0.40518138868308984 5:0.1752847907151742 6:-0.39225205974156424 7:-0.8537636242124705 8:-0.5306770870181778 
-22.5 1:0.3427574299144175 2:0.5662804540903773 3:-0.26376935381661626 4:0.9066790623472525 5:0.5223744368908962 6:-0.4303030363591619 7:-0.1837339215499511 8:-0.6157094264360707 
-2.8832686905437015 1:0.9363035543208947 2:-1.1852182707941208 3:0.45952778778916237 4:0.3424941794750695 5:-0.07635520276222432 6:-0.3415174242514333 7:0.8907281241611165 8:0.2346139677428584 
-22.5 1:-0.5475617566952984 2:-0.3407456712962378 3:0.25287146161608276 4:0.5305558070991305 5:0.3922158195750005 6:0.05167600079707926 7:0.6824756490092521 8:-0.5306770870181778 
-1.3570176250084371 1:2.716941927540326 2:-0.46585272307370196 3:0.14954329852954296 4:2.097736037299639 5:-0.6924393247241311 6:0.5843896734434518 7:-0.886963294164217 8:0.9999050225038947 
-12.688301403572087 1:0.04598436771117886 2:0.06585224698052068 3:0.5628559508757022 4:-0.3470651218131542 5:0.8347551184490462 6:9.413653069487583E-4 7:-0.08715306350850675 8:0.06454928890707255 
-10.33934594624142 1:0.9363035543208947 2:-1.247771796682853 3:0.45952778778916237 4:1.2201151083873543 5:-0.27593174931326453 6:1.865439219569252 7:-0.636456693619221 8:0.7448080042502159 
-5.444900459855327 1:-0.5475617566952984 2:0.6601107429234754 3:0.666184113962242 4:-0.15900349418909318 5:-0.1370958908429757 6:-0.9249657323879363 7:0.8726192132783456 8:-1.0408711235255355 
-22.5 1:0.6395304921176561 2:0.7226642688122075 3:0.14954329852954296 4:0.40518138868308984 5:1.2859716584774847 6:0.24193088388506934 7:-0.6545656045019917 8:0.5747433254144301 
-6.2354712481026615 1:0.6395304921176561 2:-0.8724506413504605 3:-0.9870664954223949 4:0.5932430163071508 5:-0.1370958908429757 6:-0.41761937748662953 7:-0.3497322713086834 8:-0.8708064446897495 
-15.103586192433886 1:-0.844334818898537 2:0.1596825358136188 3:-0.6770820061627755 4:0.5305558070991305 5:0.6265013307436129 6:-0.41761937748662953 7:0.993345285830151 8:-1.0408711235255355 
-22.5 1:0.04598436771117886 2:0.7226642688122075 3:-0.5737538430762357 4:0.4678685978911102 5:0.5223744368908962 6:-0.31615010650636804 7:-0.5579847464605476 8:0.3196463071607513 
-22.5 1:0.6395304921176561 2:-0.3094689083518718 3:-0.26376935381661626 4:1.1574278991793339 5:-0.6924393247241311 6:0.2799818605026679 7:-0.6394748454330161 8:-0.7857741052718566 
-12.396907973768286 1:-0.25078869449205976 2:-0.02797804185257743 3:0.04621513544300315 4:0.5932430163071508 5:0.478988231118931 6:1.3834601824130097 7:-0.05998969718435053 8:-0.2755800687644991 
-13.866794388026047 1:1.2330766165241331 2:-1.1539415078497548 3:0.25287146161608276 4:0.6559302255151712 5:-0.6924393247241311 6:0.8000118742765068 7:-0.044898938115374855 8:0.4897109859965371 
-7.737521526124356 1:-0.5475617566952984 2:0.12840577286925275 3:-0.47042567998969587 4:-0.033629075773052505 5:0.5223744368908962 6:0.2292472250125365 7:-1.158596957405779 8:-0.1905477293466062 
-22.5 1:-1.1411078811017756 2:0.2535128246467169 3:0.5628559508757022 4:-1.2873732599334593 5:-0.6924393247241311 6:-0.10052790567331271 7:0.6975664080782277 8:-0.36061240818239204 
-9.796923422727668 1:-0.25078869449205976 2:0.22223606170235086 3:0.45952778778916237 4:-1.2873732599334593 5:-0.6924393247241311 6:-1.3815774517991124 7:-0.615329630922655 8:1.8502284166828238 
-5.379066913092687 1:0.3427574299144175 2:-0.46585272307370196 3:0.666184113962242 4:0.5932430163071508 5:-0.6924393247241311 6:0.9522157807468992 7:-0.5610028982743428 8:0.4046786465786442 
-20.66889742392297 1:0.04598436771117886 2:1.035431898255868 3:-0.36709751690315606 4:0.6559302255151712 5:1.7718971631234957 6:0.10241063628720977 7:-0.7088923371503042 8:-0.8708064446897495 
-0.9667722663478929 1:1.5298496787273719 2:-1.9984141073476378 3:0.5628559508757022 4:1.0320534807632933 5:-0.6924393247241311 6:0.10241063628720977 7:-1.134451742895418 8:0.659775664832323 
-22.5 1:-0.5475617566952984 2:-0.46585272307370196 3:-0.26376935381661626 4:0.9066790623472525 5:0.3401523726486422 6:-0.18931351778104133 7:2.801218222293435 8:0.06454928890707255 
-22.5 1:0.3427574299144175 2:0.8164945576453055 3:0.45952778778916237 4:-1.2873732599334593 5:-0.6924393247241311 6:0.21656356614000455 7:-0.7662372216124117 8:2.7005518108617528 
-20.10842088239805 1:-0.844334818898537 2:0.4724501652572792 3:0.25287146161608276 4:1.8469872004675576 5:1.0777178707720516 6:0.6858589444237129 7:-0.21995174331549255 8:-0.7857741052718566 
-11.177516831113742 1:-0.25078869449205976 2:0.8477713205896716 3:-0.16044119073007646 4:0.2798069702670492 5:-0.6924393247241311 6:0.06435965966961212 7:-0.6515474526881967 8:-0.9558387841076424 
-22.5 1:0.04598436771117886 2:-0.02797804185257743 3:-0.057113027643536644 4:-1.2873732599334593 5:-0.6924393247241311 6:-0.3034664476338352 7:0.7156753189609986 8:0.06454928890707255 
-22.5 1:0.04598436771117886 2:-0.3407456712962378 3:-0.16044119073007646 4:-1.2873732599334593 5:-0.6924393247241311 6:-0.011742293565584094 7:-0.002644812722243118 8:-0.36061240818239204 
-2.2432665616673972 1:-0.844334818898537 2:-1.310325322571585 3:-0.47042567998969587 4:1.3454895268033948 5:-0.27593174931326453 6:1.459562135648206 7:0.6221126127333496 8:-0.8708064446897495 
-22.5 1:0.3427574299144175 2:0.6913875058678415 3:0.45952778778916237 4:-1.2873732599334593 5:-0.6924393247241311 6:1.649817018736196 7:-0.8507454723986755 8:1.1699697013396804 
-22.5 1:-1.1411078811017756 2:-0.05925480479694347 3:-0.26376935381661626 4:-0.15900349418909318 5:0.10586686148002977 6:0.36876747261039605 7:0.7639657479817207 8:-0.8708064446897495 
-22.5 1:0.04598436771117886 2:0.6288339799791094 3:0.25287146161608276 4:-1.2873732599334593 5:-0.6924393247241311 6:-0.5571396250844887 7:-0.6877652744537383 8:0.5747433254144301 
-22.5 1:1.5298496787273719 2:0.06585224698052068 3:0.04621513544300315 4:1.4708639452194356 5:0.12322134378881588 6:0.14046161290480833 7:-0.29540553866037095 8:0.5747433254144301 
-6.94469350179563 1:1.2330766165241331 2:-1.1226647449053888 3:-0.7287460877060453 4:-0.033629075773052505 5:-0.6924393247241311 6:-0.9630167090055345 7:-1.0137256703436126 8:0.7448080042502159 
-22.5 1:-0.844334818898537 2:0.5350036911460112 3:0.666184113962242 4:-1.2873732599334593 5:-0.6924393247241311 6:1.0283177339820955 7:-0.7119104889640994 8:-0.44564474760028494 
-15.954273440709633 1:-1.1411078811017756 2:-0.40329919718496987 3:-0.057113027643536644 4:-0.033629075773052505 5:-0.6924393247241311 6:-0.5951906017020867 7:0.9510911604370191 8:-0.10551538992871327 
-17.681918258710542 1:-1.1411078811017756 2:0.8164945576453055 3:0.8211763585920516 4:2.097736037299639 5:-0.6924393247241311 6:1.370776523540477 7:-0.29238738684657584 8:-0.7857741052718566 
-3.39477540025096 1:0.9363035543208947 2:1.8173509718650187 3:1.3378171740247506 4:0.6559302255151712 5:-0.6924393247241311 6:0.2799818605026679 7:-0.9292174195573489 8:2.2753901137722883 
-22.5 1:0.6395304921176561 2:0.12840577286925275 3:-0.057113027643536644 4:0.5932430163071508 5:0.34882961380303523 6:-0.25273181214370466 7:-0.023771875418808902 8:-0.10551538992871327 
-16.993381082751466 1:0.9363035543208947 2:-0.05925480479694347 3:-3.5702705725858896 4:-1.2873732599334593 5:-0.6924393247241311 6:-0.861547438025273 7:-0.7934005879365679 8:0.3196463071607513 
-1.9286932822909033 1:0.04598436771117886 2:2.3803327048636076 3:0.04621513544300315 4:1.1574278991793339 5:5.763428094144301 6:0.5970733323159847 7:5.605081257309115 8:-0.1905477293466062 
-15.965361882537003 1:-1.1411078811017756 2:-0.12180833068567555 3:0.5628559508757022 4:0.6559302255151712 5:-0.23254554354129928 6:1.6751843364812617 7:-1.1555788055919838 8:-0.7857741052718566 
-22.5 1:0.04598436771117886 2:0.034575484036154645 3:-0.057113027643536644 4:-1.2873732599334593 5:-0.6924393247241311 6:0.3814511314829289 7:-0.23504250238446825 8:-0.36061240818239204 
-22.5 1:-0.5475617566952984 2:0.7852177947009396 3:0.35619962470262256 4:0.9066790623472525 5:0.9909454592281212 6:0.7873282154039748 7:-0.4312223702811519 8:-0.36061240818239204 
-22.5 1:1.8266227409306104 2:0.034575484036154645 3:-0.057113027643536644 4:-1.2873732599334593 5:-0.6924393247241311 6:-0.10052790567331271 7:-0.6455111490606064 8:0.659775664832323 
-2.786560804279635 1:-1.1411078811017756 2:1.3794762906438942 3:1.0794967663084012 4:0.7813046439312119 5:5.208084660263145 6:2.575724116431081 7:-0.13544349252922894 8:-0.8708064446897495 
-7.767048639096117 1:1.5298496787273719 2:0.09712900992488673 3:0.04621513544300315 4:0.7813046439312119 5:2.795811619341876 6:0.43218576697305944 7:-0.5730755055295232 8:0.06454928890707255 
-22.5 1:1.5298496787273719 2:-0.46585272307370196 3:-0.8837383323358551 4:-1.2873732599334593 5:-0.6924393247241311 6:-0.10052790567331271 7:-0.27729662777760017 8:0.7448080042502159 
-10.931987219096175 1:-1.1411078811017756 2:-1.0913879819610226 3:-0.057113027643536644 4:0.7186174347231915 5:-0.6924393247241311 6:0.48292040246318996 7:-0.7058741853365091 8:-0.7007417658539636 
-17.440395260906357 1:-0.25078869449205976 2:-0.3094689083518718 3:-0.6770820061627755 4:1.1574278991793339 5:-0.6924393247241311 6:-0.24004815327117182 7:0.2569162432641386 8:-0.2755800687644991 
-11.91198275825159 1:-0.844334818898537 2:2.255225653086143 3:-0.9870664954223949 4:-0.28437791260513384 5:2.5615261081732634 6:-0.7727618259175444 7:0.5526951210160616 8:-0.7857741052718566 
-22.5 1:-0.25078869449205976 2:2.1926721271974112 3:-0.057113027643536644 4:-0.3470651218131542 5:0.43560202534696574 6:-0.1385788822909108 7:-0.521766924695006 8:0.06454928890707255 
-20.12326815016335 1:-0.25078869449205976 2:0.6601107429234754 3:0.5628559508757022 4:-0.3470651218131542 5:-0.6924393247241311 6:0.05167600079707926 7:-0.8205639542607241 8:2.530487132025967 
-22.5 1:0.3427574299144175 2:-0.7786203525173623 3:0.25287146161608276 4:-0.15900349418909318 5:-0.11106416737979653 6:0.20387990726747168 7:1.584903041333997 8:0.8298403436681088 
-7.270154131425206 1:-0.5475617566952984 2:0.22223606170235086 3:-0.26376935381661626 4:1.3454895268033948 5:-0.6924393247241311 6:1.0156340751095625 7:1.8987908299686906 8:-0.7857741052718566 
-0.2406270875650206 1:2.716941927540326 2:-0.46585272307370196 3:0.04621513544300315 4:-1.2873732599334593 5:-0.6924393247241311 6:0.2799818605026679 7:-0.6666382117571723 8:1.595131398429145 
-0.43935602973748306 1:-0.5475617566952984 2:-0.6535133007398982 3:0.04621513544300315 4:1.9723616188835982 5:-0.19783657892372705 6:1.0790523694722258 7:0.6190944609195546 8:-0.7007417658539636 
-3.394746051136279 1:0.3427574299144175 2:-0.21563861951877367 3:0.25287146161608276 4:-1.2873732599334593 5:-0.6924393247241311 6:-0.8995984146428712 7:0.8213106324438283 8:2.0202930955186096 
-22.5 1:1.8266227409306104 2:0.2535128246467169 3:0.35619962470262256 4:0.4678685978911102 5:0.36618409611182134 6:0.49560406133572277 7:-0.5791118091571134 8:0.4897109859965371 
-16.111779714861214 1:0.9363035543208947 2:0.37861987642418105 3:0.9761686032218614 4:-0.3470651218131542 5:0.6525330542067921 6:0.05167600079707926 7:-0.6334385418054258 8:0.3196463071607513 
-13.089872282453898 1:0.9363035543208947 2:0.4724501652572792 3:0.25287146161608276 4:0.3424941794750695 5:0.478988231118931 6:-0.7600781670450115 7:0.5285499065057004 8:1.5100990590112522 
-3.2775091613456024 1:0.3427574299144175 2:1.0667086612002339 3:0.7695122770487818 4:1.4708639452194356 5:4.036657104420082 6:0.8507465097666381 7:0.44404165571943666 8:0.06454928890707255 
-22.5 1:0.6395304921176561 2:0.9416016094227697 3:-0.36709751690315606 4:0.6559302255151712 5:0.34882961380303523 6:0.4448694258455923 7:0.6643667381264813 8:-0.44564474760028494 
-7.9081921556495525 1:-0.25078869449205976 2:0.9103248464784037 3:0.35619962470262256 4:-1.2873732599334593 5:-0.6924393247241311 6:-1.3942611106716452 7:-0.7994368915641581 8:0.3196463071607513 
-1.443299978878209 1:-1.1411078811017756 2:-0.46585272307370196 3:0.04621513544300315 4:1.0320534807632933 5:0.5917923661260407 6:0.9395321218743663 7:0.40178753032630476 8:-0.9558387841076424 
-0.39049451509725147 1:0.04598436771117886 2:0.2535128246467169 3:-0.47042567998969587 4:-0.5351267494372152 5:1.312003381940664 6:-0.5698232839570215 7:0.1663716888502845 8:-0.1905477293466062 
-22.5 1:-0.844334818898537 2:1.1292621870889659 3:0.14954329852954296 4:0.029058133434967832 5:0.7653371892139017 6:-0.8108128025351421 7:-1.0529616439229494 8:-0.7857741052718566 
-22.5 1:1.8266227409306104 2:1.8173509718650187 3:0.04621513544300315 4:-1.2873732599334593 5:-0.6924393247241311 6:0.3941347903554618 7:-0.8205639542607241 8:0.3196463071607513 
-7.555376527025275 1:1.2330766165241331 2:-0.09053156774130951 3:0.14954329852954296 4:-0.09631628498107284 5:-0.6924393247241311 6:-1.1279042743484589 7:3.0305977601418657 8:1.0849373619217875 
-11.60866741687963 1:-1.1411078811017756 2:1.3794762906438942 3:0.35619962470262256 4:1.4081767360114152 5:1.5202571696460971 6:2.0176431260396432 7:-0.6424929972468112 8:-0.6157094264360707 
-4.7995879543517965 1:-0.844334818898537 2:-3.7811895951765018 3:-0.057113027643536644 4:0.9066790623472525 5:-0.6924393247241311 6:9.413653069487583E-4 7:-0.25013326145344394 8:-0.9558387841076424 
-22.5 1:0.3427574299144175 2:0.034575484036154645 3:0.8728404401353216 4:-1.2873732599334593 5:-0.6924393247241311 6:0.34340015486533126 7:-0.5489302910191622 8:-0.020483050510820357 
-22.5 1:1.2330766165241331 2:0.1596825358136188 3:0.9761686032218614 4:0.9693662715552729 5:0.24470271995031861 6:0.8253791920215724 7:-0.37085933400524934 8:1.3400343801754664 
-5.505221753655367 1:-0.844334818898537 2:0.5662804540903773 3:-1.1937228215954745 4:-0.09631628498107284 5:0.027771691090492306 6:-0.41761937748662953 7:0.5496769692022664 8:-0.9558387841076424 
-4.303132958187208 1:-0.25078869449205976 2:-0.15308509363004158 3:-3.5702705725858896 4:-1.2873732599334593 5:-0.6924393247241311 6:-1.0771696388583283 7:-0.8597999278400609 8:-0.8708064446897495 
-22.5 1:0.04598436771117886 2:0.5037269282016452 3:0.7695122770487818 4:-1.2873732599334593 5:-0.6924393247241311 6:-0.10052790567331271 7:-0.6636200599433772 8:-0.2755800687644991 
-14.099200998148522 1:2.4201688653370876 2:-1.0288344560722906 3:0.25287146161608276 4:1.2201151083873543 5:-0.22386830238690622 6:0.41950210810052657 7:-0.2833329314051904 8:1.2550020407575735 
-22.5 1:0.3427574299144175 2:1.160538950033332 3:0.04621513544300315 4:-1.2873732599334593 5:-0.6924393247241311 6:-0.27809912988876995 7:-0.7994368915641581 8:2.530487132025967 
-3.207615071006886 1:0.3427574299144175 2:-0.5596830119068 3:2.0094502340872595 4:1.0320534807632933 5:-0.6924393247241311 6:0.9141648041293015 7:-0.5036580138122352 8:2.7005518108617528 
-22.5 1:0.04598436771117886 2:0.8164945576453055 3:0.25287146161608276 4:0.2798069702670492 5:1.8499923335130333 6:0.36876747261039605 7:-0.26220586870862445 8:-0.2755800687644991 
-1.1524918269840987 1:0.3427574299144175 2:-0.6847900636842642 3:-0.7804101692493153 4:0.4678685978911102 5:0.027771691090492306 6:0.2546145427576022 7:0.08186343806402069 8:-0.2755800687644991 
-22.5 1:-0.5475617566952984 2:0.034575484036154645 3:-0.8837383323358551 4:1.4081767360114152 5:0.6785647776699713 6:0.5336550379533214 7:1.0386175630370778 8:-0.44564474760028494 
-11.902735630600048 1:-1.1411078811017756 2:-0.8724506413504605 3:1.5961375817411 4:1.1574278991793339 5:-0.06767796160783127 6:1.4468784767756733 7:1.6573386848650797 8:0.14958162832496547 
-5.675467660421725 1:-0.844334818898537 2:-0.4345759601293359 3:0.14954329852954296 4:0.5932430163071508 5:0.019094449936099253 6:-0.1512625411634432 7:1.0537083221060535 8:-0.7857741052718566 
-22.5 1:-0.25078869449205976 2:-0.6535133007398982 3:-0.057113027643536644 4:0.15443255185100851 5:0.010417208781706202 6:-0.04979327018318175 7:1.4400317542718304 8:-0.44564474760028494 
-22.5 1:-0.844334818898537 2:-0.6535133007398982 3:-0.16044119073007646 4:0.5305558070991305 5:1.0082999415369072 6:9.413653069487583E-4 7:-0.08413491169471161 8:0.7448080042502159 
-14.226489143259254 1:-0.5475617566952984 2:0.19095929875798484 3:-0.5737538430762357 4:0.21711976105902883 5:1.6938019927339583 6:-0.5444559662119562 7:3.4048485850524624 8:-0.7007417658539636 
-22.5 1:0.6395304921176561 2:0.5037269282016452 3:-0.41876159844642596 4:-1.2873732599334593 5:-0.6924393247241311 6:-0.9883840267505998 7:-0.9684533931366858 8:1.8502284166828238 
-22.5 1:-0.5475617566952984 2:0.06585224698052068 3:-1.0903946585089346 4:0.7186174347231915 5:0.7393054657507226 6:1.2819909114327488 7:0.14524462615371853 8:-0.6157094264360707 
-14.516638556488006 1:0.6395304921176561 2:-0.5909597748511661 3:1.0794967663084012 4:1.1574278991793339 5:-0.6924393247241311 6:0.470236743590658 7:0.6100400054781692 8:-0.44564474760028494 
-6.722107496148857 1:-0.844334818898537 2:0.6913875058678415 3:0.7695122770487818 4:0.15443255185100851 5:1.9975054331377151 6:1.3200418880503464 7:1.8233370346238125 8:-0.9558387841076424 
-22.5 1:-0.844334818898537 2:-0.05925480479694347 3:0.9761686032218614 4:1.2828023175953747 5:0.7826916715226878 6:1.6878679953537938 7:0.10600865257438177 8:-0.6157094264360707 
-4.514934272429944 1:-1.1411078811017756 2:0.44117340231291313 3:1.2861530924814808 4:1.5962383636354762 5:0.5657606426628615 6:1.0917360283447588 7:-0.567039201901933 8:-0.6157094264360707 
-22.5 1:2.4201688653370876 2:0.5975572170347433 3:0.8211763585920516 4:0.7813046439312119 5:-0.6924393247241311 6:0.6858589444237129 7:-0.6877652744537383 8:0.659775664832323 
-22.5 1:0.3427574299144175 2:0.8164945576453055 3:0.30453554315935266 4:-1.2873732599334593 5:-0.6924393247241311 6:-0.2654154710162375 7:-0.11431642983266298 8:-0.44564474760028494 
-8.501403989260583 1:0.6395304921176561 2:-0.4345759601293359 3:0.9761686032218614 4:-1.2873732599334593 5:-0.6924393247241311 6:0.6097569911885167 7:0.770002051609311 8:-0.1905477293466062 
-0.9701726878454348 1:-1.1411078811017756 2:-0.8098971154617284 3:0.5628559508757022 4:1.5335511544274558 5:0.10586686148002977 6:0.571706014570919 7:-0.4282042184673568 8:-0.6157094264360707 
-18.159178598316714 1:-1.1411078811017756 2:-0.02797804185257743 3:0.25287146161608276 4:-0.15900349418909318 5:-0.14577313199736874 6:-0.18931351778104133 7:-0.5640210500881379 8:-0.6157094264360707 
-13.875388322631423 1:-1.1411078811017756 2:-0.9350041672391926 3:-0.057113027643536644 4:0.7186174347231915 5:1.1297813176984097 6:1.0029504162370297 7:-0.274278475963805 8:-0.7007417658539636 
-3.358033583748423 1:-0.844334818898537 2:0.44117340231291313 3:-0.7804101692493153 4:-1.2873732599334593 5:-0.6924393247241311 6:-0.6712925549372829 7:0.6492759790575059 8:2.445454792608074 
-2.0524027790921813 1:0.3427574299144175 2:-1.0913879819610226 3:-0.057113027643536644 4:0.4678685978911102 5:-0.07635520276222432 6:-0.22736449439863943 7:-0.32558705679832234 8:-0.7857741052718566 
-22.5 1:1.2330766165241331 2:-1.4667091372934151 3:0.04621513544300315 4:1.2201151083873543 5:-0.2672545081588715 6:0.41950210810052657 7:0.703602711705818 8:0.4897109859965371 
-22.5 1:-1.1411078811017756 2:-0.7473435895729963 3:-0.26376935381661626 4:0.9693662715552729 5:0.1752847907151742 6:0.6097569911885167 7:0.3866967712573291 8:-0.7007417658539636 
-22.5 1:0.6395304921176561 2:1.035431898255868 3:0.45952778778916237 4:1.2828023175953747 5:0.5223744368908962 6:1.7893372663340557 7:0.29917036865727015 8:-0.5306770870181778 
-22.5 1:-0.844334818898537 2:0.7226642688122075 3:0.666184113962242 4:1.2201151083873543 5:-0.6924393247241311 6:1.180521640452487 7:0.40782383395389504 8:-0.44564474760028494 
-15.750311498548909 1:-1.1411078811017756 2:0.5037269282016452 3:0.04621513544300315 4:1.0947406899713135 5:-0.6924393247241311 6:0.1531452717773412 7:-0.9111085086745782 8:-0.9558387841076424 
-3.494844919962648 1:-1.1411078811017756 2:-0.05925480479694347 3:-0.16044119073007646 4:0.40518138868308984 5:-0.6924393247241311 6:0.8634301686391701 7:-0.6424929972468112 8:-0.9558387841076424 
-22.5 1:0.9363035543208947 2:0.4724501652572792 3:1.0794967663084012 4:-1.2873732599334593 5:-0.6924393247241311 6:-0.2654154710162375 7:-0.7903824361227727 8:1.4250667195933593 
-17.83978526402493 1:0.04598436771117886 2:-0.21563861951877367 3:-0.26376935381661626 4:-1.2873732599334593 5:-0.6924393247241311 6:-0.39225205974156424 7:-1.043907188481564 8:-0.7857741052718566 
-6.863472622559671 1:-1.1411078811017756 2:0.5037269282016452 3:0.7695122770487818 4:0.40518138868308984 5:-0.6924393247241311 6:-0.5951906017020867 7:-0.727001248033075 8:2.1903577743543954 
-9.52393706304979 1:0.9363035543208947 2:-0.21563861951877367 3:0.35619962470262256 4:-0.2216907033971135 5:0.2620572022591047 6:-1.0391186622407302 7:-0.01773557179121863 8:-0.1905477293466062 
-17.095580805874555 1:1.2330766165241331 2:0.1596825358136188 3:0.25287146161608276 4:1.0947406899713135 5:-0.04164623814465211 6:-0.7727618259175444 7:-0.9352537231849393 8:0.4897109859965371 
-0.27278367945946924 1:0.04598436771117886 2:0.347343113479815 3:0.8728404401353216 4:0.6559302255151712 5:-0.6924393247241311 6:-0.5064049895943581 7:-0.15958870703959002 8:2.530487132025967 
-0.6095879948681426 1:-1.1411078811017756 2:0.06585224698052068 3:0.9761686032218614 4:1.0320534807632933 5:-0.6924393247241311 6:0.4068184492279946 7:-0.8296184097021095 8:-0.36061240818239204 
-4.2104355871341825 1:-0.844334818898537 2:0.5662804540903773 3:-0.36709751690315606 4:1.2828023175953747 5:3.4726364293845338 6:1.1044196872172916 7:0.19353505517444072 8:-1.0408711235255355 
-5.784369405779029 1:-1.1411078811017756 2:1.6296903941988226 3:0.45952778778916237 4:0.7186174347231915 5:1.6070295811900277 6:1.8400719018241862 7:2.0738436351688083 8:2.1053254349365025 
-10.823647455562334 1:1.2330766165241331 2:2.286502416030509 3:0.5628559508757022 4:-1.2873732599334593 5:-0.6924393247241311 6:-0.7473945081724787 7:0.23880733238136775 8:2.870616489697539 
-8.12577929738146 1:-0.5475617566952984 2:-0.9975576931279246 3:1.0794967663084012 4:0.5932430163071508 5:-0.6924393247241311 6:0.19119624839493884 7:-0.5428939873915719 8:0.7448080042502159 
-22.5 1:0.3427574299144175 2:-0.3407456712962378 3:-0.057113027643536644 4:-1.2873732599334593 5:-0.6924393247241311 6:-0.7600781670450115 7:-0.5428939873915719 8:-0.2755800687644991 
-22.5 1:0.6395304921176561 2:1.035431898255868 3:0.25287146161608276 4:0.7186174347231915 5:0.9822682180737281 6:-0.3415174242514333 7:1.1080350547543658 8:0.4897109859965371 
-22.5 1:0.9363035543208947 2:-0.8411738784060944 3:-0.26376935381661626 4:0.2798069702670492 5:-0.006937273527079903 6:0.16582893064987314 7:0.8032017215610575 8:0.659775664832323 
-4.052823358002147 1:-0.25078869449205976 2:-0.7786203525173623 3:0.45952778778916237 4:1.1574278991793339 5:-0.6924393247241311 6:0.67317528555118 7:-0.7058741853365091 8:0.5747433254144301 
-1.7863811207529503 1:-0.5475617566952984 2:-1.1539415078497548 3:-0.9870664954223949 4:0.15443255185100851 5:-0.03296899699025906 6:-0.20199717665357417 7:1.497376638733938 8:-1.0408711235255355 
-22.5 1:0.9363035543208947 2:0.12840577286925275 3:0.8728404401353216 4:-1.2873732599334593 5:-0.6924393247241311 6:0.7112262621687786 7:-0.5066761656260304 8:1.5100990590112522 
-0.7390009262367087 1:2.716941927540326 2:-1.4041556114046831 3:-0.47042567998969587 4:-1.2873732599334593 5:-0.6924393247241311 6:0.10241063628720977 7:-0.8809269905366268 8:0.659775664832323 
-5.11541688268979 1:0.6395304921176561 2:0.2535128246467169 3:1.0794967663084012 4:-0.8485627954773168 5:2.136341291608004 6:-1.5718323348871024 7:0.33237003860901665 8:2.2753901137722883 
-22.5 1:-0.25078869449205976 2:0.12840577286925275 3:-0.5737538430762357 4:-1.2873732599334593 5:-0.6924393247241311 6:-0.04979327018318175 7:-0.9684533931366858 8:-0.7857741052718566 
-8.586630040669643 1:-1.1411078811017756 2:-0.4345759601293359 3:0.35619962470262256 4:-1.2873732599334593 5:-0.6924393247241311 6:1.6878679953537938 7:0.6462578272437107 8:-0.7857741052718566 
-9.41188627536983 1:-0.844334818898537 2:-1.0913879819610226 3:-0.16044119073007646 4:1.9723616188835982 5:-0.12841864968858263 6:1.180521640452487 7:1.3434508962303864 8:-0.36061240818239204 
-15.206773210295443 1:0.6395304921176561 2:-0.9350041672391926 3:-3.5702705725858896 4:-1.2873732599334593 5:-0.6924393247241311 6:-0.27809912988876995 7:0.08789974169161095 8:-0.1905477293466062 
-18.349300819021867 1:-1.1411078811017756 2:-0.497129486018068 3:1.0794967663084012 4:-1.2873732599334593 5:-0.6924393247241311 6:-0.3034664476338352 7:-0.8296184097021095 8:1.0849373619217875 
-22.5 1:-1.1411078811017756 2:0.19095929875798484 3:0.5628559508757022 4:1.0320534807632933 5:1.1297813176984097 6:0.5463386968258533 7:1.0023997412715364 8:-0.8708064446897495 
-1.9936707106703166 1:0.04598436771117886 2:-1.1539415078497548 3:1.0794967663084012 4:0.15443255185100851 5:-0.2065138200781201 6:0.9522157807468992 7:-0.9443081786263247 8:-0.7007417658539636 
-9.201307133367289 1:-0.844334818898537 2:-1.0288344560722906 3:0.45952778778916237 4:0.5305558070991305 5:-0.03296899699025906 6:9.413653069487583E-4 7:-0.32256890498452717 8:-0.36061240818239204 
-8.747470956130686 1:-0.844334818898537 2:1.3481995276995282 3:0.666184113962242 4:1.4081767360114152 5:-0.11106416737979653 6:0.10241063628720977 7:-0.3950045485156103 8:1.4250667195933593 
-10.75275772380218 1:0.04598436771117886 2:2.1301186013086792 3:2.1127783971737992 4:0.6559302255151712 5:-0.6924393247241311 6:-0.44298669523169476 7:0.62814891636094 8:0.3196463071607513 
-0.13793168579290455 1:2.123395803133849 2:-0.5596830119068 3:-0.057113027643536644 4:1.2201151083873543 5:-0.6924393247241311 6:1.8020209252065886 7:-1.043907188481564 8:0.7448080042502159 
-21.64576902019045 1:2.123395803133849 2:-1.1226647449053888 3:0.25287146161608276 4:-1.2873732599334593 5:-0.6924393247241311 6:-0.24004815327117182 7:-0.5187487728812108 8:0.14958162832496547 
-22.5 1:0.04598436771117886 2:1.035431898255868 3:0.14954329852954296 4:0.5305558070991305 5:0.40089306072939357 6:-0.08784424680077986 7:-0.4040590039569957 8:0.3196463071607513 
-13.351960712845445 1:-0.25078869449205976 2:-1.341602085515951 3:0.04621513544300315 4:-1.2873732599334593 5:-0.6924393247241311 6:0.06435965966961212 7:-0.6092933272950648 8:0.4897109859965371 
-2.396855015798231 1:-0.844334818898537 2:0.6913875058678415 3:0.8728404401353216 4:0.5932430163071508 5:2.171050256225576 6:-0.24004815327117182 7:1.267997100885508 8:-0.8708064446897495 
-10.585379634212583 1:-0.844334818898537 2:-0.05925480479694347 3:-1.2970509846820142 4:1.6589255728434966 5:-0.14577313199736874 6:0.4448694258455923 7:-0.5791118091571134 8:-0.7007417658539636 
-22.5 1:1.8266227409306104 2:0.37861987642418105 3:-0.057113027643536644 4:-1.2873732599334593 5:-0.6924393247241311 6:-0.6332415783196849 7:-0.6847471226399432 8:0.2346139677428584 
-22.5 1:0.6395304921176561 2:-0.3720224342406038 3:-0.47042567998969587 4:0.40518138868308984 5:-0.6924393247241311 6:-0.8869147557703383 7:-0.8024550433779533 8:-0.5306770870181778 
-22.02138505054273 1:1.2330766165241331 2:-0.6535133007398982 3:0.35619962470262256 4:-1.2873732599334593 5:-0.6924393247241311 6:0.8507465097666381 7:-0.8507454723986755 8:0.7448080042502159 
-22.5 1:0.6395304921176561 2:0.06585224698052068 3:0.14954329852954296 4:1.5335511544274558 5:1.3033261407862708 6:0.20387990726747168 7:0.7881109624920818 8:0.06454928890707255 
-3.566857192626196 1:-1.1411078811017756 2:-1.6856464779039775 3:0.35619962470262256 4:-1.2873732599334593 5:-0.6924393247241311 6:1.6878679953537938 7:-0.8386728651434949 8:1.0849373619217875 
-7.314642217286229 1:-0.844334818898537 2:0.09712900992488673 3:-0.47042567998969587 4:0.7186174347231915 5:-0.6924393247241311 6:0.48292040246318996 7:0.12713571527094772 8:-1.0408711235255355 
-9.388504252339152 1:-1.1411078811017756 2:0.9728783723671358 3:0.666184113962242 4:1.1574278991793339 5:1.667770269270779 6:1.2058889581975525 7:-0.6092933272950648 8:-0.5306770870181778 
-22.5 1:0.6395304921176561 2:-0.497129486018068 3:0.5628559508757022 4:0.4678685978911102 5:-0.6924393247241311 6:0.06435965966961212 7:1.225742975492376 8:-0.6157094264360707 
-12.561075970747968 1:-0.5475617566952984 2:-0.27819214540750575 3:0.8728404401353216 4:1.3454895268033948 5:0.6959192599787574 6:0.8126955331490395 7:-0.681728970826148 8:-0.44564474760028494 
-5.060101148029128 1:-0.5475617566952984 2:-0.9037274042948265 3:0.35619962470262256 4:-0.033629075773052505 5:-0.6924393247241311 6:-0.9883840267505998 7:3.700627462804385 8:-0.44564474760028494 
-6.910778362775329 1:0.6395304921176561 2:1.9424580236424829 3:1.2861530924814808 4:-1.2873732599334593 5:-0.6924393247241311 6:1.1171033460898234 7:2.9853254829349387 8:0.9999050225038947 
-0.8258443085891528 1:0.04598436771117886 2:-0.9662809301835585 3:0.9761686032218614 4:1.6589255728434966 5:-0.22386830238690622 6:0.7239099210413115 7:-0.3316233604259126 8:-0.36061240818239204 
-1.37382235918914 1:-1.1411078811017756 2:0.347343113479815 3:0.45952778778916237 4:-1.2873732599334593 5:-0.6924393247241311 6:0.05167600079707926 7:-0.2380606541982634 8:-1.0408711235255355 
-22.5 1:0.3427574299144175 2:0.22223606170235086 3:0.5628559508757022 4:-1.2873732599334593 5:-0.6924393247241311 6:0.3307164959927984 7:-0.9895804558332517 8:0.9999050225038947 
-4.894251237460259 1:1.8266227409306104 2:-0.9037274042948265 3:-0.36709751690315606 4:-1.2873732599334593 5:-0.6924393247241311 6:-0.7727618259175444 7:-0.9201629641159635 8:-0.1905477293466062 
-22.5 1:0.3427574299144175 2:-0.528406248962434 3:0.25287146161608276 4:-1.2873732599334593 5:-0.6924393247241311 6:-0.40493571861409666 7:-0.9624170895090954 8:1.2550020407575735 
-0.5300024476979174 1:-1.1411078811017756 2:-0.5909597748511661 3:0.8728404401353216 4:-0.2216907033971135 5:0.21867099648713945 6:-0.3415174242514333 7:0.6734211935678667 8:-0.5306770870181778 
-22.5 1:0.04598436771117886 2:0.22223606170235086 3:0.04621513544300315 4:-1.2873732599334593 5:-0.6924393247241311 6:0.29266551937519986 7:-0.5096943174398254 8:-0.7857741052718566 
-5.750616759506223 1:-0.25078869449205976 2:-0.5596830119068 3:0.14954329852954296 4:0.5932430163071508 5:0.6265013307436129 6:-0.5571396250844887 7:0.7790565070506964 8:-0.5306770870181778 
-22.5 1:-0.5475617566952984 2:1.1292621870889659 3:0.25287146161608276 4:0.9066790623472525 5:3.125546783208812 6:0.9395321218743663 7:-1.019761973971203 8:-0.2755800687644991 
-22.5 1:-0.844334818898537 2:-0.12180833068567555 3:-0.47042567998969587 4:0.15443255185100851 5:0.2273482376415325 6:0.2292472250125365 7:-0.01773557179121863 8:-0.5306770870181778 
-1.4999227270829898 1:-0.5475617566952984 2:-0.02797804185257743 3:-0.7804101692493153 4:-1.2873732599334593 5:-0.6924393247241311 6:-0.65860889606475 7:-0.050935241742965126 8:-0.5306770870181778 
-22.5 1:-0.844334818898537 2:-0.02797804185257743 3:0.5628559508757022 4:1.7216127820515168 5:1.0430089061544794 6:0.876113827511703 7:2.0828980906101937 8:0.659775664832323 
-22.5 1:1.8266227409306104 2:1.2856460018107962 3:0.7695122770487818 4:-1.2873732599334593 5:-0.6924393247241311 6:-0.5444559662119562 7:-0.8748906869090365 8:1.7651960772649309 
-22.5 1:1.5298496787273719 2:1.035431898255868 3:0.45952778778916237 4:0.5932430163071508 5:0.1752847907151742 6:-0.1385788822909108 7:-0.9292174195573489 8:0.9999050225038947 
-22.5 1:0.6395304921176561 2:1.3794762906438942 3:-0.057113027643536644 4:0.3424941794750695 5:0.7653371892139017 6:0.20387990726747168 7:0.48025947748497827 8:1.3400343801754664 
-4.545655560744089 1:-0.25078869449205976 2:0.06585224698052068 3:1.5961375817411 4:0.9066790623472525 5:1.3900985523302014 6:3.209907060057714 7:1.2317792791199664 8:-0.9558387841076424 
-7.718999040989685 1:-1.1411078811017756 2:-0.8724506413504605 3:-0.47042567998969587 4:-1.2873732599334593 5:-0.6924393247241311 6:0.41950210810052657 7:-0.6304203899916307 8:-0.7007417658539636 
-2.8036275955808048 1:-1.1411078811017756 2:-0.8098971154617284 3:-0.26376935381661626 4:1.1574278991793339 5:0.21867099648713945 6:1.5990823832460657 7:-0.31955075317073206 8:-0.9558387841076424 
-1.5102689042865207 1:0.3427574299144175 2:0.4724501652572792 3:0.666184113962242 4:-1.2873732599334593 5:-0.6924393247241311 6:-4.057829473903507 7:0.5074228438091345 8:3.040681168533325 
-17.53251316398971 1:-0.5475617566952984 2:0.2535128246467169 3:0.25287146161608276 4:0.3424941794750695 5:1.0863951119264448 6:0.1531452717773412 7:0.3595334049331729 8:-0.7007417658539636 
-7.852276448706792 1:-0.844334818898537 2:-0.4345759601293359 3:-0.9870664954223949 4:-0.09631628498107284 5:-0.6924393247241311 6:-0.46835401297676 7:-0.8779088387228317 8:-0.36061240818239204 
-4.868481931633831 1:-0.844334818898537 2:0.5975572170347433 3:0.25287146161608276 4:0.3424941794750695 5:0.8694640830666184 6:-1.0010676856231322 7:1.0748353848026193 8:-0.8708064446897495 
-22.5 1:1.2330766165241331 2:-0.4345759601293359 3:0.5628559508757022 4:-1.2873732599334593 5:-0.6924393247241311 6:-0.9376493912604688 7:1.159343635588883 8:0.06454928890707255 
-22.5 1:-0.5475617566952984 2:0.0032987210917886055 3:0.04621513544300315 4:0.7186174347231915 5:0.13189858494320894 6:0.9014811452567687 7:1.2498881900027372 8:-0.8708064446897495 
-1.4702274892960043 1:-1.1411078811017756 2:-0.6847900636842642 3:-3.5702705725858896 4:-1.2873732599334593 5:-0.6924393247241311 6:-0.8869147557703383 7:-0.6606019081295821 8:-0.9558387841076424 
-14.83607502339045 1:0.04598436771117886 2:-0.09053156774130951 3:0.04621513544300315 4:-1.2873732599334593 5:-0.6924393247241311 6:1.5863987243735327 7:1.3042149226510498 8:-0.6157094264360707 
-15.105673533635416 1:-0.5475617566952984 2:0.2535128246467169 3:-3.5702705725858896 4:-1.2873732599334593 5:-0.6924393247241311 6:0.8253791920215724 7:-0.5066761656260304 8:0.659775664832323 
-4.941190510593063 1:0.6395304921176561 2:-1.279048559627219 3:0.5628559508757022 4:0.9693662715552729 5:-0.6924393247241311 6:0.9902667573644968 7:-0.8899814459780122 8:-0.44564474760028494 
-1.2186563937546129 1:-0.25078869449205976 2:1.160538950033332 3:-0.26376935381661626 4:-0.4724395402291949 5:2.66565300202598 6:-0.10052790567331271 7:-0.5338395319501865 8:-0.7857741052718566 
-22.5 1:0.3427574299144175 2:0.1596825358136188 3:0.45952778778916237 4:0.40518138868308984 5:-0.5015400193274839 6:-0.3034664476338352 7:-0.0992256707636873 8:0.5747433254144301 
-22.5 1:-0.844334818898537 2:-0.40329919718496987 3:-0.47042567998969587 4:1.5962383636354762 5:0.8521096007578323 6:0.4448694258455923 7:-0.17166131429477055 8:-0.7857741052718566 
-10.350073973325706 1:0.3427574299144175 2:-0.12180833068567555 3:0.8728404401353216 4:0.5932430163071508 5:0.21867099648713945 6:0.9014811452567687 7:-0.6666382117571723 8:0.7448080042502159 
-2.3068236901267625 1:-0.844334818898537 2:-0.3094689083518718 3:1.2861530924814808 4:-1.2873732599334593 5:-0.6924393247241311 6:0.10241063628720977 7:-0.6243840863640404 8:0.9999050225038947 
-2.4965965511738135 1:0.04598436771117886 2:-0.27819214540750575 3:0.45952778778916237 4:1.2201151083873543 5:-0.6924393247241311 6:0.9395321218743663 7:-0.7119104889640994 8:0.4046786465786442 
-14.961906617162951 1:-1.1411078811017756 2:0.6288339799791094 3:0.7695122770487818 4:0.3424941794750695 5:-0.6924393247241311 6:0.05167600079707926 7:-0.11733458164645812 8:-0.9558387841076424 
-9.752464542274163 1:-0.5475617566952984 2:-0.497129486018068 3:0.30453554315935266 4:-1.2873732599334593 5:-0.6924393247241311 6:-1.1025369566033936 7:0.265970698705524 8:1.680163737847038 
-9.272575799880494 1:0.04598436771117886 2:-0.8098971154617284 3:-0.47042567998969587 4:0.7186174347231915 5:-0.6924393247241311 6:0.43218576697305944 7:-0.567039201901933 8:-0.44564474760028494 
-13.774344579595432 1:2.716941927540326 2:1.004155135311502 3:0.9761686032218614 4:1.0320534807632933 5:0.5223744368908962 6:1.0917360283447588 7:2.1191159123757353 8:0.4897109859965371 
-22.5 1:2.4201688653370876 2:-0.6535133007398982 3:0.7695122770487818 4:0.7813046439312119 5:0.21867099648713945 6:-0.25273181214370466 7:0.04866376811227419 8:1.0849373619217875 
-22.5 1:0.9363035543208947 2:0.5037269282016452 3:1.0794967663084012 4:1.2828023175953747 5:-0.6924393247241311 6:9.413653069487583E-4 7:-0.24409695782585364 8:0.4897109859965371 
-5.105024737791546 1:-0.844334818898537 2:-0.46585272307370196 3:0.35619962470262256 4:-1.2873732599334593 5:-0.6924393247241311 6:0.6985426032962457 7:-0.8296184097021095 8:-0.6157094264360707 
-22.5 1:-0.5475617566952984 2:0.034575484036154645 3:0.04621513544300315 4:0.40518138868308984 5:-0.6924393247241311 6:0.6097569911885167 7:-0.3980227003294054 8:-0.5306770870181778 
