<?xml version="1.0"?>
<!-- DTD for the XMLBIF 0.3 format -->
<!DOCTYPE BIF [
	<!ELEMENT BIF ( NETWORK )*>
	      <!ATTLIST BIF VERSION CDATA #REQUIRED>
	<!ELEMENT NETWORK ( NAME, ( PROPERTY | VARIABLE | DEFINITION )* )>
	<!ELEMENT NAME (#PCDATA)>
	<!ELEMENT VARIABLE ( NAME, ( OUTCOME |  PROPERTY )* ) >
	      <!ATTLIST VARIABLE TYPE (nature|decision|utility) "nature">
	<!ELEMENT OUTCOME (#PCDATA)>
	<!ELEMENT DEFINITION ( FOR | GIVEN | TABLE | PROPERTY )* >
	<!ELEMENT FOR (#PCDATA)>
	<!ELEMENT GIVEN (#PCDATA)>
	<!ELEMENT TABLE (#PCDATA)>
	<!ELEMENT PROPERTY (#PCDATA)>
]>


<BIF VERSION="0.3">
<NETWORK>
<NAME>pima_diabetes-weka.filters.unsupervised.attribute.Discretize-F-B4-M-1.0-R3-4-precision6-weka.filters.supervised.attribute.Discretize-Rfirst-last-precision6-weka.filters.unsupervised.attribute.ReplaceMissingValues</NAME>
<VARIABLE TYPE="nature">
<NAME>preg</NAME>
<OUTCOME>&apos;\&apos;(-inf-6.5]\&apos;&apos;</OUTCOME>
<OUTCOME>&apos;\&apos;(6.5-inf)\&apos;&apos;</OUTCOME>
</VARIABLE>
<VARIABLE TYPE="nature">
<NAME>plas</NAME>
<OUTCOME>&apos;\&apos;(-inf-99.5]\&apos;&apos;</OUTCOME>
<OUTCOME>&apos;\&apos;(99.5-127.5]\&apos;&apos;</OUTCOME>
<OUTCOME>&apos;\&apos;(127.5-154.5]\&apos;&apos;</OUTCOME>
<OUTCOME>&apos;\&apos;(154.5-inf)\&apos;&apos;</OUTCOME>
</VARIABLE>
<VARIABLE TYPE="nature">
<NAME>pres</NAME>
<OUTCOME>&apos;\&apos;(-inf-63]\&apos;&apos;</OUTCOME>
<OUTCOME>&apos;\&apos;(63-71]\&apos;&apos;</OUTCOME>
<OUTCOME>&apos;\&apos;(71-79]\&apos;&apos;</OUTCOME>
<OUTCOME>&apos;\&apos;(79-inf)\&apos;&apos;</OUTCOME>
</VARIABLE>
<VARIABLE TYPE="nature">
<NAME>skin</NAME>
<OUTCOME>&apos;\&apos;(-inf-3.5]\&apos;&apos;</OUTCOME>
<OUTCOME>&apos;\&apos;(3.5-24.5]\&apos;&apos;</OUTCOME>
<OUTCOME>&apos;\&apos;(24.5-32.5]\&apos;&apos;</OUTCOME>
<OUTCOME>&apos;\&apos;(32.5-inf)\&apos;&apos;</OUTCOME>
</VARIABLE>
<VARIABLE TYPE="nature">
<NAME>insu</NAME>
<OUTCOME>&apos;\&apos;(-inf-14.5]\&apos;&apos;</OUTCOME>
<OUTCOME>&apos;\&apos;(14.5-121]\&apos;&apos;</OUTCOME>
<OUTCOME>&apos;\&apos;(121-inf)\&apos;&apos;</OUTCOME>
</VARIABLE>
<VARIABLE TYPE="nature">
<NAME>mass</NAME>
<OUTCOME>&apos;\&apos;(-inf-27.85]\&apos;&apos;</OUTCOME>
<OUTCOME>&apos;\&apos;(27.85-inf)\&apos;&apos;</OUTCOME>
</VARIABLE>
<VARIABLE TYPE="nature">
<NAME>pedi</NAME>
<OUTCOME>&apos;\&apos;(-inf-0.5275]\&apos;&apos;</OUTCOME>
<OUTCOME>&apos;\&apos;(0.5275-inf)\&apos;&apos;</OUTCOME>
</VARIABLE>
<VARIABLE TYPE="nature">
<NAME>age</NAME>
<OUTCOME>&apos;\&apos;(-inf-28.5]\&apos;&apos;</OUTCOME>
<OUTCOME>&apos;\&apos;(28.5-inf)\&apos;&apos;</OUTCOME>
</VARIABLE>
<VARIABLE TYPE="nature">
<NAME>class</NAME>
<OUTCOME>tested_negative</OUTCOME>
<OUTCOME>tested_positive</OUTCOME>
</VARIABLE>
<DEFINITION>
<FOR>preg</FOR>
<GIVEN>class</GIVEN>
<TABLE>
0.8113636363636364 0.18863636363636363 
0.7002427184466019 0.29975728155339804 
</TABLE>
</DEFINITION>
<DEFINITION>
<FOR>plas</FOR>
<GIVEN>class</GIVEN>
<TABLE>
0.2897125567322239 0.424357034795764 0.2140695915279879 0.0718608169440242 
0.07869249394673124 0.34261501210653755 0.28934624697336564 0.28934624697336564 
</TABLE>
</DEFINITION>
<DEFINITION>
<FOR>pres</FOR>
<TABLE>
0.23460820895522388 0.23367537313432835 0.24207089552238806 0.2896455223880597 
</TABLE>
</DEFINITION>
<DEFINITION>
<FOR>skin</FOR>
<GIVEN>class</GIVEN>
<GIVEN>age</GIVEN>
<TABLE>
0.18945868945868946 0.34615384615384615 0.2264957264957265 0.2378917378917379 
0.3958333333333333 0.14583333333333334 0.19391025641025642 0.2644230769230769 
0.2851851851851852 0.09259259259259259 0.2111111111111111 0.4111111111111111 
0.3875 0.14464285714285716 0.21964285714285714 0.24821428571428572 
</TABLE>
</DEFINITION>
<DEFINITION>
<FOR>insu</FOR>
<GIVEN>class</GIVEN>
<GIVEN>age</GIVEN>
<TABLE>
0.369472182596291 0.34950071326676174 0.2810271041369472 
0.5922953451043339 0.18780096308186195 0.21990369181380418 
0.4423791821561338 0.22676579925650558 0.3308550185873606 
0.592128801431127 0.08407871198568873 0.32379248658318427 
</TABLE>
</DEFINITION>
<DEFINITION>
<FOR>mass</FOR>
<GIVEN>class</GIVEN>
<TABLE>
0.3325757575757576 0.6674242424242425 
0.12014563106796117 0.8798543689320388 
</TABLE>
</DEFINITION>
<DEFINITION>
<FOR>pedi</FOR>
<GIVEN>class</GIVEN>
<TABLE>
0.6962121212121212 0.3037878787878788 
0.5861650485436893 0.41383495145631066 
</TABLE>
</DEFINITION>
<DEFINITION>
<FOR>age</FOR>
<GIVEN>class</GIVEN>
<TABLE>
0.5295454545454545 0.47045454545454546 
0.32402912621359226 0.6759708737864077 
</TABLE>
</DEFINITION>
<DEFINITION>
<FOR>class</FOR>
<TABLE>
0.6157796451914099 0.3842203548085901 
</TABLE>
</DEFINITION>
</NETWORK>
</BIF>
